input: [-0.16133504546409316,0.057110687896407386,-0.8068029715958975,-0.38547960048655394,0.6636040635540619,-0.7355461783447328,-0.22252608961145715,0.6457394044236984,-0.618681389224603,0.5931207761655759,0.9607128123342754,0.9999126889545169,0.6618075520037243,-0.6585438812947697,0.22128273493151318,-0.4769589606762432,0.8405787832613414,0.5158428590360653,-0.6761780904599326,-0.060914459532632526,0.6089976564790041,-0.7820771280227989,-0.7583735172367467,-0.4439104760982837,0.00694060121490736,-0.834397531025344,-0.48403383653462173,-0.011333009486214518,0.8534901830451795,0.16135527223791346,0.6730745956538191,-0.1588163535588225,-0.41384337965993945,0.7842334052365736,0.683939202964083,-0.8198027817229905,0.6953111468868409,-0.34614824793752885,0.5353324919702629,-0.060189195853541655,-0.6540164689797416,-0.7254204056277407,-0.7998216903766266,0.909339088143345,0.267719803833951,-0.6543133930483109,0.37914641524893233,-0.5102235432022446,0.629583702034213,0.03070379933539824,-0.6947504736292056,-0.2746403513104043,-0.206218442413465,-0.17064152637604746,-0.7713973652839936,0.959212943086041,-0.7033022109212068,-0.49078516847715115,-0.9328045482498024,-0.49056236440326106,-0.8139751796291417,-0.9446843180863522,-0.1010099565632514,0.11473685300436887,-0.9898111479681364,-0.926218980166593,-0.3961454834748128,-0.5335563769759186,0.9862911850328486,0.5996607542915309,0.49880057850221826,-0.28799077617141733,0.0201471670200144,-0.06628165413788922,-0.3863445458213435,0.02109134445932348,-0.9897157426220695,-0.6378783461465054,-0.17015879951170443,0.16136966037046374,0.6404405297340838,0.07974724905534569,-0.7706205218842519,0.5069074647715723,0.7999612658022717,0.011451203160162349,0.5984440219464906,0.6897642088504596,-0.9058006224705484,0.36841136314417877,0.6953550362575505,-0.43132003059344237,-0.6689211018731605,-0.7575930079365245,0.1726069916844215,0.489315691898248,-0.8594858353862611,-0.6846846772127704,0.32085296791306384,-0.28730196245795203,0.47808563684415506,-0.7889838851003383,-0.13663832396830755,-0.13829059671373511,0.9980999723696005,0.23406969428072455,-0.1980369013260206,-0.5766703358243048,-0.05134603366965984,0.18448655126660252,0.5473068907433627,0.1282385025197792,-0.16764367460508955,0.4695619841372436,0.7796238244648326,-0.4541926148990545,0.9198928684025243,-0.31693218436171344,-0.4736814300718146,-0.22857497107584424,-0.10270829866631215,-0.6161764686622055,0.6914002299707547,-0.88616462584,-0.1331804058267041,-0.4460075511630981,0.9913281556384006,-0.08370224005001381,-0.803454208738916,-0.4988827314033186,0.27973107793616747,-0.7545715181706321,0.5318920670671248,-0.4973531521571122,0.7976755754298208,0.1009479777848763,-0.09223131399385087,-0.09716690867217181,0.9036865654688233,-0.5277681165558237,-0.2855316155297878,-0.8576122352725046,-0.630453596226014,-0.07156424848230047,-0.08019908908860218,-0.5112011909016934,0.27382700301481533,-0.686995805319428,0.010761249458129729,-0.17159456169194276,-0.6385637152442565,0.7173876776768875,-0.7867269721762338,0.3041473341603096,-0.22315910766794067,-0.6568299304737544,0.3136733242605747,0.8156479828401744,-0.011658945933925136,0.29876117315318695,0.7892280933597542,-0.4334135069056704,0.04086947289959819,0.8673063160401175,0.14982059930698655,-0.596877800297537,0.5547419198641392,-0.4088940200707365,0.41781073535106317,-0.24586462411311394,-0.23222378041693248,0.8857352680605501,0.725310139184359,0.6275685771261768,-0.5973334714950076,-0.03196787980302829,0.7360088382114696,0.18730291848531455,0.2956972647417191,-0.2469788782760418,-0.26987396504971706,-0.6846172068531924,-0.6750572356015627,0.8814543274336157,-0.6245090269474698,0.9179617157423399,-0.8688215844529197,0.3228541502942397,0.21250863117862484,0.7330507788890772,0.14230626557380188,0.8446474319853092,0.27103897426982604,-0.31055303346275087,0.4921762781907464,-0.9538183669607365,-0.9014514031019201,-0.6943282491440355,-0.4327367948848724,-0.3728820821941936,0.402720536671062,0.619703944789062,-0.8802639200983327,0.09289887231706007,-0.5019640403502132,-0.2952562635722218,0.15303648216722698,-0.8043081264245668,-0.20532934777578693,0.9531971045652246,0.11615911496942521,0.06741189234561018,-0.3206234535645931,-0.9994752251185264,-0.6645929247573372,-0.7778689900948976,-0.6881536680761966,-0.5874491525627012,0.0674714073160676,-0.6116151787101523,0.09638852119622454,-0.9257186852390558,0.07526359951013739,-0.5224106245447064,-0.11243255974838218,-0.40476582300575714,-0.7919929030417228,0.9029844591106022,0.34979088144938175,0.9857371538212616,0.10967237213730918,-0.06577623012166711,-0.6853434036319839,0.3606017112930344,0.8849183366175386,0.8059340940359461,0.466197155064773,-0.5089651850933798,0.31928041642091753,-0.10573048216162695,-0.7670103864955176,-0.34739614069748104,-0.9195753753252038,-0.5663101699411099,-0.6225735868715501,0.4065223910605773,-0.7801359484960617,-0.03310505525588492,-0.5537299583588096,0.7034781701842419,-0.7503864455576388,0.004051115792862436,-0.017055920083158815,0.01367773832718755,-0.9141647549070893,-0.786853468626938,-0.7991604021354033,0.06373479557659212,0.2316062784785886,-0.12848139702153638,0.678245266875249,0.20048327305903313,-0.28648110248419756,0.27929717905150864,-0.440662710470374,-0.5962515537449504,-0.5081005555993336,-0.6312886621026792,-0.268007141694816,-0.4654368521173762,0.3320128620045224,-0.1610892006345641,-0.49798013601235036,-0.4677309468220343,0.453696319775752,-0.19584380953088698,-0.6052769690494824,0.963395750212787,0.6694434076064477,0.16393469149104134,0.8885553618246953,-0.422835755552436,-0.8239600496694384,0.6867618670142979,-0.878069281690923,-0.6630861213881987,0.6824287789752688,0.14513299562587778,-0.08689656444878757,0.7737053266549525,0.1365604283097206,0.7472898899179714,-0.20565281968098215,0.4478050491465777,0.9565635445443523,0.582173534975517,-0.8145060128295838,0.8057101056562523,-0.6233512275037294,-0.17286494590983548,-0.681776901782563,-0.21517525102435808,0.28573532935048407,-0.9363196636010858,-0.9286832416135904,-0.8551456306409191,-0.233129564502204,-0.7952716157920623,0.48842811842417655,-0.30556561103535973,-0.5619123478086856,0.2575644848940959,-0.5762649488943239,0.3334650844444369,-0.34956993935694114,0.42987410425677863,0.4971812636260833,0.1460775623236692,0.6164405080878474,-0.06805420425755693,-0.6601649651985888,0.6561072041090283,0.622501144842531,-0.7636658649050174,-0.0287772078120323,0.7964060183384436,0.6209813875551797,-0.4730219660010009,-0.9256758984836564,0.14527718345657314,0.7032317380193971,-0.39702823433102696,-0.0797581802426004,0.5477686154618944,0.2220394614375958,0.5978895243971394,0.7433901870095161,0.36651547215214886,-0.33776009002977814,-0.46623220991417735,-0.5206293730837115,-0.7037248156211451,0.7507553098868358,0.9495524923026446,0.9515345800495179,0.9282501421949592,-0.2475890055696357,0.6270209796883497,-0.17144079321283234,-0.9352514793930589,-0.5845417165102802,0.7828928744773871,0.9741912559467303,0.1616847995921078,-0.38919143203484574,0.004045511786798572,0.17164212383654198,0.21587609451957857,-0.6484350072889737,-0.326546104415816,0.6289444367632113,-0.08395725592634751,-0.4154871725091991,-0.3323216880227553,0.1579102394054155,0.9408748026624081,0.9128102536985911,-0.2975751339290331,0.4681574291939401,0.9144800636955308,-0.7608021974945887,0.8609082611484784,-0.3710001330523167,0.7189807207780561,-0.7883762369008895,0.560448959301822,-0.5741747378780839,-0.3840194923608591,0.3082604846888011,-0.5040600888168747,-0.9260883110109199,0.943076690672179,-0.5835351418882719,0.9445212298579471,-0.4485367937346454,0.02854373626940432,0.8403142497246274,-0.7759956391906682,0.674972132897826,0.4067699546555086,-0.186072423554547,-0.931709622443655,-0.03615595935381988,0.4189803431030543,0.8028588344396657,-0.7837701985016776,0.3275497609970748,-0.15176737500867432,-0.8565710166449068,-0.3939240785593474,0.6573965208270891,-0.6353738730825091,-0.10006005553166597,0.22588389312584067,-0.4836612090349768,0.24611724678657132,-0.7877072132933416,0.8909143031930806,-0.7059227271035451,0.09228702679750556,0.8616100849850299,-0.9976991481781934,0.4310226447794918,0.06286016725021648,0.29904095392717345,0.6869450924835501,0.613529059886663,0.549728762972141,-0.03699569934000202,-0.3731942773494108,0.20412995507721976,-0.8693150451440603,-0.6472939180532424,-0.6435489925799078,0.5943375700993432,-0.8449774186621699,-0.969158044554707,0.8409479595870091,0.6538951970277891,-0.6243814037661062,-0.5040233769596987,-0.2581364068311469,-8.007879129072748E-4,0.6690598183167318,-0.3048314785313817,0.9373573367734271,0.41493698554002534,-0.9251670919562935,-0.16001268465475826,-0.4169527860746747,0.43681291513134135,-0.863451691827021,-0.8558515966665203,0.2835342390172342,0.8395661015926659,-0.15737642127088813,-0.8814316336245935,0.790173991066689,0.5733074811928007,-0.6591977979536574,-0.8602773670070201,0.04888698298506666,-0.44746405521956634,0.04033950092377481,-0.8502356176982429,0.39250173171927827,0.626018247133368,0.7176388317736386,0.5519428638270489,0.20532903661692536,0.04204784839633535,0.8055747945075447,0.6324365764188418,0.4833680915186638,-0.22757573954078336,0.17369399404228325,0.16979491794514656,0.3717480282573067,0.16982379022855332,-0.6040642808532988,0.28576084399203494,0.9817128220812694,-0.39294034712185577,0.7544690644289083,-0.9536760439058338,-0.4273407806885767,0.9830589502939073,-0.9573041253047665,0.8394331656429681,-0.4695590851686564,-0.7207895105732904,-0.3925782509988853,0.13587397285060954,-0.5186436398962515,-0.2889332470056145,-0.9903490504824459,-0.11760383673539154,-0.6480611357687716,0.44421103077997315,-0.8145864894937525,-0.5187461794127863,0.2178721110086428,-0.6705712891917313,-0.947513242163599,0.07789822591990703,0.3810571749831355,0.6611503437726653,0.13582587915662092,-0.29135698376393626,0.2720599799548158,-0.4255384271080995,0.9739719602767796,-0.24730173024374902,-0.5041292150925933,0.369803272250401,0.8206581038897915,-0.9119513746324603,0.6221117316115663,0.790814468232651,0.4702887467736967,-0.6317713330232699,0.16653042375733906,-0.920403192412105,0.9129188160493062,-0.08287300085222671,-0.381179017437824,0.49500865103726,0.9638138147876989,-0.11847156067502262,0.34251742904174254,0.9034257964869894,-0.9853756449203848,0.4861819418160245,-0.29409298772179815,-0.9622684901840157,-0.38233819559112536,-0.49624028693940936,-0.1013857208439144,0.06912936811815595,0.7417155490120688,-0.6178479141331448,-0.45328973584073284,-0.752301374961535,0.2273039256246867,-0.13588072243785,-0.540096620205438,-0.4585590099618386,0.221206389097232,-0.6105995616135014,-0.37242734251873766,-0.5601047761026379,0.184574609884546,-0.9130413531338044,0.9261067662752842,0.38722474194161616,0.4458765850755293,0.7451175495249602,-0.09178523433716101,-0.3289896150780105,-0.7906220771413071,-0.2100756082266253,0.515579093838163,0.016810433557031157,0.4318202036450749,0.007152115919430102,0.5894226687687281,-0.37512407787670976,0.04440703246029942,0.5109312924639293,-0.3507334661558026,-0.06576054460947223,-0.3758362375733064,-0.707919723664548,-0.4316430918112053,-0.98927748834916,-0.19181148626816547,-0.4282186839498834,-0.5050562457793637,0.12923453997078904,0.49626537103737656,-0.8586729899899237,0.6517960086846482,-0.14293383216505018,-0.7982352004342284,0.8862405964787041,-0.5079579359832647,-0.2562944541841856,0.7877080978570821,0.7731517145273055,-0.9023731085654041,0.5840365140074719,-0.7356734858428025,-0.2796134877597045,0.6773804682808937,0.1456039202344268,-0.6736005031731658,-0.021689624667738938,-0.44510489479524185,0.236960506317341,-0.12689258298688877,0.9130383058973344,-0.8678870335563642,-0.9570617934971677,-0.11990960164277675,-0.5827926575124647,-0.027272905031000327,-0.23598692916438502,0.6828548418053884,0.5640828491492185,-0.6297960552746478,0.770763504848923,-0.017375086413581542,0.5763484562259042,-0.4515631758421135,-0.27925211996762433,-0.299812402067023,0.6985085355103784,-0.011255704601315308,0.38395640341843307,0.18023441334009616,-0.8580912097773976,-0.7148704191930628,0.2843204292748258,-0.8118456468092516,0.9139598132905853,0.4004210223953073,-0.31141056395494626,-0.3568118984153581,0.04822676904250045,0.22911562651108097,-0.03978388211169359,-0.9036958773161334,-0.4803755978198174,-0.031547317035078404,-0.15528426636757353,0.5881123039761007,0.9590380329935129,0.9574453710661799,-0.135704459866951,0.711582761553607,-0.8257338021321687,-0.6356969178504861,-0.32662193991942834,0.45629146382526287,-0.5607393868735191,0.3858795810707165,0.9629696161325829,-0.2746335540964433,0.5312164891387476,0.4684856144841747,-0.6993463404761056,-0.7067371978314119,-0.4248553444975911,0.46760661829288885,0.15431746846119188,0.41194581597471114,-0.10186501313625973,-0.36522854055093124,-0.7284523694016363,0.2750176193641929,0.300598629996327,-0.14698116973177489,-0.42704120474217877,-0.8862275634893502,-0.5806453844696233,-0.36188718191019476,-0.23345227028003301,-0.17387837296372388,0.18750509884588595,0.08086150454326968,0.0014936604750006577,-0.27121912416771976,0.788621104790584,0.1265953063016252,-0.9463475302741526,0.2750662596070932,-0.04216182607094576,0.3710661961060693,-0.22867748988737824,0.3950980436621683,4.1316774856303695E-5,0.8977303494679463,0.8086857585869347,0.492164710245512,0.4753948290081882,-0.41041895034252995,-0.964341842146597,-0.93154683627625,-0.8549486086491438,0.8194016492452048,0.436709661421411,0.4553034632795341,0.4749537009421254,0.45551083523478453,-0.2024570785210853,0.1875999764519629,-0.23678151883619258,-0.28422309008876256,-0.9726511863601115,0.18886370865174373,0.7866725477257759,-0.43912102388486907,0.5756829664073744,-0.8769354670605713,0.7546874119562104,-0.9615017754831106,0.07683805355047912,0.021123455168550853,0.3135376248298267,-0.7266759658097337,-0.9090873645992601,-0.3954695712255387,0.3620860251031137,-0.35653690198036303,0.6096065489348885,-0.39454594243006214,-0.48032252609661574,0.09204363209479083,0.8561012231136598,-0.17782550383166718,0.2297003143430567,-0.5064911927156679,0.8322102094411379,-0.3493770274516248,-0.31264673227492135,0.527297487518001,0.052314542398132824,-0.6027352416754164,0.047733247751364116,0.6073127456821152,0.9524253463796586,0.8055155199704616,0.7004385481921622,0.07378282210333231,-0.4259563334693677,-0.08266590341851932,-0.21054144915131356,-0.9251791587750102,0.2963162509368711,0.6435880753775636,0.6122007247505457,-0.6518057475006571,-0.3736858967536214,0.23124121076299886,-0.9509172094515022,0.4595169492868467,0.3560884155966195,0.1923652763039112,0.7551966485146593,-0.03871924458607334,0.7564867565673938,0.1994319805427176,-0.5118720253903981,-0.5921543186225338,-0.09845922986185607,-0.04670652522666674,0.6510951510207277,-0.8052878132352632,-0.2964358143712382,-0.9052865211917394,0.8981469185125923,0.7861006620494444,0.7879288507160604,-0.14273651955091693,-0.5217612116434625,-0.9469321575306233,0.9478139784257236,-0.651146895919255,-0.11241558600981971,0.16509155457309044,-0.40694815874264334,0.10111433505961953,-0.6452426929177426,-0.23874026531656045,-0.6564777420522845,0.8403155747151811,0.7005962276129218,-0.02709840586050305,0.7163751821634514,0.31043138609221366,0.19504532600513036,0.2777027283032445,-0.2823106974652514,-0.5815500907904165,0.17563874014283565,0.13604859669779956,-0.926997286267546,0.9739505940923379,0.397417003542337,0.8935443754541212,-0.1825197467812436,-0.1405606411338456,-0.6483587002400704,0.5293617335297958,-0.9846909788904556,-0.40511820978225144,0.12074942477562933,-0.5117331538991663,-0.5107568567949519,-0.05067383618744081,0.7295745618101257,-0.9451133328610957,0.6150460524887402,0.5044636677514016,0.40792853591447975,-0.48802660983035673,-0.5280932396795022,0.8894244711556827,0.6972263070343101,-0.3298686167398772,0.9387355565424844,-0.21693777415568327,-0.08609125067626566,0.26467174421976014,-0.3124289604803947,-0.28056705645082025,-0.8750017655555788,-0.8140344321122954,0.4491604124245141,-0.7658739398598637,-0.503800713126707,0.5428674097920061,-0.5878980252655861,-0.046439379535371916,0.6405353847190716,0.15448564060979164,-0.8342333185554869,-0.14368955793008875,-0.5744097227867184,-0.7762214540798176,0.20854453692096753,-0.8750226034651767,0.5900014369648778,-0.33284198997533476,-0.2832103525248997,-0.24091711888571066,0.47493008030798634,0.8574861032875392,-0.9938352319755746,0.43390269416018223,-0.8061883907781977,0.38355345228939397,0.915916017916365,-0.03287748584701644,0.6437671677564019,0.8373302123569473,-0.7920651195577768,0.19464400767118417,-0.09536360934248522,0.6109845378256065,-0.0037056249132327856,0.05882620991379395,-0.223331386622047,-0.7811332639207729,0.20927266581785098,-0.723101744512118,0.47548820835811245,0.7553590817389788,0.1347071674527034,0.08423338991435769,0.8330280904575618,0.7576959382813928,0.21084887883186365,-0.7633717416806567,-0.25429662250830587,-0.03643841231935552,0.3987161368504608,-0.2923177994108468,-0.9338248529934399,-0.7635249823291093,-0.2917259958691778,0.3318271755359292,-0.347367534067752,-0.7223239965661752,-0.25040605042778297,0.020509976768092297,0.8695993259858739,0.651428559621323,-0.45852238987521643,-0.8815172739810531,0.47685075156809753,0.12136141522718114,-0.7661457298034813,-0.03089006915534953,0.5481006485282383,0.3286682235420568,-0.11340730382816,-0.1779455720480616,-0.17129793270486315,-0.5613063436685211,0.9961933589592771,-0.15634330512451733,-0.22832070305103214,-0.4593658764270365,-0.9268427018928329,0.17977587757323654,0.38398772682026006,-0.6942147830997139,-0.7533451794018917,0.7728135887226297,0.969977580203973,-0.3070285593202917,-0.3905542264637547,0.9490948096157319,-0.12338603961432892,-0.664503792906123,0.814830957995087,-0.3302664588743114,0.4250854241602937,0.6521537851176737,-0.7012570293771319,0.7775632723778649,-0.6439906103733013,0.6955481494994542,-0.5760876861527464,-0.4253333588768218,-0.6794768005052585,0.2841658489621457,-0.17062720717923097,0.6294904962390162,0.21712568755174622,-0.9396457977469468,0.31739874938181734,-0.16051338076049637,-0.49578643828040203,0.7745587303179879,-0.2787055920170354,0.4646711312900149,-0.9891658997535899,0.31687709713791645,0.37128389666513684,-0.9005513452885341,-0.776744882226843,-0.1998106486806539,-0.9879215959408123,-0.635499118451025,-0.4574707373431415,-0.655171531429491,-0.6754742476228663,0.4774913297113603,0.5883102046216695,-0.877042842182487,-0.4349251565855141,0.8007926435668529,0.26675404303695394,0.6915209918594176,0.26061603936176203,0.9663946649046129,-0.9745803609860373,-0.32414971717328345,-0.6174130366080062,-0.7573948976128686,-0.5143426002428328,0.4616867533285596,-0.026939358110805944,-0.565892272148746,-0.5269433804728365,0.7116138996899637,-0.1931383444109105,0.7963966691466058,-0.6409026093644745,-0.7574264163856705,0.3475836664345382,0.19755695882763313,0.5822324165273773,-0.9156469188548457,0.9917100095339464,-0.9251830333985847,0.23420252548269715,0.3846325532106958,0.3938674786122345,-0.3897511305095511,0.677466195096531,-0.7656173630661436,-0.4724296801696084,-0.01055123823354065,-0.6977964724843533,0.45810852548464487,-0.9403582699930617,-0.39102071286038176,-0.26356822953800085,0.9466367378712781,0.6028258738826051,-0.3371876715650777,0.09034802377971496,-0.7941532572814327,-0.5400667363959579,0.664961116170846,0.14609353667209524,0.452950426490796,-0.41580988701733235,0.15494512386488513,-0.20328918862116208,0.8126274149077908,-0.3457104013637373,-0.9153160929384907,-0.5068557660564024,0.9485257476757691,0.398971916006164,0.1998691349287791,-0.0242878548520431,0.8113415997942386,-0.39521132668901715,0.10581730878884299,-0.8534432492790924,-0.9071051174859357,0.6020328981442733,0.6472585544952398,0.5821564700499169,-0.5536801776762221,0.44764738232200374,0.7334707264485643,0.8900629984020396,0.5656932423054344,-0.48975033236734866,0.8046198304147325,-0.11839573255168068,0.8141271541419084,0.7112407978488542,0.7621223477576922,0.3623717716489756,0.24755387777705895,0.2872938716786908,0.37529729922147204,-0.7651107253741432,-0.39786393279509147,0.6133454603135031,0.9285291598551222,0.5629384683248146,-0.9035628113824945,-0.6384583814582083,0.1876162234055887,0.2645938510077226,-0.25480959040794193,0.07041855309180978,-0.35906871600351753,-0.8189007474724987,0.28970742249487613,-0.9400745503050583,-0.5895238685563198,0.41129467595381697,-0.17932745224705005,0.5517258557112428,0.22986247307425445,0.00638156618708452,-0.2977314073362731,-0.15945861220461,-0.5492930202037236,-0.6126082845078833,0.5022865613395198,-0.5888693377387668,-0.8341202133647037,-0.8221957269491282,0.29107265933219173,-0.9931769726013424,-0.7724998431081556,-0.4636676402651345,-0.10713053964900499,-0.17064348515579364,0.18952454164649168,-0.4700206147730923,0.45631232077184136,-0.7139041651063978,-0.9807723917349145,-0.39495613793495155,-0.943456614752803,-4.6404630518104284E-4,-0.20117266983675286,0.7938281047671816,0.9496106781964155,-0.8446763903083854,0.5779608495494091,-0.06261376484544967,0.5705211024851113,-0.3111420003150023,0.03966927665736608,-0.09027646720765437,-0.6004793878697181,-0.7031400993813621,-0.29299710682840696,-0.403562054860086,-0.5831226461971988,0.8091264665341777,-0.9556873907189194,0.21087276373818375,0.02464629820553399,0.06701688088605251,-0.0032549806387056623,0.42342731897632113,0.034598476013711466,-0.8709574514007703,0.2634122856901011,0.7347507023244548]
1bias: [0.4850058121521881,0.896582971380681,0.3180307784479579,0.2297397479504919,-0.5241413402505339,-0.917055130821218,-0.38685976419762214,0.13024577301181028,-0.3437544882891497,-0.1551455787342515,0.5910020663153952,0.36945148934786176,-0.49196556440984196,-0.9162623049939522,-0.6862958795279901,-0.3950667987705807,0.822935140712491,-0.8534670902296679,-0.790630236876817,-0.09738619250391611,-0.36353685507373834,0.6686852387613809,-0.379273708146167,0.27730494780463166,0.3354511013840966,-0.36911230287146246,0.6194609190088558,-0.6851240779569026,0.8390231309851712,-0.4246460968136938,-0.82125854278129,0.21496928429023687,0.4089939147303243,0.17038409449462044,-0.8828739615887302,-0.31463597551801903,0.502226828758481,-0.8807672078480977,-0.39476591663981186,0.5952209183280432,-0.9550856348039849,-0.5070718344243856,0.5047710003327994,0.8506505808258962,-0.8037745469325324,-0.7751023727619275,0.9208266670657843,-0.3545030081093392,-0.9386591492199996,0.7259569252391076,0.5221966344702462,0.49218251372634625,0.2689776889252342,0.36142216352230827,-0.5791974990595425,0.2519145395947353,0.8460802573763386]
1weights: [0.9231570773312829,0.10877495255133729,-0.27239722928202714,0.165673350478327,0.22417487980215767,-0.8154349706906381,-0.4014789521885094,-0.9018970980669143,0.7529549228336749,0.48996741114750386,-0.8354168076860022,-0.678302747002046,0.31540071807787573,-0.3159660474043975,-0.6328107517689718,0.47764765483071714,0.39542387170037485,-0.6011249725020098,-0.006646963933641059,0.9182735304103855,-0.19876242801845856,0.6862795342812484,0.18248478207877095,0.09365922816945815,-0.2179122371465676,0.9974946409846328,-0.6710510850476243,-0.36307486048618176,0.9911277740184663,-0.4347178650672554,-0.8010934242252661,0.42329969230543196,0.30001351375904095,-0.88151405574128,0.6470908917548384,-0.8116129433108117,-0.1406285665238256,-0.9431151554529813,-0.6056997411204605,0.4959869682661666,-0.9423804370327888,-0.729722356718634,-0.5866673165685448,0.730600805530619,-0.5849473359352126,0.03425925671127339,-0.7292858761091601,-0.6359410851135416,-0.8231446718088751,0.739663524003132,0.2458663415536566,0.5822460644351464,0.08349991587327166,0.9111309698528312,-0.8580560461994164,-0.20909358502718312,-0.15305999950343474,0.4360203616312206,0.9833165560633221,-0.9082198323822877,-0.721900764075966,0.5336102415889639,0.4648541666182746,0.5542351701420534,0.8577825305688904,0.12443941380036438,-0.3062552511634522,0.2749381783964362,0.9241082399506335,-0.05613618486566008,-0.941760205936683,-0.353500550243562,0.9848144056254982,-0.7874881236751843,0.36533190946134253,0.6436206283553088,-0.32297265745539794,-0.2047791387012572,0.7816877956936519,-0.2159654559635218,-0.9540589704291798,0.25671916589066934,-0.39817703170554397,0.6891013647534485,0.9095583975790515,-0.7288535201191435,0.9944580865919408,0.49900634903351704,-0.2651527146606978,-0.04616745634331587,0.5674507455549169,0.790079899699812,-0.32863029896032114,-0.14241755395955558,-0.1563523087249976,-0.9031588766761707,-0.8283563902915512,-0.3879542319567648,0.5544579415360185,0.6589419363009621,0.9732010026607103,0.48357408696009196,0.03489867579609385,-0.4067304160431693,0.1255088319846811,-0.5057005140450488,-0.05668073759671133,0.33404022684329426,0.21562220972753088,0.16299582570016558,-0.9690371645407216,-0.11120203761990965,-0.020357326112501184,-0.583389068753893,0.7509764094032265,-0.7741913890248817,-0.9172422844786969,0.7701879962058755,0.12343513953905183,-0.061581947532037384,-0.991159840243069,0.48422077815372067,-0.5376017504743402,0.2245214932581283,0.72128948442436,-0.9176831147751918,-0.677031462104567,0.17436915449859658,-0.9599990910844292,-0.6516300116494695,-0.6592213578752353,0.37751126532694523,0.5250500960047795,-0.2787285157376773,-0.4867170197561139,-0.060235769671798334,-0.934114902625816,0.8665189910811177,-0.0883155965456226,0.14365642376458432,-0.6544797638954123,-0.8720917930213918,-0.18571935797733352,0.19089283088061793,0.8824295524505048,-0.45117830769335465,-0.18353386305762176,-0.26704760280578177,0.4485410176861384,-0.7985425723161788,0.5995802225181195,-0.7739866056768663,0.3199351267402746,0.6736670844551509,-0.269755991171577,-0.4610218235782091,0.03755515752511851,-0.2630968887637408,-0.8862174374897345,0.6984471035175674,0.1384394259577526,0.45510049076686854,0.5397814801118699,0.17207077603101162,-0.3363111630826414,-0.7068511315406465,-0.8652195976042831,-0.3282139945743099,-0.8424138288048004,-0.8550627990696433,0.47655905953301136,0.10102033814322886,-0.6570131133200887,0.6247824971439788,0.6264243939398095,0.9750281324009622,0.691304152531474,-0.5476187080418728,-0.5996392243899245,-0.58890195914584,0.7011137951658288,-0.6897482085911055,-0.17314182828616964,0.615451717098056,-0.14239152985044146,-0.8360385775779262,0.9286860434027167,0.6862297263681032,-0.0341670141419923,0.7092638433985929,0.7178348208866474,-0.4929590421899239,-0.16616391888000193,-0.6534031738689274,-0.39270128494637535,0.5231273964404488,-0.8724229430233739,0.8822206349925306,-0.6796726760907998,-0.7277233670409977,-0.372371339065545,0.01660548708614562,0.8172270477614185,-0.31480873336830073,0.08842114654347966,-0.3954969608031147,0.7617454270692887,0.3751026655436023,0.43397478304519876,-0.3425326805357909,-0.3864742029088326,0.4039948697105211,-0.8802277505518059,0.10841622260791484,-0.4399285054460442,-0.6571173037704439,0.14862438079125262,-0.5308452632028482,-0.8088863820672592,-0.16383432380838103,-0.5509131265229661,0.6856083749029629,0.07022756747948478,0.3351580788104269,0.10818768868211248,-0.26815708744338385,0.1729984264259654,-0.8165265607761052,0.29592933930864795,-0.21722401973439487,0.537986955485527,0.817019792102295,0.6272313442976956,0.166812727258846,0.41620260876176673,0.48393964078551366,-0.8223162478125985,0.7234672437765985,0.7067414905686136,-0.40509197851700574,0.4026837434673054,0.677358301968616,-0.4692987184787605,-0.41822084138342674,0.8052313095287014,0.6887971111945415,-0.5775614990915328,-0.027350018111022223,-0.6441369398568293,-0.6474878121775884,0.8066853553513711,0.283988261002895,0.38890637449832033,-0.9101145495455747,-0.8180015891550547,-0.7144498621878985,0.9824390848581901,-0.8835998438466397,-0.2545375572734092,-0.7886099958618475,-0.3249569754763917,0.96483184820915,-0.9294727517235462,0.570344569301088,0.7806429041310463,0.906038643936923,0.8893083301703462,-0.6480496803860119,0.5334253110634999,-0.46696136555433987,0.032634622910953315,0.6288318960740977,-0.1719644699951608,-0.2396131859589945,-0.8544195089360458,0.8241773121779703,-0.5840471647129177,0.5396953351810407,0.9231714417392329,-0.7570062842587704,-0.9228511684698486,0.7034662999006587,0.3004072981900827,-0.14158427089430448,0.5068351591096902,-0.4767634015960984,0.2826984765045413,0.7994165361097023,0.4403113227913258,-0.19563945060245147,-0.08273524513518171,-0.49615032733014997,-0.11537350767647947,-0.3614138176812214,-0.7170006806186475,0.0808282320763416,-0.7660295841489888,0.296906763058554,0.31575328621858767,0.06902571076763575,-0.4835855416061998,0.16899990042507151,-0.21205048781039548,0.4825611113882584,-0.9471752488057958,0.1418924754641251,-0.1741124133283798,-0.1962909153396597,0.4044737091052384,0.3593192333197346,-0.02494525539273762,-0.5882458421596577,0.6440784375642536,-0.08543009090878484,-0.9867887842019678,0.8298853626015514,0.7056987717750893,-0.2965509469017946,0.4629704580505052,0.12710726634735292,0.8521297855919407,0.40029971734773806,-0.9299506292421047,-0.17027998520961551,-0.8558728772650259,0.31887106593465653,0.39031534835303705,-0.22300039367443691,0.20400715687164106,-0.21886244105224772,0.06821127417162987,-0.5017112498354668,0.5368658128153394,-0.4589938346036797,-0.6089085533594707,-0.10621538510265127,0.20586452778684006,0.7961752544947749,-0.7315440516572085,-0.7311094310711235,0.7537338455287614,-0.6297621465840699,-0.08797704139269258,0.10207448651057693,-0.07915113180162625,0.7584494458817843,0.18203244217456316,0.3187565650495472,0.9309331121453308,-0.09559089808683385,0.8171268247133552,0.2988262283525147,-0.10134778258027777,-0.1887698200724326,-0.4203914649942402,0.36296650711499856,-0.740940496788961,0.38960575076230364,-0.27517316121796,-0.9369578369487304,0.027060930121759696,-0.6934983038919607,0.14289887940353196,0.24438612748584698,-0.8342316730942514,0.02203808494005277,0.022924570638694686,0.5528969331433251,0.37581439344600365,0.6884484507498028,0.9543062942141891,0.827437401454769,-0.7865954041907752,-0.8661660601294725,-0.993260995223733,0.6481041123175972,0.6030856432652811,-0.23524198320535983,0.5198882874964157,-0.7964858944117024,0.5319121485590348,-0.10444500729750406,0.08572791717075412,-0.404665835009808,-0.005103029367600653,-0.25144570616644035,-0.47903895457665224,-0.28414430306898275,0.10733358357910805,0.1682498716579104,0.5039026191105673,0.9144969337260975,0.7077821267918714,0.9537730400481172,0.9896535479230684,-0.18830851068038146,0.7462132875315475,0.6378549216230047,0.5193498799240932,0.8237009772072741,-0.7149914990826507,-0.4732080760387405,0.10372483690552703,-0.7705321146347535,-0.9637834957540372,-0.1352427733035655,0.4881722551382397,0.9407017312693196,0.016671072664909303,0.09712852324571863,0.2959559504560385,-0.4710287785031053,-0.876723526540822,0.3813302957320739,0.7981599912023032,-0.48134806670673447,0.21397111137348812,-0.269982291467014,0.8734299511747132,-0.5278416263233343,0.6255827490323522,-0.5297435397520205,0.09750711911793752,0.9739660291549397,-0.03200814386370743,-0.9363182350349095,-0.1579882144406093,0.2625083219295836,-0.4952774975390468,0.7564476573378349,-0.23611641809378714,-0.03588872713844915,-0.5367161643499057,-0.9858948486317987,0.13134123869866143,-0.849293968462765,-0.7857122127658309,-0.7546225302353424,-0.9408233807998447,0.7731384152696661,-0.5834278634279615,-0.06987324194803257,-0.08434926392629571,0.41447257919482405,-0.05373890860015984,0.9406367366230071,-0.08478646298418235,-0.7372363659682069,0.7108984730059729,0.5816621144565728,0.22572109282275332,-0.7796472819318561,0.29549193037407795,0.6735252342204481,0.7957783558333738,-0.8531846388750404,-0.20448994707645762,0.8638676178898776,-0.45271269500637,0.37527337791637394,0.1625762560086912,0.27749214289586277,-0.41976513262736237,0.8468572279748225,0.9218081090432171,0.6000604117683617,-0.39879303840248825,0.4756848753624945,0.21545216411248158,-0.25976245389437946,-0.08593121309039975,-0.31319920057013406,0.7856687307224277,-0.6737953415991107,-0.9992957488421181,0.4620976301226507,-0.2699762490546649,0.4662875731870748,-0.02833881120832915,0.6843196593259253,-0.3535521637941428,0.43977850528127016,-0.0189988866122881,0.08682722025870415,-0.8698742186826893,0.282855596043168,-0.9233938644843631,-0.3031219728427226,-0.5070164374650092,-0.4041670779376936,-0.10335096877053762,0.3027596036898217,0.04714165956157679,0.32180231467502884,0.12488434529932446,-0.8198139800625006,0.32690816578171455,-0.26694414218888585,-0.31812676259162953,0.08094932412618183,0.21958723190295104,0.4105066500680292,0.2562062108423213,-0.6831058125766305,0.13358177013791317,-0.3873467615548818,-0.030757661004709558,0.6648636164454189,-0.9470270736079465,0.10446059228256455,0.7188359993055853,-0.2266601926859555,0.6109609972970058,-0.7471395523364002,0.06197538744929809,0.7690841120877887,0.16025680363031403,0.9943997285399326,-0.6267898263237297,-0.15784268472095264,-0.7732855280673332,0.1418957069660738,-0.5448006470671609,0.7302792234034523,-0.2967992884685451,0.4207831206952155,-0.22033793212105612,-0.7714341220320609,0.6738979217862866,0.6121685659386942,0.10146925388705164,0.11825954827779483,-0.1450575995332437,-0.7715666520832938,-0.684434635938789,0.23814569409366593,-0.704498610290943,-0.7414442024315218,0.11586340892172298,-0.1850712965840795,-0.7959039248382123,0.6941512631322979,-0.7327905462188951,0.6239164638761316,0.5481810526528239,-0.21644299920428245,0.1159663451295736,0.06894224053662334,0.42069342012804456,0.26011593633566443,0.3417181927511024,0.8505298950600484,0.07548797124048945,-0.847857154185709,-0.10794782739396269,0.5338870985604642,0.004278275351751626,0.2058838117720132,-0.4556744966048403,0.033389134450651614,-0.53909351157247,-0.5608920783964539,-0.3972197708726706,0.7977939331178627,-0.5655328370639561,-0.10820121110738246,0.8663197968096195,-0.6894927236966084,0.23101491380979655,0.25174113610262383,0.19171635611093762,0.4117950595839004,-0.45571236557526484,0.7066259576968834,0.7289696700065813,-0.0950822677969334,0.17908027331600374,-0.8893739989600784,0.2199915651078439,-0.07425969373773933,0.4366080849165106,-0.6477785416896202,-0.37125597277766875,-0.36455110310943306,0.579400550601624,-0.3286166803051036,0.8104110238169377,0.9385836182331269,-0.23602951784287884,-0.40194893869286363,-0.07086203641767685,0.13367543273669624,-0.6372935467976708,0.17016844569212797,0.8983256126092474,-0.3286476938438836,0.6921390755731269,-0.8616303146950997,0.244418200655242,-0.47514096054507937,-0.1770648388117808,0.9757365400756801,-0.515421004546389,-0.9294879065325461,-0.6323227364083384,0.6848748208706807,-0.6394003940972588,-0.16930943018348898,0.9256884043013658,0.6308870559905204,0.08584193469077372,0.9495400201752346,0.20986555009932117,0.9276458239455365,-0.8610341445995222,0.8516470583145037,-0.2113117061066112,0.2661010123294907,-0.9223527147141506,0.17651795436063034,-0.15272745513277508,-0.5028180564821945,0.34744644238929934,0.7867747635807265,-0.5954581599647204,0.7681831350387749,0.1254371446863951,-0.5844409770913697,-0.9807080165011595,0.5603516278990177,-0.13483737090379488,0.3487121044267003,-0.8238716599245928,-0.41327901797227873,-0.6010642421711887,-0.5701204811389293,0.26295788564039024,0.18306521437247114,0.20545485730831947,-0.36823618616991927,0.33492085213998957,0.5611746949978917,0.7651596087168269,0.4543291184561866,-0.2946491580884052,-0.9075161107045824,0.8027041704360194,-0.5091601817915812,0.8125547626602261,0.6514082573408142,0.6553781938066592,0.6451910860789358,-0.21809291363942784,0.9715772469422574,-0.9917400609689646,-0.310929371762096,0.6359562558446246,-0.04552360684236878,0.8013370427330577,0.1150659707385755,0.2009441048598688,0.9188420808499493,-0.7592133339869165,0.5719120184019699,-0.5836575128133361,-0.10952170052549226,-0.4639438015112436,-0.4393495128010969,0.9747138849044799,-0.7940053683550947,-0.7636577321210201,-0.4744486671296111,0.002406522246058085,0.9402916165500899,0.8545163335391541,0.9912245936393274,-0.16270260668394165,-0.03355100038161707,0.8435000270025053,-0.022571492181878705,0.8679993047297689,-0.1820013520872572,0.9295451328394619,0.5656590997221083,0.8696522664826838,0.9473944675702892,-0.6911725989394857,-0.8033168207909298,0.3046211041634215,0.46081741545999866,0.27821607553265304,0.04575596757774503,-0.347873758344059,0.9582835332175721,-0.5019666070447568,-0.34765833349142006,-0.0109647116754501,-0.2806498575967764,0.27407291684770674,-0.12626539184067287,0.7647491334985514,0.14854382882078832,-0.0019023774351802913,-0.8129446347373954,-0.003683680614626317,-0.8690382953135467,-0.799508549366482,-0.6183242754697784,-0.04438469674098289,0.7473261296563809,0.5456931762209611,-0.23579659976576917,-0.17135489794141257,0.6591002413310574,-0.45950854828338494,0.1407360194370706,-0.20233026230909723,0.3981010180406399,0.7272160921238064,-0.9538276911681454,0.5301636870019941,0.7813730454804622,0.6983116749190745,0.9579456316568573,0.15420972979670622,0.7209166578526227,0.39573360229634447,-0.4383754514627407,-0.5417976167303389,-0.19081071415333617,-0.15194018845301827,-0.47159869445437086,-0.7265848257941918,0.23513005254691377,0.750163944584904,0.7195692686201438,-0.21880905966128106,-0.17821694713820446,0.10475002686608481,0.25066732219041277,-0.1677807244486409,-0.7245751474488942,-0.4780000005813785,-0.5719530836700715,-0.7264327739714866,-0.9025712588275299,-0.28695908185185903,0.21319733070235514,0.7498329359753328,-0.9660727941296265,0.2148894605262186,-0.4247592248753136,-0.5220047454436751,-0.5753389442138912,0.4489861144732574,-0.14041132408104717,0.09123472443473535,-0.638766701060693,-0.15761601196189812,-0.8691722647150808,0.8052054099010821,-0.8236873779175433,-0.06989001465730849,-0.6595172962198845,0.8809394108161335,0.45916012624686386,0.10916979985238151,0.12538102194299938,-0.3582307895424004,-0.47081858750631334,-0.9708789481835569,0.05992271515172454,0.14735695263033088,0.09803270364092609,-0.5189081036269254,-0.7343633406646426,0.03612093861212684,-0.2878594322650574,0.08657573114287764,-0.576017293365271,0.018055230218743334,0.4913196065650334,0.08928543248153731,-0.5565626053139692,-0.9668608184236847,-0.33449674247760464,0.11780463606568325,-0.7005210881398514,0.18623831393516954,-0.5395701157789974,-0.0862748347493083,0.8961651899764043,-0.7723997654186427,0.9944543688991219,-0.29058589552111647,-0.8094230609186848,-0.43124693250380797,-0.9775164263632852,-0.8084930169985918,-0.7235239800890825,0.6068161296473449,-0.4006370960977417,0.8006754935395926,-0.3588930195002771,-0.5240632200652644,-0.9661318655241189,0.4951732935767985,0.3891486058742122,0.2527696731632765,-0.13421397467444884,-0.954885458619793,-0.1296006026025045,-0.8863821594115233,0.022393937539897157,0.4263944743932755,-0.14713996557205178,0.9740590915799816,0.7969785280026263,0.9476134944424948,0.15045338003026165,0.7375824624820144,-0.159139751369906,-0.6296802732339379,0.44470062029966595,0.43796486216649466,0.971719195905743,0.47233849729036703,-0.06774884973378104,0.2808194834356581,-0.725154369517967,0.2559091347366489,0.38524041106895446,0.8729509854054338,-0.2897324904390297,0.3168045107901223,-0.7709699666038532,-0.2261435858274845,0.23753377230648098,-0.23244034004772152,0.3219601852416223,-0.08808682833020898,0.3312623875919667,-0.45260928254905486,-0.7356747305684959,0.3784982114137738,0.6843883269220035,-0.04666224800653529,-0.7311410018095719,-0.353512981679444,-0.11762391583340648,-0.208381841726194,0.8925956369956252,-0.6447176226324705,0.8804889422055475,0.6751306649496907,0.2600509935426112,-0.5372721398939679,0.22753526888525388,0.6825030218375419,-0.1997553441829698,0.7849622063277668,0.1533405618286745,-0.1539705274363159,0.9751642348473586,0.728475503112723,-0.1264780510508121,-0.24970256572160698,-0.0051503057504023175,0.3643306323994331,-0.2360307004071025,0.9002557982386055,-0.905646514658095,-0.09728431093858125,0.41876702010683586,0.45693035132790927,-0.4095881180609344,-0.9033020853234808,0.029116440791145504,-0.5590548222772604,0.640739705550563,-0.862748574307447,0.007148554873539714,0.5684613994433012,-0.6035613376777043,-0.8026654440933503,0.3273442474378425,-0.4889008547281659,0.06808928432014749,-0.05900377625044251,0.6696074506099163,-0.4391404331594244,-0.6813278914038221,0.034192914486512294,-0.8781353113390578,0.4330191548187714,-0.6484555829795782,-0.0227979962247431,0.9363929184832076,0.254419993795878,0.07927497195306432,0.4242195763738801,-0.3670951523957855,-0.33846609458992405,-0.1607817425393594,-0.4360659142409442,-0.39724948959725515,0.37213056931029165,0.26428774963238233,0.10557094838275893,-0.707579471535519,-0.4036663854273854,-0.877533668243379,0.9481054437046763,-0.9691349989589431,0.21730150899770662,-0.7938318097576482,-0.2939552496049771,-0.386028617121583,0.7987229131781242,-0.31735220400406594,-0.07661642307064276,0.8708703898980903,-0.8342300061799632,0.7092265686049395,-0.9719601469460939,-0.38943048858271,0.5581053243236385,0.5721879216275221,-0.13771854999263278,-0.41625978031142385,0.16799249318644005,-0.8742309732535152,-0.029643234056312417,0.39331401003806943,0.25351170015001756,-0.11224492250105822,0.7327458382675882,-0.3511300753329496,-0.043662626418545125,-0.20923868509066645,0.9071517443615769,-0.9163754353613125,-0.5445149722263041,0.2933645312407043,0.16955496289169303,0.8391641816531445,-0.8471097774763843,0.3228256017359399,-0.155643612447538,0.6718855949904048,-0.7863658280310555,0.35122131074078133,0.17083843959828804,0.4464417075285496,0.9730840866881094,-0.20061732740038707,0.17387580082065957,0.9553148111542864,-0.5248307809044983,0.9181149699493916,-0.5099683217207116,-0.16003013497933538,-0.279532275452713,-0.6862476508538566,-0.6541225820932592,0.18786704290480905,0.07973055777519567,0.3651786636699159,0.29357741484718414,-0.7590583453452178,0.767924087263754,-0.07797586390390032,-0.7205166078691956,-0.4250125712149788,-0.7241755050771361,0.8788247944307601,0.15468670637456472,-0.9042924111997293,0.22065107020741115,0.4875112412964129,-0.16782160062946927,-0.7539746829454017,0.2041779747688668,0.6006700384253714,0.9534720856857188,0.9305749809891244,0.9562180154298674,0.43059972175130357,-0.8517538958979103,0.83712178796348,0.2933243501123124,0.8642620583187108,0.7537653405921301,-0.929012868468819,0.23700939651998953,0.8918058867200049,-0.7934536449103395,0.3173837738390013,-0.987266436796167,0.28642066520390275,-0.7730679076089586,-0.8921052213083982,0.59036915127285,0.3158540235357208,-0.6120543086006187,-0.8088439378073649,-0.0712015380203872,-0.028994545614699607,-0.3070036012218711,-0.5058673906206987,0.15175734691557485,0.9645875027274702,-0.6172864617521321,0.7092051567120572,-0.4910099422974574,0.5829229007891072,-0.6506130253518247,-0.8463869653008538,-0.8337677590089954,-0.6334751636390665,-0.7418030137144911,0.22162635585045765,-0.38050549228535413,0.5501851323928915,-0.24238175896637992,0.48614980079919623,-0.15642999621204678,0.2108741485113057,-0.9929137790997096,-0.6947130043013126,-0.8383562498118562,-0.8481669752515797,0.1582183768001615,-0.34927586789587806,-0.7376654157263072,-0.3061818466750843,0.39658324182261495,-0.20138154635145766,0.7924526490851043,0.7495358796926395,0.6842169425993596,0.5100057240463334,-0.4817897016581638,0.8248818627862349,0.4387864313551908,0.3765693081898114,-0.8254248128393429,0.9206806740479312,-0.9564953757735573,-0.8810590305384276,-0.1880902743606292,-0.2988040011844557,0.302603626409615,0.7985319384250036,-0.29900789671627925,-0.2492372311225568,0.7403773519588823,0.1402211976964951,-0.3280309681499818,0.2574684957266613,-0.01249426886691496,-0.5379446390242675,-0.8602578308164854,0.042891020393144075,-0.593422135435419,-0.9305566447015179,-0.9922562055640047,-0.5005237220915539,-0.42056628097804216,0.39515684118441663,0.1440105300759258,0.7022195258090991,0.3121464232122739,0.6527754453992081,-0.8120827449997452,-0.27110983930451193,0.40917173185784717,0.32004431632605135,0.07288527609788398,0.05311896013878692,0.626393788676471,0.3799392589703361,-0.16016599823452693,0.7672454020184036,-0.06650187401482688,0.9210628382859627,-0.931903988269484,0.3468991560836632,0.49930895683108556,0.43532341541744035,0.5649711692446382,-0.3131300369624048,0.6594274563879226,-0.05032323950608397,0.8320460222729107,-0.7821036252498883,-0.46628641136765925,-0.009961871896560615,-0.7341400649179108,0.05658355669387127,-0.06814416977018212,-0.7006991383306704,0.05245113399501533,0.345737172661728,-0.2815237594672908,0.21772559143614933,-0.7202303157380816,-0.7900204725213817,-0.09507775221337678,0.6827925036969922,0.9188973587698077,0.08159143363556609,0.39309873385782845,0.916937032582211,0.014467307738206259,0.5441022390255661,-0.48260212930353186,0.04541731583346209,-0.32337001232040574,-0.7037726200398706,-0.6860132292896512,0.12289027973851874,0.28136428880606323,0.3563326535767739,0.7924163569975562,0.3461011731157997,0.6628867459372185,0.20768058010076507,0.39271801410116725,0.591419202947784,0.02136396976213817,-0.7727058310227326,0.28185757540817313,0.8397806780507451,-0.22891269891199784,0.44634996108534586,-0.8233805134477394,-0.4620716123489512,0.6187214286561544,0.45759171017533995,0.975696988952168,-0.5063350716428396,-0.21180821846331455,-0.8846670230936542,-0.3580328080528099,0.5141650377137115,0.49822876101348457,0.5661960961794639,0.49663342271618016,-0.3297793244682865,0.5505405228593816,0.1038123897492289,0.37012000858858407,0.8056206783563331,-0.7989623252103206,-0.6417133652546578,-0.09969236004776794,0.7096939699350109,-0.6365118093168656,0.4113076051448028,0.6769011605700233,0.23237556469762377,-0.3655673148247134,-0.42963607895943734,-0.09857575240313432,0.5449800246391288,-0.3698561729591612,-0.25939750368518677,-0.2344612955259726,-0.26380242342066684,0.690866802610711,0.6004460458801251,-0.15391062967839186,0.981654527844195,0.13453040111778725,0.11716267370959277,0.47347853221866276,0.6367087288978608,0.9315724790888078,-0.6688399443301465,-0.749323102692,0.7759784490293611,-0.07552478241749272,0.7928542989198137,-0.3166183004065022,-0.06056848975401352,0.5300601084363195,-0.44645868169200265,0.2275349809027558,0.14368904710517394,0.23954471871466887,0.19177744366464022,-0.031381178651791686,-0.4214724020557499,-0.829183050040031,-6.462750331945877E-4,-0.38215338047358793,0.8323894386570698,-0.5706644151343088,-0.8439739218628299,-0.45642577845693255,-0.022958465205590528,0.09851860723555017,-0.510257318350205,0.1519553930434212,0.3903493302388741,-0.6925652991106483,0.24918704865952934,0.08907196907701342,0.8074616027101207,-0.9869344113008784,0.20803356712676346,0.4574698402403423,-0.23547059308352125,-0.11363931716043374,0.3753913061202445,0.5232365318060155,0.3354108510863023,-0.9942420092105253,0.6044883711014852,0.23545866420717387,-0.1393582126945141,-0.06120063134012588,0.47172904479167976,-0.7118994185012189,-0.7707198872690277,-0.7680801978791367,-0.05916736212882534,-0.5749508325162862,-0.8019406795749486,-0.6695545245765249,0.5318417000757776,0.22227225090885105,-0.7813836324476293,-0.48471369843116463,0.982365682652401,0.6767415945043114,-0.7076145061382124,-0.4302362641808142,0.718503224735112,-0.4100254608771008,-0.5159217876806448,-0.42053342971119845,-0.15453398788256156,0.9547515000808313,0.8984987865484024,-0.480019132924024,-0.17699695918546987,0.33676924097008887,0.16177115593794822,0.10179353256773438,0.5083049610192234,0.5886935814164209,0.7468823862847431,-0.28137809146113524,0.8291434295370965,0.1422780519488196,0.8447755565444663,-0.7151254262912499,-0.007419121219748526,0.5949180344074496,0.9060529711954788,-0.750097078161224,-0.16033664595173724,0.34021300093829643,0.46467913009657047,-0.8588456697148898,0.7240860285573993,-0.4121866961401115,-0.5960995561724414,-0.38470746811331624,-0.8770980309696992,-0.7239706461104216,-0.5640728403129485,0.18580310329474026,-0.9200806775804529,0.10138701853440168,-0.7592485620868241,0.547554943384577,-0.46248647106114493,0.1725126192228934,-0.554197620034828,-0.2667572273261314,-0.3698431385651071,0.6414375054314525,-0.5730311707719209,-0.7864129548059711,0.09304675516855854,0.07361284282936054,0.772847144349738,-0.5073770366536934,-0.9182068788172304,0.28862911964333593,0.17789999606515527,0.7513615965049678,0.9042008358355647,0.9368388515840311,-0.4834591224011553,0.657559922412255,0.43276500480659474,-0.8272172439956829,0.8989860160496441,0.5862899863139428,0.29657077575723245,0.44452371101859245,-0.37895548755036335,-0.814549574480508,0.343871529616965,0.6386952408017861,0.09384482793796711,-0.5276842594093811,-0.6783056551773765,0.6042755014732843,-0.9241750722058135,0.461673723363784,-0.7635985561326779,-0.5762008067029785,0.828140083190539,0.7030524027522429,-0.5607862255322791,0.7089249018937893,0.1759719066686991,-0.9560067645862314,0.12328140560075695,0.6679765039755157,-0.11795088170810675,-0.5617221888089958,-0.3760366969403808,-0.2737176704130242,0.2250197821559572,-0.3175285958614944,0.6815570052892193,-0.9241627572071327,-0.775858361501961,0.5910971626776536,-0.3442029240907374,-0.3109829361255865,-0.4369134572020428,0.3102094019317778,-0.4259803335049559,0.05177724864432198,0.9394822608623199,0.2210875857408774,0.8499678301647269,0.15497120626566807,0.30314299775232256,0.2002245526683799,0.5277910655261395,-0.8718735333562859,-0.7552307626234085,-0.1212630444274998,-0.014129561829050896,0.3082204133519719,-0.3417761058790645,0.9837783074758875,0.17767850664609486,0.5067002264574345,-0.27667852210113786,-0.15351144302907782,0.691962035948922,-0.2288056108472658,0.24239428703895083,0.7254663998607609,0.18211299811868153,0.034067122703433705,0.41272728148898263,-0.27829482376094483,-0.9553285754277328,-0.3018305841578106,0.22828333807469203,-0.24961545868707624,0.6194829441073666,0.43084427505057055,-0.12203398334498039,-0.7131353989218112,0.6391100522394926,0.22044541785032923,0.7439976057322195,-0.5813182257340117,0.17267595766853017,-0.9046657898264017,-0.09718346833906999,-0.8877012466116143,0.8893975181395852,0.8135200319805163,0.3922271807988005,-0.45718609523589104,-0.890359079902536,-0.6981853948648999,0.9323637589155835,0.8367895218016048,0.8164137717987952,0.6565724616599831,-0.7256437614092461,0.6428097128579273,-0.4322166865935151,0.11379398696024956,0.8994168326577581,-0.4286663470314016,-0.919209542732055,0.5545692154365851,-0.5976085944566176,-0.26513771142521714,0.15000590649075551,0.8325456859581568,0.5676504074745734,-0.6286112895566593,-0.48104593242356475,0.4933043439252405,0.8815197357158839,0.8485581765844892,0.34020744923211566,0.3012328246312901,-0.9757173690215648,-0.7770867202501004,-0.05996662628655547,-0.6023129051187095,-0.25389076727904425,-0.031943367297632586,0.7460519766371629,-0.1150636731976562,-0.5448988249421052,-0.5124864970186869,0.44144362964972306,0.16358869163337775,-0.16803597442563079,0.5925316306473558,-0.3231789356645063,-0.5531011072871768,-0.1653490868620524,-0.7479914000252603,9.600921662793471E-4,-0.466438413313246,-0.4323527915199632,0.6111889370980454,-0.9358385263784239,0.1412974462633536,-0.3356050988150865,-0.47227207865155507,0.6030930142766553,0.8867429404330973,-0.9323165916576373,-0.3118289724250891,-0.7664589212908721,0.34285606137682834,0.3916616091414926,-0.25514839070039486,0.6575772917590201,0.5132555128649763,-0.589546252705309,0.8526621164881052,0.5342250226431506,-0.46638748559565935,-0.35780926892060516,-0.5128918881969362,-0.03221148074657432,0.4434177927368479,0.4835956365646761,0.48950605897792565,0.33558500943965597,-0.5328496049507989,-0.10090964315763973,-0.08785944839578108,-0.9931012900537408,-0.5979236118420461,0.279720083866547,-0.5743510044440334,0.3975541706365533,0.4306099972347941,0.7610173417286503,-0.19714577292929958,-0.24041675841785937,-0.0416270648073247,-0.9747411238647148,0.3077203167379323,0.12303974327348288,0.9247892518393235,0.41239417852647153,-0.30494160631457734,-0.11290752345960353,0.44125820572700425,0.02525394726366037,0.9660632375308389,-0.2998935107776193,-0.417351078899002,0.438474402166503,0.026714439332902407,0.47350002104770983,0.69106550726392,-0.39309818580222045,-0.039471455935581545,-0.3582570710262132,0.6465327056690979,0.6180690713457706,-0.24589712799547092,0.11094022189789032,-0.7825435715646443,-0.955334594046737,-0.9966568252415171,-0.2689768143097653,0.824416409598669,0.8267469683346493,0.38022196323157176,0.5816474170933263,-0.16594902180993998,-0.150234322830624,-0.5456332636199366,0.8794767957537937,-0.1545025151834598,-0.3166792516031507,0.8407300933425843,-0.10539068473835167,0.34005488932298,0.3068656138852959,0.5840480197134381,-0.09352088229367195,-0.4645619576260407,0.07243199295855285,-0.8072554624541368,0.9346476312097702,0.3191964770321749,-0.35924078312905894,-0.20060554871591396,-0.25252546810322474,0.7315736801936759,0.17604723404378442,-0.4481903520955475,0.48173717527710913,-0.37371445995317853,0.6958777572721495,-0.47173352864612306,0.09884549486767935,-0.1415993963208515,-0.853322438614524,-0.7776541559989973,-0.14162244796973278,-0.36829320067954385,0.5114258750014802,-0.04269015086565697,0.007239149056961214,-0.5163464471935184,-0.9448654497184394,-0.5331069620877666,0.9628283828389155,-0.20583950405654128,0.6749603957797066,-0.6811619702565337,0.41116492437619456,-0.3247127346134895,-0.7543654297374089,-0.1405398403899527,-0.05397822425850829,0.6319625389607961,-0.16277641210691174,-0.0780228784785244,-0.8573252422644388,-0.5203267996439056,-0.26893556384235984,0.6682939762753695,-0.710036044481754,0.663216720440907,-0.7289561015157346,0.6233864675972798,-0.6030609756499516,0.3413253981754496,0.7612207149447143,0.21337897594988742,-0.45456160842773996,-0.6148286860240679,0.8571170378312696,0.932866322536259,-0.8224695523530081,-0.21553361737328602,0.19683486021089558,0.6439815835175728,0.48682354353002855,0.8630731253021424,-0.620521321805682,0.4491662485132968,-0.2747714995357591,0.17674681717780905,0.8221973667769555,0.08155046454000048,-0.05816284016912232,0.9988307896801241,-0.48651736593731587,-0.17869408424545363,-0.5618432717281749,-0.104568913194518,0.22919280438726775,-0.4267140087777541,-0.9459802425215114,0.049800191008477546,0.38909625231730516,-0.06927880846508327,0.2910657604261331,0.7163606557964519,0.4055586398977036,-0.1983088524259755,-0.7642297535960783,0.4680047360837456,-0.8876744768642473,0.4895477836200606,0.2615741868697503,-0.25399127157378865,0.6601799303797538,0.9954162774905941,0.5697452388286464,0.6301022115909154,-0.8724171230483901,-0.2496445732520296,-0.22881997841752244,0.7169382567494984,0.0182330498933001,-0.013289674652882333,-0.08356441177774321,-0.4715884914198252,-0.19619046245505634,-0.4773555540946999,0.6488550345048048,-0.03302465281296474,-0.2810098401827483,0.8607911069414584,-0.5142680186345614,-0.006688327828836771,0.12716553068637038,0.19141746147609395,0.6250348967567854,0.9224113767412505,0.9490976599962748,0.14244685804774915,-0.8697076616486727,0.5173247581998957,-0.11690055807118083,0.933139217407452,0.8638168099259715,-0.5944542039802265,-0.5558596545060075,-0.034818148264548654,0.11852345498343109,0.25119663838081574,0.21061050142885196,0.8243960606734415,0.5411783838112216,0.5868821699401969,-0.9086952702716984,-0.8317815639756272,0.6449893592811962,0.24228677376315666,-0.08848426985842583,-0.9614314252775844,0.977028792646113,0.9022901932541194,-0.8340469349359154,0.7666680297106203,-0.16394098973351867,0.48558027849020013,0.3975342931373176,0.8258290292995063,0.3289058102759934,0.7554459486418985,0.33492105970297237,0.7401834726374363,-0.49139423396146165,0.8576345602393189,0.6580018986922662,0.47177701521900084,0.3551308420971737,0.32586292099870984,-0.9406480008628348,-0.4145944784343596,-0.5604290934159426,0.5037729205782302,0.131027284593068,0.9300245539493375,-0.7447655633547934,-0.6971734725983387,0.5298792428268457,0.5775153961793045,0.4042042492774802,0.7488380125629603,-0.13909581834942553,0.32404463173071707,-0.9045352924348633,-0.13445578555743887,0.7669699682809679,-0.8137930736593999,-0.2592063194178511,-0.8981831317393081,0.8245897974849485,0.013594552396194226,0.8271914319727307,0.7298240463288643,-0.9807576730839518,0.5913894153679062,0.6996967462156143,0.4246510044706022,0.810064000338826,-0.5789729993661985,0.4060179728175095,0.5815940291524861,0.0925691967971285,0.7439349045615695,-0.665513802204518,-0.1644566657729729,-0.27061959010645475,-0.6871986725523431,0.019413865762399674,-0.28242506918376,0.7427800856879279,0.9167818627222302,-0.8069773468697161,0.417074572794192,-0.2507774235326723,-0.26849245277574085,0.9306803224989499,-0.7865813516975098,0.7647743546131944,0.19170754047347693,0.5662661340612936,-0.7005578974667754,-0.878222724865706,-0.7262842481229856,0.9470612674955159,-0.5603749841157744,-0.08914168626193031,0.8270820711161877,-0.4473603758813778,0.18913289756592033,-0.9012617995486782,0.908962641713656,0.019812353812453498,0.2455495380968249,0.2711179153548431,-0.04808354648181301,0.6957568718335045,0.9133438153426896,-0.18874855241829813,0.03518893648204591,-0.015959350512472437,-0.36818555066760505,0.2486405941597114,-0.4684833505996069,-0.5466732673960755,-0.9495384138039509,-0.5013837705846289,0.9659389341053453,0.946127037794229,0.23143515174127893,0.7623979945110775,-0.9499426538666018,-0.7449529352829649,-0.7830855778209029,-0.03144699476377766,0.5446356080330117,-0.673455634397091,-0.5800242702963574,0.8106022556834958,-0.14461376840233697,0.4073001893034549,0.08070875346207407,-0.32814882586475624,0.08124324087551127,-0.9341165125444446,-0.6249553760197439,0.02734880180285426,0.6113731517851337,0.6024625871001958,-0.3280375377565221,0.274209566702436,-0.6933696555007318,0.0018998968574122088,-0.0945561193166844,0.36535724949445725,-0.19688510661266334,-0.7093584280458036,0.06074819695464395,-0.8919184843327728,0.5399451473718058,-0.07460671388864015,-0.6297156454225532,-0.4623762773436966,-0.2596904104812725,0.6716509135886408,0.9725584794409674,0.38733736649130535,-0.23568358576523663,-0.6772673185052216,-0.4916209549446413,-0.6492029930469094,-0.9958880472436522,0.5650385518953915,0.41170536833481153,0.5675570579497764,-0.19380816580874494,0.3128394504013232,0.49822719761802436,0.5630903880306077,0.7827830803248239,0.9159782113629429,0.8629673598787557,-0.2652352454639437,-0.6863731832089353,-0.21355888963060043,-0.9310980696508524,0.39954248521455304,-0.9585538302817855,0.19483816221134953,0.1417957082689434,-0.5945813177329531,-0.27116441052656404,-0.7445923147231954,0.9821536754870843,-0.6425610604053991,0.9712615170587093,0.448238802733087,0.46339286167834204,-0.37953183537483226,0.9503179872939125,0.4199840899662812,-0.2939584451659558,0.43470801493801603,0.6633327772336188,0.2594124435217522,-0.19902443144129411,0.7162905780801159,0.8798736047775708,-0.03826984552899426,-0.3995938139001991,0.41410216404873545,-0.5473427528369541,-0.624322957406638,0.10353482884041365,-0.34467922473011026,0.5498161494821396,-0.4300187226335639,0.4344953087628358,-0.6640218727221068,0.8774325833733567,-0.7391632792608034,-0.5565943828420019,-0.7008148262566878,-0.9742993643111781,-0.29035792062324317,0.5570555030287268,0.7924885247725444,0.6990324917114228,0.33032183429506956,-0.33604134297132715,-0.492846509522743,0.7798757660659938,0.13812552522171195,0.5392019716139917,0.17599665980237456,0.927963904682878,-0.8731196829211223,-0.40227340803361766,-0.5572797842373103,0.7311737969968943,0.6792502573610912,-0.38962041657060387,0.5145276586639222,-0.6988822478843082,-0.8053662905687531,0.4252775328132574,0.9711284341436963,0.6460508761664043,0.26190805827969244,-0.2922732236380994,0.027068364856681404,0.15562686881242027,-0.09069030958074586,0.24514783553268638,-0.46935127324645864,-0.9035100456170613,0.7313147065106702,0.4591553841188083,0.03152805504816114,-0.855357942892327,0.022464099004368965,-0.5748528367483143,-0.6395749078203237,-0.33002120170544824,0.4406560387319671,0.9204591913273457,0.33817312467917193,0.7403402503255083,-0.8224956354572786,0.805348059325812,0.4677012013470252,0.6268758765275293,-0.8690576807790387,0.38676259802202173,-0.23865229358171303,-0.03052386221999992,-0.8446724142614219,-0.676927376721697,-0.7827612999659499,-0.2995237266224531,0.10688280350783219,-0.9013767145022356,-0.1177072714331866,0.3267906757730501,-0.8926150749006017,0.13018873990410484,0.9257404721795743,0.2350904472851405,0.2165933739953647,0.16310024976001913,0.6958767922335396,0.31158806875010603,-0.466014039655299,0.7730282894777032,-0.6559086624459167,-0.6425518776639734,0.6429501029611666,0.5101003941952333,-0.725950190241333,-0.4672053996356249,0.2656538700555686,-0.49475986791787885,0.41022881383141896,-0.6232602425110114,0.014400175297385243,-0.7956842221501919,-0.9211666058462027,-0.1721888182677449,0.20534567616230937,0.30388983206200404,0.15545559707072298,0.10860849271946904,-0.1569563030438461,-0.06693569139040867,0.05765961258964358,-0.6595274951077439,-0.9106512665185107,-0.3408806224458478,-0.8529920745358512,0.3184044952409508,0.7977985218104264,0.9903462905923754,0.15387100591356573,0.0034248326629064962,0.02466692894063116,0.7076786971856495,0.34969042237774883,0.9790145900911011,0.8204605053113447,0.5774291531094788,-0.634805812416827,-0.6297642847567344,0.060708034021533575,0.7806416477476594,-0.21060875918564603,-0.4614201715983415,0.5924716305761792,-0.259727005973706,-0.017000627344864627,0.24254726242019098,0.5530858965779266,0.9356195117314174,-0.0987103002499028,0.8934127898542734,0.3602089964332762,-0.23589039239541676,-0.8548410302206939,0.037585889196947386,-0.42265086092416726,0.5437834715404353,-0.05443153876478446,-0.738572027004142,0.62660635309883,-0.6545127726749413,0.3353169758896921,0.3413412812943959,-0.84955097876777,0.5020096208060856,0.3734433774839401,-0.34860270656693015,-0.283078363052089,-0.6379064207327814,0.961382053222634,-0.40727347023612404,0.5177593112921182,-0.8595416180480633,0.526323071745266,0.1233431048063347,-0.2735379440558827,-0.4393301807283154,-0.3539431818847265,0.3440323450757867,-0.73653984663267,-0.6040989589321819,-0.4490890797565801,0.535381552324574,0.8580800430798297,-0.01667236346237355,-0.6377843003259709,-0.9570123871526306,0.5020987899783544,0.3211056417680145,0.9130620205204534,-0.027671370942441875,0.6572520019204668,0.45258243960722644,-0.9540559085187437,0.7817390078586017,0.9091397977747624,0.5005953216235983,-0.6067926186638919,-0.44861847875036465,-0.8474474195405637,-0.06458546513925789,0.8200506924938122,-0.04193787776520219,0.8483165183837698,-0.5569091290926944,-0.053841916629846054,-0.19981264046798497,-0.5906628724659262,0.10667152639850119,0.4608666394702112,0.2941161836948969,0.35359737054265206,-0.47904941766020004,0.30810189920208697,0.30261236462870755,-0.4955556025429857,-0.06787637608402841,-0.7588572242628684,0.15805563930790023,-0.776421647064488,-0.47308048569756167,-0.2663953997272559,-0.19247618264231403,0.429732529642318,0.5914850427447571,-0.2181419523156536,-0.36618948325633793,-0.013884620813365611,-0.5814988979050664,0.7454287820294312,-0.504103156855428,0.9322602049680189,0.5617135551946904,-0.9542480913815548,0.28434798909431125,0.9910078587390567,0.3202628075693503,-0.720017371325782,0.6015592306119515,0.7989261695671945,-0.8190988461475448,0.10539266338196995,-0.9462715291371802,-0.6114532670630866,0.3543895016780514,-0.888789043021329,0.0808864383743979,0.5933790724927077,-0.4869323971501489,0.8185941118276956,0.25326755360790454,0.25173943802263055,-0.6302040724596734,0.9357410648928148,0.5267589516198654,0.3530102864070763,-0.16582993872545715,0.04399392957195691,0.07711712374294377,0.6000238569781124,0.140111357420031,-0.9979038732570595,-0.977904680200739,0.25384229849255346,-0.44035880451365284,0.5296052649482392,0.5925781183675018,-0.4177158657476463,0.10084905781766396,0.6667885266355975,0.12827239625492615,0.751125206622425,-0.06623224248216175,0.10715455845126587,0.6504569056234777,0.5769808474382916,0.1960723498658763,0.7601052311124652,0.7037463048249379,0.2034534460526063,0.30122253806064236,-0.6749819380294075,-0.3392217330048881,-0.5327922010062809,-0.09512924159965608,-0.8556014983557352,0.7481855201435021,0.4882157734128689,-0.7189374496152816,0.15256945315633774,0.6791674001785426,-0.15151197362279234,0.01795781337757507,0.34769349666544724,0.9674296611801605,-0.3838092624350973,0.6635049976863212,0.888751037117222,-0.2507868996237217,0.42712184503682327,-0.7652962265058252,0.6554263468598827,0.25458566786014303,0.853100082961262,0.34979434214794436,0.9076811841132786,0.9461252986015007,0.366898732861036,-0.8490850004080941,0.5431239404748969,0.7825742599540133,0.3559325385898162,-0.8445273906487738,-0.6258897578763274,-0.9330014364954,0.8419864218725794,0.7076734414181669,0.8328392258913024,0.9034391080381594,-0.16814904032160327,0.7973657247854713,0.5615378560740565,0.4129949986265953,-0.4461910985334758,-0.32845240720280744,-0.5438465380581359,0.5497312729875679,-0.7725054251103156,0.8845977031683869,0.9058035004702187,0.6087582458999741,-0.5302737331603495,-0.7835114573056257,0.2065584632466242,0.33328103087805294,0.9564896787100563,-0.7660537527190885,-0.5730364404461925,0.9043716845748919,-0.45867097411677893,0.17772281995571482,-0.6359686709600261,0.03667036991627137,-0.32701973155729824,0.3298511747013766,-0.3477331637673051,0.9051728791179778,-0.3398412299938942,0.04795480983861844,0.5746140322056421,0.6927177547340584,0.09899233803775176,-0.7506110837835038,-0.3269587870458479,0.17473696293032992,0.6086685523172699,0.28619125967990655,0.8678102526863585,0.9472883701596062,-0.08655683574304263,0.8725252940559722,-0.5316960730813127,-0.34365819880650683,0.26423474452412,0.009500577311449598,-0.8053877358819614,0.9007419315403393,-0.7893911645303315,0.6979590935713056,-0.8720919215054104,0.3582266809168504,-0.1859669545765339,0.6380187690170493,-0.631030055069139,-0.8766694266245634,0.5358622079438351,0.08486891962766707,0.10803761171361259,-0.7520423751850489,0.23859167894029842,0.5635153613908961,-0.20448484509924092,-0.9601401876963187,0.006494018388138345,-0.7591239549554869,0.1518635198182916,0.8012117476404714,-0.17816660339131185,-0.5881688312076025,0.8663529970507355,-0.6210757531615962,0.5254292333008486,-0.22346474938451744,-0.9918260829273207,-0.8497070977648613,-0.05458048383488934,-0.030499330387584234,-0.5902668686202865,-0.11796872698273786,0.5956517066082221,-0.8533330846137797,0.5807896122199065,0.27769116803476135,0.925208043282173,0.34487143419099286,0.07341359909148726,-0.032075059705380715,0.7431490920375845,-0.2011579562037198,-0.35842093840527034,0.19999930845921354,0.14763873558401408,-0.565966677101877,0.02552944463298057,0.5474222880711102,0.05619091779514185,0.3493333542533046,-0.2601161544638475,-0.41250251667518967,-0.7361427695228351,-0.738130683927638,-0.14422145048911417,-0.31592483364333646,-0.15124785747730973,0.6068444882746609,-0.558831737013775,-0.2352801655517578,-0.3006088593583778,0.26854148409037637,0.059737725155116994,-0.7040303425558414,-0.044105242623434515,0.7643303604566025,0.5277046498560971,-0.46268509886823894,0.23719016421011818,0.11172340791925817,0.9891207188389279,0.5939755805493367,-0.33108035110512923,-0.4207796343205701,0.2941076137140819,0.7905126045302722,0.9318431879861406,-0.9451071882555515,0.6507915822554802,0.45175877743943516,-0.18189819096303417,0.8623578661400715,0.5705292821151284,-0.6954901082995202,0.1127843860252078,-0.48800426707374434,-0.7626549581404474,-0.5971313240926741,-0.9891790568515157,0.09596774912636219,0.6063281759811643,-0.267911878940557,-0.26569851435495484,-0.18120441145353805,-0.22793299235021158,0.460213337375303,-0.46710010831639304,-0.49903522223013197,-0.5529757029099653,0.18377426515153172,0.8301577710554942,0.8012191045479331,0.7510872320292066,0.4532349772236266,0.9209638850133373,0.37391537505772,-0.06264733144653434,0.36585843130585394,-0.6693587500064582,0.21101191538575992,-0.8344629084934037,0.0780978512035786,-0.28636750419145973,0.013965339822888723,0.9832283196731284,-0.28341937455067145,0.9998529260833275,0.5990163813381377,0.7865246071846503,-0.6437982799524444,0.3893573828323007,-0.9399545951635373,-0.7945654482761153,0.4857987679191562,0.7510468423473005,0.6963836714362857,-0.9042606063246041,-0.3036674378814628,0.998717645926873,-0.4413316870869015,-0.38215238983626376,-0.7965494263845185,0.09783433032669775,0.8740330614929672,0.7444998461038697,0.2557639995311969,-0.5010137414411877,0.5826285313916615,-0.5369902064653431,0.48212212490186035,0.9990651153363594,-0.24932916208437783,-0.0759444322350129,0.7956209138718957,-0.7012209748214686,0.7209183554080312,-0.16213618837055543,-0.40096477194631674,0.8551976378062436,-0.4803185859430381,0.5299567669492602,-0.27418141716062516,-0.9794008129688414,-0.7398281369512036,0.2424608851247676,0.8027660389354669,-0.08602895248043962,0.06520252824839656,-0.49669615098026765,0.5348894844856462,-0.010909818342609068,0.377950070471464,-0.31554542030832167,0.7900081960965699,0.8431916926358869,0.4376980392399812,-0.7683109038314366,0.30001004239644513,-0.5471913782612257,-0.8318208475887412,0.47219371614995587,-0.7023082898301314,0.7284460685708636,0.7593400838841182,-0.6073563241632114,0.4725404270662261,0.04733060947370915,0.8190545248171694,-0.670773814235222,-0.7442286903010518,0.25355315292895986,0.12951323361819367,-0.8775985619079893,0.6343893142780361,0.5075032882258432,0.7637235044035133,0.9630264907114421,-0.5540039563786932,-0.678431327293805,0.6007532937518967,0.8927930856742585,0.4205164028188595,-0.8633453864792999,0.12405825407490312,-0.27924072905968966,-0.8880273962632534,0.8741532613838319,-0.20456678179837584,-0.020917390861553642,-0.6971148265139433,0.04057346864961886,-0.7321673322159568,-0.5351084072357857,0.46583573201037987,-0.832882277317827,-0.7664915292466632,-0.09844157658574715,0.4311780807678802,0.6340728238347966,0.799614680262825,0.30146645411559003,-0.4631631799662481,-0.7400426563056783,-0.058365292172380956,0.7236920071826873,-0.7744124318754737,-0.5720514440471769,-0.19431313457540056,-0.7061503589543501,0.3071644082202176,0.9771881314423323,-0.5860304375146539,-0.4103233546970635,-0.08300604913670928,-0.39585407258407335,-0.3266917755115841,0.7947629417558222,-0.4196914287734168,-0.900703039720913,0.49497210500228817,-0.6158420418983295,-0.27015583151810296,0.3869470415628964,0.3046288802336887,0.5294161060535063,0.5272816007761263,0.04111905552129724,-0.7454886723826244,-0.10302985603825565,0.9030429124095616,0.717990930432189,0.04557080195350194,0.06254943893528986,-0.6439921484564828,-0.22454586981529245,-0.5744028755251676,0.3756887100516446,-0.7558311355788345,0.2429392793448064,-0.8500130817350573,0.7822006231837251,0.04919481855004615,0.2597346747127067,-0.5249545727107163,0.8488139603593221,0.412329056671376,-0.882399795871333,-0.9005892858354487,-0.9669926532435715,0.6159982372238735,0.12355844672632532,0.8773908634459153,0.10239609037756736,-0.3750370885676495,0.6413224446621291,0.5987097870743716,0.5318585102897382,0.8027936769050585,-0.12510254630723616,0.662358641768279,0.6929156956685734,0.9839092844062582,-0.7745272965072258,-0.4320456593204065,0.6987069166990354,-0.29163286417197365,0.38279662292984606,-0.19379142927018123,-0.12076854737432541,-0.883951259751502,0.7048082100870436,0.9508148214601768,0.03535501120391027,0.24883682523915862,-0.1056262187087158,-0.46273623629209437,-0.14359236872950554,0.32383314737647306,0.4995577908098039,0.6597999300371846,0.18502748273110936,-0.0823807681725417,-0.6560657269393937,0.1259364741204536,-0.8257657734163875,0.9410160872985047,-0.36397717516514483,0.47864794563751345,0.8055418926920934,-0.21424869660073131,0.21201212152069004,-0.7704369362990551,-0.2767483619499136,-0.9111047136307728,-0.8664882911878324,-0.7578157799756795,-0.111109379452496,0.1878818320738287,-0.30784948861620776,-0.637638216451687,0.17109302664464487,0.5283807589211491,-0.23458035737346772,0.11395648279581105,0.6600466183587079,0.03924419285503822,0.4232339892873378,0.560824164213457,-0.7680435869516584,-0.19679960878063496,0.7022663308932924,0.28196148495194007,0.6878051461516326,-0.7710770394867545,0.5451849360229362,0.8148545438250225,0.6520190949785172,0.3695556866136174,-0.9554956487010053,-0.10722551147876302,-0.6595258855964872,0.03472705437075052,0.33583687161666775,-0.6650317526058405,0.2936072073830831,-0.09245942147356478,0.7529104715082393,-0.45560500496313683,0.21922548859982127,0.004981919023679282,0.18679698301532865,0.2258624247602543,0.20093239243336591,-0.49036520514483173,-0.015627527970519806,0.15812038456688038,-0.29807930490360923,-0.7474472203536928,-0.8238897880207356,0.6366711779044283,-0.9697916714392827,-0.05841447020717183,0.34088392067381657,-0.45023909720867916,-0.7697782767252213,-0.3935875813163523,-0.004461947104301256,-0.04178222190124781,0.726960083848931,0.6709889811513636,0.03955953050534289,0.5205073251043364,-0.5271989132566985,-0.4339351877761939,0.4902634891423532,-0.8624232787949466,-0.1666623427803211,-0.14111528056926192,-0.488516467984067,-0.2122350114462479,0.9974627707054602,-0.4958618824406045,0.5688357988605557,-0.3197427257981482,0.3082476114961654,0.00967499806040184,0.43720349770792777,-0.42373416647931106,0.5849871047307706,0.06245899097945262,-0.2588331177149523,0.41032240864271863,-0.7568860021305652,0.47468237338787533,-0.27331772666497445,0.1897713859923602,0.8175115241369464,-0.8130793306813009,-0.957608603922947,0.5587540141653682,-0.6439177774672058,0.5046565964516287,0.4515201708627776,0.38367914189457086,-0.925740183508263,-0.25354214771196704,-0.399595373314519,0.25037815364432814,0.6474770997122714,-0.9534548863115511,0.23726047973034037,0.8588444051685149,0.5674330234374296,0.18144020816549067,0.6048886745492899,-0.04033780812034493,0.09932899517830429,-0.0201619060910041,0.12359040677140576,0.6969309798315566,0.5510733277476134,-0.8732024452272809,-0.0643591635376004,-0.9943032601493282,0.8017795577863271,-0.01219841146515832,-0.5997502287809386,-0.9423977538340556,-0.6642852932331742,-0.5448113275733459,-0.7919837370685405,-0.34332579827628873,0.38917949771881544,0.7589107110061728,0.4264605933326229,0.9578657083507638,0.24163163743919291,-0.3144729756911411,-0.5067026973670969,-0.08582252240954547,-0.8313081091691128,-0.28620470503596573,-0.05831070787641646,0.45388354205887405,-0.8765005894407312,-0.7978250017844861,0.4718020727355914,0.5475902962014585,0.8242124395919046,-0.046988756680356625,-0.12444508615921501,-0.954438858450632,0.5992777119802146,0.2301199004270298,0.2765447118989628,0.4489421793284991,-0.9215802621084987,0.6209491188438214,-0.8353052956393985,-0.37577334328669765,0.6161306558834896,0.01144356898000809,-0.21473977275798384,0.8785006594097404,0.19576778976633724,-0.6188068563144151,0.5844007302643064,0.7837138325276134,-0.5138048188350588,-0.8716011778206318,-0.3813944274708154,-0.328576918440906,-0.29076636439908055,-0.8013569921808674,-0.8971606763155933,0.8151607390436202,0.025010742721720325,0.4184044755229106,0.602350539420679,0.9757801496577883,0.2536322315506572,0.1237104468342134,0.7656659679173508,-0.7941632807338086,-0.07457747838070339,-0.5737278422227046,0.9513700245275485,0.5922642777664111,-0.11168875797460553,-0.7260960423554081,-0.38115178155174156,-0.03768987185118755,-2.2904818745006494E-4,-0.16102320651184043,-0.06674944623553225,-0.514104780500175,0.7920381443013318,0.7081135976284307,0.6775092912862404,-0.42173046721266005,0.4231796532897587,-0.15171644947032537,0.2693240125484837,0.5400347402021994,0.7128923200007369,-0.6110917328001673,-0.5513955784823608,0.9673106043109709,-0.38924538598305003,-0.11345600085521945,0.03093992851713212,0.12302380294235826,0.05597436859458882,-0.07184149088987257,-0.9847572419137975,-0.8189985837433016,0.8615071128827789,0.6809734317152085,-0.7112098953196577,0.5377542268817799,-0.008254280001098735,-0.6887033566671434,0.1904676576667501,-0.7674615157660898,0.40181243625986296,-0.928277835781665,-0.7269026777914285,-0.07551273914467127,-0.5321900977486376,-0.7044724758492102,0.7483068472403185,0.8463062467642373,0.961217759551247,-0.46094647143080025,0.3024806143705636,0.6872318502809205,-0.4930505496901285,0.6773015743861441,0.23990604839423857,-0.5463478418094594,-0.4865895136212959,-0.11505959177074576,-0.760689872775804,0.013995025337038891,-0.3257702625462009,0.12436324928189246,-0.5974419753065432,-0.7448096531401212,0.3151609383221927,0.014393607425456922,-0.2706365721761188,0.5612167563906301,0.09598277655639964,0.7676872257252654,-0.33056047244053866,0.6699459945731876,0.8760505537567165,-0.7381660191329105,0.9835962904491424,-0.12729813147293423,0.9134835989125487,0.24861459015282006,0.7878688917646668,0.9916528689658699,0.9917990565622437,0.2078209437516596,-0.6401598952601009,-0.3966383855155542,-0.44586885969685763,0.41650196157811226,-0.9461034675387954,-0.4274830752287533,-0.5259970695553413,-0.5685500106981658,-0.49776131707666194,0.11807733393115183,0.7029469423349086,-0.6278044004360719,-0.8289590988631261,-0.6452417582817003,-0.29090311359477794,0.14373187832825685,0.2962366845237103,0.5359984854645412,0.3572033454172292,-0.9473567601349846,-0.7590173558444815,-0.9297565449435705,-0.3206478060838829,0.14726527869400519,-0.6030676983705183,0.7905879710080121,-0.1530056228934089,0.051956497324812556,0.8940291487455592,0.928521855429495,0.578723041798916,-0.9324836612605947,0.5886068850451733,0.7757270836878123,0.20456135490697314,-0.12576483685819317,-0.9328379438188283,-0.886422879623235,0.6563546354507692,-0.6989830423582009,0.7332435434547122,0.14819206009366703,-0.23481414408617418,-0.6865324377076389,0.4374803293511882,0.9096074220493684,-0.5794357588813632,-0.3742054337832712,-0.43415220174502434,0.8568158942079436,0.38246262373291295,0.15581819391751206,0.018851320349767997,0.7761464247628402,-0.1638909820231842,0.9193457622804193,0.09438231128519492,0.9686465445412433,0.14076499055586345,-0.10038474416134013,-0.07041750021028093,0.1928374550383556,0.6475520424231751,-0.07053352003042734,-0.13787175342974423,0.8624152960672629,0.9477148930853876,-0.31164826529875733,0.8389258017341936,0.5941735812706614,-0.5384605436214756,-0.45674879894887055,-0.1697136587139918,-0.6403732487784743,-0.11052962688361023,0.1520107406615241,-0.8997720536977811,-0.785484010016569,-0.2791982019665844,0.49957339587968996,0.13862927848914341,-0.1364163993907832,-0.268356687981816,0.352029200249264,-0.9214615594759534,0.16370329150191965,-0.7973093562136979,-0.00963995523804062,0.5020183921162686,-0.9233414731447696,0.448658904116054,-0.4747886835217041,0.6804881873681041,-0.44643620072305845,0.17506458839283212,-0.9040274683059639,-0.49940246640888386,-0.6338745763338147,0.16437049738587572,-0.17809485012143855,0.5942511336724323,-0.004355764746089674,-0.1576641440170281,-0.4999934026818629,-0.478524463879731,0.34886292428745325,0.3867417981983621,0.7337539530390447,0.24740145476871778,0.290466085957098,0.21449107722741823,0.42882359836109285,0.6097110447894964,-0.23475759347621028,0.9194086231140126,0.406335567631672,-0.009521397776325324,0.6286232553979498,-0.9681024895911654,-0.738874165092986,0.9864111336399182,0.21251315558222728,0.33293337165706327,-0.46799837918625387,-0.48592700439205117,0.12403288022754211,-0.12129153480321375,-0.247111732727733,0.49175719471402934,0.807996896609309,0.3785642093544195,0.018229993891758944,-0.9927553301838636,-3.481941473906236E-4,0.11767975822487586,0.32295910071309875,-0.2892305542550009,-0.6475955473128783,-0.7726882375611559,-0.8731981617918496,0.06508749493531707,0.24597173632463587,-0.22079054574832946,-0.6553580379346002,0.03962379479901479,-0.9364125892875337,0.9171555370197955,0.27911671544198513,-0.14674876451778895,0.07260479676222209,-0.962585802781116,0.8885719528318488,0.45033248304989093,0.45103598630169506,0.891192759813062,0.2229578674420183,0.5372343193261,0.9732728638429251,0.4060539230524065,0.8621981389031583,-0.7883980391263485,-0.5985625844418088,0.009542285366263448,0.7560200155913837,0.48425947880949116,-0.2754876713810208,0.2871176475720345,-0.008815074658564459,-0.676320477249567,-0.9543943672886541,-0.08218446328553686,-0.2984874260091157,0.24554494066857213,-0.8615928147429026,-0.9951168504643817,0.5880450701274722,0.9250020518532911,-0.5229039600766354,-0.8450321752424568,0.33115027412877285,0.8267837593991079,0.889663465962429,0.9582625418289044,0.5533164723755934,0.4284590405611861,-0.10718293295408343,-0.11665856785170492,0.9308443982483809,0.25464327031525213,-0.7626637681443373,-0.9757534640743748,0.5545953250051097,0.6450818817700628,0.22595138884980037,-0.3762857906857675,0.7044063061571024,0.9470980169061467,0.9615229894295316,-0.1547401156325645,0.8287385571335393,0.6529732512681925,-0.15850071272881627,0.8781649640939502,0.7105762887753164,0.8954079946273275,-0.6646649149195785,-0.8667594767338136,0.5525473366167841,0.6692873392533147,-0.6352435549476947,0.02356919889594078,-0.9713097174650578,0.16555462695865786,0.4524601575797962,0.6232546760607147,-0.7727551886788351,-0.31692493581786874,0.21303894144225888,-0.6414628823893775,-0.15170340124229775,0.7269478506854108,0.7306276331148129,0.8094606342457373,0.022059993662948196,0.1068056081749722,0.9009676022252955,0.6866062491894342,0.6780353362332372,0.11621560864712976,0.9112903874663278,0.09623372962476773,-0.4777690180985641,0.20437749819536122,-0.3103752123333494,-0.6814982722911571,0.36909306326082114,-0.05611079858330359,0.37583436623856725,-0.5027348607011626,0.8267391992038278,-0.44656893603438563,-0.3501046018856995,-0.12372346887036834,-0.8514547265379515,0.7517965859157796,0.09862921320285856,0.5154462183790738,-0.558911992119296,-0.7002242796443825,0.7103049871315619,-0.21785625000616138,0.3578988290992138,-0.7710239557510317,-0.9427676019757247,0.33635220862897763,-0.08956263509082496,-0.5382566163347231,-0.2403322099209415,0.8148140972405473,0.09214720913113816,0.29392313032663187,-0.5799412539558249,0.9681364666814802,-0.36159228777022645,0.04228151424127047,0.3748564702362027,-0.3838495229368417,-0.5653489113344521,-0.9490172337841554,0.3318285617420629,-0.5393512528877544,0.8368651702654881,-0.7934019067736056,0.24400640528187867,0.5309528090881821,0.48315636668518525,0.1286996193068346,0.6171066210787866,0.8365894141711927,0.05200067680604725,0.28317022284162796,0.8554673742069168,0.6626848810946986,-0.13773745876421306,0.4079390047633269,-0.7777556548240099,-0.13248776171480858,-0.7879841897418878,-0.1540698965881513,0.5228144691002474,-0.47204367775360523,-0.08234631693644245,-0.35240949442891667,0.7160377136558909,0.3274885303024231,0.6417270304336473,-0.3645598489588773,0.31623137500338894,0.1925718425843559,0.28740477277982746,0.015667493426164247,-0.33058615895608634,0.8572447182483869,0.9894019848479652,-0.42313064488038576,0.9705780061879252,-0.7280396609857964,-0.9543244815699325,0.03361422123657465,0.2344579549943897,-0.9284138357324654,-0.4888606992246729,-0.34741528917055664,-0.6595448496876863,-0.3212034351212798,-0.8858953877399525,0.9416339834032017,-0.2569060171360922,0.042919609642573686,0.6581049894929547,0.8871687678490909,-0.5274208928095228,0.50062735240194,0.13621634984121833,-0.0071503876776422,-0.3542691122761181,-0.20631338656825515,-0.5880619696492524,0.20267678769697173,-0.13422229297018107,0.8903156662411389,0.510152823667837,-0.31588999900907044,-0.3898127698199765,0.9305208047497942,0.3136367858825988,0.4019454002799643,0.9889217528535583,-0.6478860143056191,0.7750435398821149,0.431254531104055,-0.8987933217644297,0.05294126952945666,-0.36875994760700914,-0.9622342694531241,-0.3728973389825818,0.30618063652675875,0.04632523810623579,0.6966477703229847,-0.7391231925444923,-0.9306056297514671,0.6116140545080477,0.4257332583416613,-0.8736296405632753,0.3143506742711202,-0.30467523858468404,-0.9232025345075381,0.41026363054657056,-0.9465431589999829,0.26165878579337876,-0.4414132285912362,-0.8926572014207681,0.8499740607979014,0.9684164898314567,-0.6421320876367898,0.9925746009416176,-0.22698740949919283,0.6042452274453085,-0.8201507144069919,0.7180004344851627,0.994634062213209,-0.2589318470515587,0.04690126666287253,0.27816221657877827,0.5252155040734929,-0.14580266110385875,-0.2254169313310066,-0.0040227376128105785,-0.05544215007944908,0.1020861923405143,0.38655951782091935,-0.3483187782162953,0.4100507815048806,-0.5403703182121917,0.7350715077319672,0.41066210291855776,-0.2904681992283198,0.9633744744636348,-0.6388005333265523,-0.19828854106047578,0.6753078915772932,-0.5460456821651967,-0.5407598198974553,0.1554211979414355,0.8871345957290442,0.39051759920845064,0.7020928473081098,-0.3668410940831739,0.26577638377528023,-0.9361304741380336,-0.3603702664331947,0.2602560415011035,0.8950997039944713,0.849502321691322,-0.6003948884331789,-0.7772519612669533,0.20947863634157837,0.018641639055718473,0.500733010409935,0.09520778606013836,0.5446208437649036,-0.9351111162143992,-0.26985586280202023,-0.3620832707897601,0.9737505874698582,0.505994082533908,-0.757491142847825,-0.6651783720224418,-0.6625883361568978,0.6847453408458255,-0.6943077559346056,0.9394278154783962,-0.5760159629302184,0.21991510598796626,-0.5521147518396596,-0.0460170554792414,0.36933334157226216,0.4476566950281964,0.15373356916719572,0.18800830177355787,0.5178424748627366,-0.5543033625263574,0.7120643587587612,0.3254380946368898,0.2234018330607832,-0.9528777366133019,0.3353896037266455,-0.2246702259650688,-0.6322372443549271,-0.372482384250836,-0.7485585439463038,-0.01068758426927996,-0.265012586816312,0.38865251100294795,0.10957510702088524,0.8996421053373282,-0.19544415592409248,-0.6361164731174862,-0.25004905655035814,0.164937658123389,0.012019478123311389,-0.5651206117232532,-0.8490129339009065,-0.49362740774949354,0.07491842828567874,0.27623474256745406,-0.7993486176318974,-0.4246984764504591,0.5930081303486663,-0.6660088208820065,-0.17026077101952253,0.5140041607836652,0.805668192528848,-0.3039636157522141,3.6272283912208714E-4,-0.34556834632462885,-0.8743037808493146,-0.973194532966738,0.06045447815221161,0.6455435164079617,0.8675153081361451,-0.3843374957954322,0.055167074737818345,-0.2919729520805352,0.44915360995248044,-0.9722078055768171,-0.27137208531553725,0.6858933685536297,-0.7288175587485632,-0.15161395889291418,0.15458692188847456,-0.9023513841909769,-0.537874030296168,-0.4246407849101286,-0.7979271249208735,0.4854400064059121,-0.2713139696762872,-0.1572116902422298,-0.6277477848834385,0.01878209647310114,0.6604514360032971,-0.15328662674701343,0.9352623488380634,0.5301692984139468,-0.9874089128642158,0.0968996166423064,-0.24913066249959281,0.9430854230344836,-0.27364309408581633,-0.5673909230600105,-0.32562142978957564,0.3986236589355201,0.7460521402297347,0.6173838520443022,0.029304286873722107,-0.7048668464457926,-0.9475531796205396,-0.23270294367751942,-0.7291170608195323,0.9260122050656383,0.7564528874351093,0.3690797381205224,0.6695926366970246,0.43397056783100485,-0.41680341746679916,-0.29101408438588794,0.6114192686728761,-0.6042132486200433,0.6254568634354938,0.16021061512057866,0.9416888140642667,0.5097896493783225,-0.14323617145965706,-0.03387123322939711,-0.3281379787013443,-0.42100388103923736,0.5682819722015306,-0.09142373528904879,-0.6762329377523904,-0.7339600159851358,-0.37007098128989746,-0.4351522526775482,-0.7966768862360871,0.9417312425237763,-0.724989301512291,-0.26596195836038006,0.9758865818431692,-0.6427137867539754,-0.03102108975846596,0.052808457261130703,0.057928788351817806,-0.1590262244691203,0.8467495485755467,0.8226108574046656,0.5448336202520285,-0.7468744641918381,0.18934451345702752,-0.36514271877786997,0.6621798464779876,0.029160215171048387,-0.5405508380685251,0.5074740471223387,-0.9420471901557561,-0.7015229405341521,0.5268068097601686,-0.06426593698068528,-0.35429294334602,0.28777464942594255,0.8881981224213995,0.5122135158685477,0.16377997319717963,-0.9994442337228548,-0.07691803271579278,0.5851719215822206,-0.8667651916582797,-0.48971801581034025,0.5248032071512763,-0.19839189533990642,-0.5227105442848856,0.11284350436465918,0.808599317566395,-0.6793020878528611,0.707565226364897,0.05471497617652776,0.021467924383935966,-0.014727949191037704,-0.7124316618680908,0.5863694564830286,-0.734716215489043,-0.19655402097309604,0.5513952064125418,0.6862264974527599,-0.8066176680787602,-0.28053317445729076,-0.6142705283834127,0.9586131689728585,-0.5478439263205606,-0.15770476674202016,0.7757789886321855,0.9299207000525607,0.31303638973315406,-0.9476060893001379,-0.7291233732432263,-0.7496586156023015,-0.3234372248928019,-0.7783540597770799,0.44304892356289605,-0.8457255381889763,0.4290697041123688,-0.8417180088915264,-0.5080662263543512,0.9406924916109733,-0.006151698123224358,0.8281454905875674,0.2920063768533394,-0.7945374118406907,-0.1575304553929744,-0.5944196818281584,0.38315126280672196,-0.9091794332936358,-0.2817175581264968,-0.7283224407850584,-0.32680396203722295,0.9128986427527661,-0.6270696960654396,0.20457116992656887,0.9511008794785996,0.186411045360366,-0.27194531500514274,-0.3040741239710094,0.7020753855750472,0.2863040621136179,-0.4518136731672877,0.5797134164167166,-0.829026848058344,-0.230618554566844,0.9471488797214818,-0.026173873585464635,-0.86210755918701,-0.27538184268422294,-0.6508688560597491,-0.08796927340316452,-0.5500113371086315,0.42907886741211265,0.8869099624667007,-0.016782281949026423,-0.003916066487605008,-0.9429386252286538,0.6435351707739267,-0.20314475158410672,-0.4842641048259617,-0.7767129193834883,0.6301157622694633,0.15800864864400932,0.4020063718930016,0.7366646426637837,0.9411744459581992,0.46224135627732466,-0.512750985081456,0.09935598073018403,-0.8596339734211016,0.01016504754019576,0.6938127518332373,-0.9934234656626335,-0.3968167414642121,0.6933597759865859,0.3866364097463191,-0.6142349506110729,0.2796015365849709,-0.18216106138705102,-0.717712797628872,-0.6405383734691115,-0.8615572830250362,0.7081863684570522,-0.15092531850577573,0.9244345997672527,0.4165653535352898,-0.8250541876940214,-0.724549830472381,-0.8896977841010991,-0.2801819946065047,-0.07020294052262899,-0.7110217892220785,-0.08590417205634249,-0.9909808013969903,0.5975050624844733,-0.6242533414078462,0.40291568392366983,-0.4469431584488379,0.10058193021241535,-0.7198411412800207,-0.9649663224935852,-0.9574729177483214,0.8820555763345654,0.057629853844689105,-0.5294999836121375,0.23116142019475672,0.683690298467653,0.4077870407574018,0.9255136712895251,0.7086187535283053,-0.5885408693699441,0.5333529189760569,0.47052064667964566,0.7070466096272268,-0.0029796134656405737,-0.6500329161760823,-0.41979383364214096,0.20514560677113836,-0.8965962813058439,0.5147810438611091,0.714250220129379,0.01729669998603578,0.025064854302534467,0.4467393088157807,-0.25907996450268,0.04164166086690968,0.19691992331122266,-0.7209632355360247,0.611274135725201,-0.6101666332057267,-0.6460743406515068,-0.48567835467171383,-0.15004155843248346,-0.26749848161285805,-0.4277778828104677,-0.9542091847550362,0.14927484821467663,0.8683072525777145,-0.8251897471591112,-0.8375973903758509,0.6364092891180544,0.26078850088355754,0.799187770142848,0.17401054247063596,0.22940640113182043,0.08602557679162204,-0.19867848501030005,-0.6277012342546662,-0.0943173827054069,0.19548515079424789,0.6097863614697618,0.18597943419761176,-0.3224271854934089,-0.677771420818154,-0.3541454733332985,-0.4062110075322025,0.6026074439299651,-0.15500149352089676,-0.010228152749183872,-0.8736006368020437,-0.7480781276980235,-0.5264732551119895,-0.8995881194326245,-0.8815621733554506,-0.28159891519427394,0.32973277296983095,0.584949391280849,0.2643880108119401,0.4668676502137057,0.0733121975586346,0.26715085206020284,0.9872207867817793,0.11182263841556783,0.9565418992611938,-0.3826695863353087,-0.3538149203472123,-0.4460466562211334,0.9919557468499796,-0.016025881807872677,-0.8097364251355785,-0.18517626527823272,0.7778747890369249,-0.9935122762238928,0.5063782879342436,-0.6201320986587611,-0.04939736614824075,0.09047712147871678,-0.5834913585788033,-0.10699124022325068,0.7184247764884375,0.8914229885675995,-0.9545373211602326,0.6419281857323924,0.48137975721253046,-0.6204355624999327,0.11112037109556905,0.4312173715788681,-0.8479028180954429,0.2482600761691569,0.5815455341052107,0.16133964767572317,-0.5331738430907988,0.1800474531694296,-0.9015575815838597,0.7145412359124246,0.31210623596368325,-0.20092462162585023,-0.41599099037652665,0.5945476073015019,-0.10864020824678966,-0.9844638829730439,-0.4716807294032137,0.175088080663091,-0.5829853043317079,0.907178786060902,-0.40305648760010904,0.38299205227430466,0.9375928197114949,-0.7150631252895434,-0.5964056399340001,-0.8251945705075714,0.8955282604170509,0.6541571811073694,-0.4398358994203764,-0.7384219659802607,0.06030834262898832,0.4098699234845846,-0.5534024066827083,-0.8053241830383511,0.5928572021836229,-0.20600681992570524,-0.46437789368806737,-0.85382523573307,0.17091039229709448,0.39431770526524956,0.5624347230882363,0.5005975000171972,-0.6585419217433459,0.7795716041618779,-0.6529748278565524,0.720455091062324,-0.4348398358416352,-0.7581827495199618,0.6568907003031208,-0.14373867946110308,-0.2210321936004278,-0.4431139916160183,0.1404773791646705,0.5423885309770884,0.7270110951556843,-0.8244907392230878,-0.9332398668586412,-0.6466621320263171,0.7961426877626243,-0.6777419724130263,-0.6260471784854118,-0.009299822586407158,0.641354793638401,0.10635575316042578,-0.6395833530600836,-0.0707139413083413,0.4976144040860422,0.9378819765653503,0.24341423096183878,-0.1283923366445574,-0.2515092692419172,-0.7051605335078854,-0.23356574260924456,-0.3569030616391975,-0.9417235463047247,-0.7989930596393935,-0.9466099789315365,-0.9938506223649273,-0.8268678367976625,0.651457165858685,0.9880730126775374,-0.7207159227032083,-0.641887289899528,0.6620691645245216,0.5398214589628128,-0.38158452768656503,0.36076043674015845,-0.3786807738192106,-0.3385589515628866,0.35043369453202167,-0.22171928166504173,-0.8129127652469295,-0.3470066806735155,0.8449951135655274,-0.24585936783445161,0.09816824151362358,0.21514639897481058,-0.9313731508642371,0.04126267944359996,-0.04036763606619176,0.8083593858951517,0.18595194579997298,-0.3571892521836284,0.3131292053249086,0.3892503360900157,0.3560463129888918,-0.5221039620987806,-0.8823137090859035,0.11307673622344283,-0.7823599259830125,0.8183570673307989,-0.856496513339152,0.17133458056325845,0.4650802400277223,-0.39590318391295276,0.7206995709690225,0.5760598918916722,0.38767394974325464,-0.8317117802573177,0.7869192219914305,0.4074961991203856,-0.7217642919036311,-0.6099127917359684,-0.7578376102526563,0.8093682483639417,0.21236361618185828,0.8413200888399013,0.2461508989886343,-0.1539193009178017,-0.14182576647899303,0.10494133814820183,0.28300060616850553,0.2287390736694661,0.6969282061774766,-0.8831152505607234,0.5699199920696791,-0.12803228533957078,-0.6818184850184024,-0.8807397992214081,0.7011095881827412,0.2610783725295538,-0.7011991377314803,0.6116752149730604,-0.7050100226981517,0.6892204080560445,-0.4166149881882786,0.548789588464794,-0.14766176605708847,-0.43327769256655047,0.254336258792879,0.9560390697324677,0.03486745239057609,-0.7900879892547332,-0.8869698321105484,-0.8782077251576168,0.13823533996874615,-0.21571824359246694,0.5892342976503269,0.57303296387836,-0.33957765337938417,-0.5930586715361192,-0.8458703835931858,0.1529882121098045,-0.4441281139561246,0.805881968824179,0.6329923348799615,-0.3070490001389421,0.0177396170242361,0.3886501733392209,0.5967960723726307,-0.9931259398195549,-0.5549498085677409,-0.9093891622320687,-0.642302352989407,0.23613915227216586,-0.37148528470831477,-0.0469450211859217,0.0015730842235224252,-0.06676442069393618,-0.871786115316568,-0.9760127414330255,-0.638526268861159,0.6969081686251029,-0.6816941673545189,-0.12049472231013914,-0.13092521646845334,0.6576644284227209,-0.36162965803225555,-0.1687376083470189,0.8168923116056142,0.6613578530464419,0.21795459624615554,-0.2844186861655915,0.7222480144216974,-0.3901071439281052,-0.7696618495969685,-0.9476329572068216,0.20466338062704126,0.09192495685733193,-0.9165113137129905,0.31704339337598975,-0.9284310497367791,-0.827242248357875,-0.12936736287812134,0.0863162354218483,0.15291656136083476,-0.9885331819321133,0.3798181814559589,0.898645588655588,-0.166513240315888,0.8346075884873485,0.4013012903840163,-0.18711505192566724,-0.7976147584043507,-0.2803056702305169,-0.9264617474441637,-0.14637364394447827,0.27242680200177327,0.6279637117661088,0.5730219197679207,0.7993665535867496,0.8178069304571878,0.17476529166308263,0.580151099746,0.0996879508196089,-0.9633339815726725,-0.262750393134064,0.6427763503216264,-0.8997732143249209,-0.5341480729314514,-0.32714796236709165,0.8110189336327458,0.20927801954678338,0.358392805421474,-0.3416005030510547,-0.26858891790348505,-0.8425341724607234,0.07989227834360824,0.4584945873186854,-0.23463870199727177,-0.9180147018231422,-0.011735978341783193,-0.20684025842982168,0.6363990659497587,-0.19049923303922212,-0.26807496289927135,-0.6014469195146781,0.612608698339659,0.4168621255980902,-0.06522868933377568,-0.13910524256623025,-0.7048866435130758,-0.08361882354817074,0.8319602032513329,0.3525708166490513,0.7104248653430096,-0.257514075787338,-0.42126996864591626,0.01071067991871777,-0.40607349009164695,0.609150137430817,-0.32481202980174917,0.3723611074159445,-0.4962889668006969,-0.7374269122533752,-0.7667978410746579,0.01670868015443938,0.718447336997017,-0.3288368161400377,0.6572360913320499,-0.6363695588164522,0.7499037124585306,0.27495628025101393,0.7191666421046932,-0.560819335460431,0.7402081786568844,0.05917812506948539,0.9778310201847769,-0.6575500989371443,-0.9841207968441712,-0.5782607428670625,0.02724924973345444,-0.8654400281612427,0.6351144483499449,-0.9279727453708655,-0.8468253624928739,-0.08061190436940957,0.8917766111530159,-0.47155947491227623,-0.3641756653267485,0.9969393924195771,-0.5710301676416472,-0.825314275444955,-0.8426507199446984,-0.8558824715321574,-0.13294698432852625,0.28993874477688064,0.5558013974422409,-0.6860309795438368,-0.33461112268133,-0.014452572199952218,0.5130637933244269,-0.6566929448525689,0.314081820834077,0.561032608733262,0.6724085347960775,-0.3800533936115966,0.8914097152047369,-0.56527832342292,-0.847947228328199,0.08461314338758053,0.5246082223097184,0.5094273979836199,0.4542856109744817,-0.5710872732517918,-0.6438800781951399,0.6011627496207097,0.36544148454943715,0.8995820932959593,-0.7556270142090951,0.38896060714322855,-0.39980065886626615,-0.2694367848757362,0.6176070220734591,-0.7635549256042109,-0.335610647356237,0.8982760675321186,0.651218215078232,-0.8091202793587307,0.6936930203778251,0.6317917227197534,0.25354710033885963,-0.517003808135946,-0.12867575087550587,0.9084349840042574,-0.7780130825501792,0.9309837996747674,0.4359835200422699,-0.9733254308476065,0.370743311869443,-0.2053995364672243,-0.7379201807516877,0.27198743385273105,0.4335285688745687,0.8304420966602151,-0.47258262432752973,0.6777103198175967,0.10892741105312509,-0.43301419749326087,0.07924903229251234,0.9317222750048786,-0.25687559100291035,0.14810193792596338,0.7677994079145076,-0.4088731385882898,0.834136077791217,-0.5136944610985383,-0.7629342730694273,-0.05906571242899261,0.7936435508661062,0.9220983016529709,-0.5540942843385877,0.06906857584892245,-0.7830245893186185,-0.8966711810739822,-0.4618729190972437,0.028855764883522372,0.2887432330028161,0.37857755532440973,0.5884937525158884,-0.6785246142090195,-0.10891491453132751,-0.358848933151904,0.22226958565755695,0.3546864876758884,-0.5165743452133313,-0.7346519371862172,0.13912190705782734,-0.9795327594012078,-0.112884378154821,0.5442377750392038,0.16791045843930053,0.08303546022069064,0.7352636051679784,0.8682700806685644,-0.3629086275166016,0.6800456222099607,-0.46246925118442017,0.7766136132486443,-0.4338322271477064,-0.08641441067521893,0.06160740019061839,-0.0318025697983948,0.4668224429819856,0.24392499900139009,-0.9524526568663458,0.37700951135656835,0.38807110626637353,-0.8022050318771607,-0.8519136920902977,-0.5037168585701095,0.24797759028408128,-0.23569316467886559,0.42752572078859497,0.27878055612091823,0.4651756125652273,0.775446586317265,