input: [-0.9533231665097301,-0.9373640172845805,0.3665947816705968,0.959967993794574,0.15267565563304086,-0.5969402879151879,-0.2565864095210977,0.26650045285964885,-0.0012626510523898737,-0.5353181558816891,0.9940066379638894,-0.02674631117566828,-0.6117207595725818,0.035297843412658514,0.8600767716358197,0.1972016190803514,0.2895702081938658,0.4315772439286927,-0.15906662300767782,0.8441858546198113,0.2762042254038757,0.6125089893736786,-0.969823921654591,-0.07580238921002058,0.8800080828580716,-0.6183582614315442,-0.13451635275003215,0.10287200428164289,0.6212279986720421,-0.6224170186402271,-0.8908408623788302,0.15116668953750945,-0.6945752141828776,0.296067059659334,-0.8657365515615718,0.8057760833561114,-0.03895253531727416,0.26581004582722967,-0.26354827931402447,-0.5312763457328289,0.4913164762608908,-0.4687202003065356,0.46159550795700377,0.5509791984186347,0.6492906090804593,-0.9605010154202711,0.2830408804987543,0.9597889084825497,0.6697240485165847,-0.8056208872844455,0.42907814466625593,0.5902385306903226,-0.18828857845479918,-0.5814168414660972,0.841589802253667,0.5564220679422349,-0.5067453034943883,-0.6799949753275525,-0.8757499940050131,0.9592315213126823,0.7889825936930963,-0.4339956333067232,0.4058021100050493,-0.022681241649439077,0.9423715475533256,-0.578534031247832,0.2677167512331886,0.658539714296092,-0.3549714004989166,-0.800412382771339,0.7801659066428794,0.25220149885377574,-0.8875436298883024,0.8210684737782143,0.42067707038474245,-0.7285130492604635,-0.07442137628988488,0.5559257243036351,-0.9632655838734863,0.632757173435853,0.7874976689818489,-0.04052726959352415,-0.09281515954781949,0.10247620610348385,0.19727738982208742,0.4165300033668238,0.009277817604150362,0.8466314959820991,0.4553973896592438,0.12023030396947476,0.7094996176122215,-0.44738157773538,0.3837062472515893,0.3457274922728,-0.640447466066479,-0.9008790382635454,-0.13643180831929635,0.5693613495907774,0.6246678692125909,0.8791644233050242,0.03745513167544434,0.9904230833433636,0.14296490126102523,-0.6501955047051386,-0.4086453260667222,0.09174232601895205,0.4019563445182808,-0.5163341692358554,0.9838561744894554,0.34688092056590847,0.8959435329934071,-0.3727601237011382,-0.5851813479871917,0.011665491255057558,-0.8204165722017656,0.8699539995905241,-0.029388939576235673,0.5111905639822589,-0.8694455586403858,0.9661634480481454,-0.7575015198754198,0.6180289177132465,-0.546113708224532,-0.9095045992999748,-0.4892326234271833,-0.2302027014725352,0.029786747123313972,-0.9239840602598537,-0.7090138920472935,-0.02792829100774652,-0.7371583942186672,-0.5617092198296336,0.07795575512651487,0.6547329462617444,0.8432858340580254,-0.39108406753814196,-0.31684058394603487,0.5899294695259278,-0.06120362110029265,0.9849748420937969,-0.8390741446473917,0.9181761799070247,-0.9487992401238594,0.2950105721598151,0.9845312288740231,-0.2792488693075734,0.06696829400259241,0.5545098165841951,0.6334233831521561,-0.21279289445746552,-0.549797719641806,-0.8778162920941417,-0.826700492640791,-0.4612616740989093,0.3364658521211181,-0.420300003590214,-0.3385448662740429,-0.292893943288004,-0.6175740968294519,-0.7413225682040285,-0.8217634153426439,-0.24921292036271492,-0.1239248605827794,0.19872038490809696,-0.884470471783483,-0.3723429178749478,0.022383689043141697,-0.6124164694203966,-0.7501781385856112,0.703701965516562,0.06273616933495973,0.6734906319098684,0.791047916842639,-0.36771166270341404,-0.5204753443080725,-0.7498204681140059,0.22486132054590846,-0.4694710375100082,-0.5749361457187141,0.2968435348672229,-0.03599051687731003,0.508111886355191,0.14090501289781732,-0.7904132831298374,-0.8696680525359803,-0.5288536637998635,0.18420826023145853,-0.9484703777119163,-0.6511442193287171,-0.08708708133740584,-0.6926140307269011,0.9346831696148974,0.748069498265828,-0.19751507228995702,-0.06848980055254716,0.39585704706683433,-0.006158475380229955,0.015556581317309526,0.3733567806689062,-0.5193976290441356,-0.9726683587702654,-0.3927704671431167,0.2022157256619992,-0.2826248771667004,-0.633537641925427,0.6619669105350192,-0.9051006877315706,-0.01947813831869416,-0.1444136329156127,0.19064189143165722,-0.13298529414574367,0.9280017622234709,0.646094056170947,-0.2835532918936319,0.14620674289668778,-0.945618410270957,-0.8591600574845129,0.25375941350143605,-0.3961064265121783,-0.20318340716195338,-0.3879922176177648,0.38036907218412974,-0.2883693347292009,-0.40437000286198277,-0.6134851645213537,-0.663167029136023,-9.894425678342866E-4,-0.03929579840121278,0.6176535764445874,-0.9714849132132553,0.4133861796860063,0.6637279730734045,-0.16663809726261802,-0.8171915528625906,0.9437393502281173,0.0920359710473706,0.04261024322095852,-0.3658589099855418,-0.46608375444125416,-0.041194310300906256,0.25817153181469443,0.9661644576601081,-0.6702684456542112,0.8553037163229615,-0.7649188017340318,-0.3369843058023314,-0.8838574820753986,0.19878559447734911,0.07778869756590479,0.8324194922914645,0.17691225597590332,0.5517520091378598,0.3552033936881813,0.2620782539045916,0.6569728902186514,-0.7807164415738173,-0.4599837015544255,-0.6038194260067817,-0.752982198884832,-0.4619117975129454,-0.8756711267913881,-0.3512848228681331,0.20379064906027056,0.11660102178058018,-0.2248860146461209,-0.27487618184690255,-0.15284119126767082,0.6599291371679092,0.47220539586345245,-0.47154514765514066,-0.6557454952002133,0.25412015148926903,-0.028959002949796808,0.5236790234859807,-0.8880778092338046,0.5725028760890383,-0.06428307673137579,-0.8443397802027965,0.7861830513011621,0.06605949381511134,0.42390846146579797,0.26927156203524905,0.1978847493044631,-0.5352480965688433,0.9556864945048638,0.569829727179286,-0.1925675304648442,0.18339158086818275,-0.9498181138802271,0.14458830960196356,0.2936585276863062,0.2906179781546996,0.09940620775942444,-0.3305929440930311,-0.2528391727847368,-0.9112331049825617,0.9062228773817709,-0.05682494471059463,0.1377188603922994,-0.6602547957173557,-0.34781699395882115,-0.2900914824930496,0.9418642323554833,-0.6622348464025378,0.32036625554806974,0.203881150796154,-0.4630919210523441,-0.8118679159903941,-0.2157277974169245,0.5071269683238975,0.9361592914979171,-0.7617956236069066,-0.6330467158762807,0.8620640490997151,-0.6511193869680347,0.10129253558721896,-0.236483654728735,-0.08293214452454367,-0.5226398497496154,0.3257189201080788,-0.5223421165781374,0.9046016958339882,0.1434578151363879,-0.4491023287263194,0.18080634239789894,-0.2602211609559346,0.6972280509848459,0.4490411931671323,0.3844012854993122,0.7278540173478589,-0.5881652882375246,0.6184972574622791,0.499564298829835,-0.6111789415313873,-0.167112713795188,0.12227082023719205,0.09357209187034488,0.875364396462142,0.8708750003667334,-0.910740471629403,-0.2306972705299759,-0.610611198559261,0.9000177237703904,0.2058434920935932,-0.06386838520449123,0.9447863703955135,-0.8795270350748519,-0.02656429326630172,-0.002005973074970857,-0.4042351828166795,-0.9795324382162578,-0.29634823775446684,-0.6408677949262471,-0.725774073824325,0.08522572121727001,-0.8548509013943619,0.7829593633159966,0.9032217188912701,-0.7098840953006176,-0.32816183032475554,0.6539020903931443,-0.5804769493870883,-0.3516890727737776,-0.34012643605510484,-0.8835755327037049,0.545240772127719,-0.82916437744268,-0.4841530756457777,-0.3962858870263113,0.016047813262061172,-0.9351959179532596,-0.4826690513307419,-0.7819980806742375,-0.8267051637058416,0.04939200996391424,-0.7095498569982417,0.9655814983575721,0.2170842534675912,0.7737912611502016,0.056233753330969805,0.3173421962441305,-0.4538104261237459,0.4402543464131843,-0.17391126970240434,-0.3329649319315262,0.12739535894911636,0.19164400454510178,-0.2313875924355504,-0.8400979925832908,0.04995058591565882,-0.29709830272795745,0.3234985134685988,-0.2753882187739378,0.5755930939740266,-0.0805338539157916,0.8976942145680484,-0.6291849124529847,-0.40591597534277857,0.9650147304621495,-0.44643627877147196,0.9846026257614258,-0.37796596713467023,0.7660329672109714,0.4652331016200213,-0.470935705244937,0.11450419382562327,-0.64789721627282,0.5689640950898638,0.4997945192890598,0.016365611438335925,0.7392550150118602,-0.0222307495739118,0.38187356824976537,-0.27791248696787707,-0.6420316968472088,-0.3011281017564238,0.6888952867594047,-0.17145728111660574,0.82033878310189,0.7742314795365564,-0.19656172080148493,-0.18093261939332428,-0.2077998318546892,-0.4005629830106192,-0.45718853412054417,-0.14055157225651982,0.21402040119448462,0.2752624228938463,-0.20611972564177106,0.5782229003237509,-0.11119988309003714,-0.27979809021587987,0.07351068552370621,-0.4707735525294918,-0.9622965429600598,-0.3165224659658321,0.30717140599248016,-0.33397021116056935,0.8600525648986492,0.6768182555141931,-0.09130863766288533,-0.832471811751567,0.2547504678008532,-0.8411610799413083,-0.8136219365707273,-0.14231399242259268,0.449568589949235,-0.8767723443702502,0.4155901522889791,0.3260743811931188,0.07085659600541927,-0.130069825354582,-0.926894305060173,0.6678065418944457,0.5007659779744402,0.41325076571771224,0.09424310279790404,0.7012922681050098,0.3761365372808263,-0.3532109450165637,0.6612182936448494,0.3926950805777829,0.22473755972726783,0.7437935240768407,-0.12659460822466406,-0.19315375281871972,-0.3743839814316312,0.8437241217265152,-0.531926130911462,-0.9625472382100637,-0.6434823354144108,0.15752468687610666,-0.753399548874433,0.2934014415123609,0.4853825904342368,-0.9837091561676734,0.6684192668822255,-0.003431030170633509,-0.616562568788297,0.09298670386283536,0.7205237229522616,-0.14140097887996994,0.35410553903174513,-0.8237923144352797,-0.18357636271775513,0.7815905184121485,-0.3495656685673352,0.9727390375069318,0.9290036838042628,0.054577379533296444,0.1779341437354065,0.1959848227554728,0.5529535293243804,-0.32346152775142234,-0.9133852292939524,0.1612976532030408,-0.18409991580983975,0.7642630614045061,0.8928457696126393,0.14138454220021535,0.08249181713234344,-0.6090227052716934,0.81931764945959,0.3503987136928395,-0.8432319590422923,0.1785022984838016,0.4929076938473198,-0.3979105217407244,-0.012813729515029237,0.12868122121644787,-0.6540748131831975,0.923372442422419,0.21045557396731995,-0.2204592839218653,0.9119780809179847,-0.3978538926336841,0.991832720265462,-0.7954084950401605,0.599228487455264,0.0038408918357208943,0.007271189918082177,0.21086343607992442,-0.9528160860258688,-0.7277885315760058,0.2365803015205341,0.8400454727563214,0.4380377122272079,0.7521093455617249,0.7860984754855889,0.5644592320077586,-0.7004004103777455,0.8424140733705583,-0.5310485623323578,0.5543288045234798,-0.6270864386314376,-0.48877688538894026,-0.6141150726912261,0.9865972544427757,-0.024045294017599694,-0.5351122324207274,-0.5232458481254911,-0.034411386746708184,0.23051207902602422,-0.18129777566198113,0.882609143841887,-0.1465199922196867,-0.8173629970627352,-0.5337865531668391,-0.06233386706581756,0.7661043167206714,-0.9542426895934055,-0.0026881830590399503,-0.2372809896393111,0.689050665571673,0.44147899865306717,0.48877354877779955,-0.46441225066248704,-0.5621018255309349,0.7976350106434973,-0.9637060665516477,-0.8453011970961486,0.5759761737325126,-0.003022891180947118,-0.8711677366286139,-0.7205759875674633,0.10058509126415571,-0.9053373278006254,0.3901937115313132,0.7361936278489991,0.6190346890569602,0.7760558850634236,0.036893803327407326,-0.10546813044919356,0.5001097801060168,-0.024889352914115648,-0.6663415831987449,-0.6848714282145898,-0.44689547333742374,-0.20769790389300402,0.4618120190924102,-0.6683933851384296,-0.10060638781428266,0.5649339147020858,-0.7803675391176081,-0.13015724419310004,-0.5340611850435735,0.3544378475534231,-0.262895462393965,0.9799975256078248,-0.9393056692513602,-0.09657971138446753,-0.40792592835503094,-0.3261640885359398,-0.26225971087725486,0.35023934600931317,0.30415817832449155,0.1599705207765787,-0.9867192451257867,-0.6784461485598787,0.6562074835083629,-0.9548511361015513,-0.4103117282162534,-0.9324791284142142,-0.09617078735074713,-0.38483685584188554,0.6404635612563396,0.5580538198277936,0.014786926401682665,0.7605448830390336,-0.5993302860017073,0.5259532237029501,-0.8370075371761287,-0.2949216571595774,-0.8774082847964018,-0.35932447440841675,0.7076284671645896,0.8944244980122804,-0.44476340244873924,0.9466986429766338,0.1472029797563661,-0.1058650185830825,-0.7457098802903925,-0.24793210528263177,0.42261793027628425,0.21033306909104388,0.9118870972827551,0.6759042072538788,0.5019146398421079,0.22419012644765024,0.08727678580135678,0.5818303810363292,0.9105133427015815,0.22763423946516603,0.019136613251252044,0.879704697363002,-0.5302311716021344,0.5203190144820731,0.4760145202823056,0.32077485630980473,0.47159299905527874,-0.9764184537262881,0.7460278474285069,0.7928265584545275,-0.1865658962159713,0.2854915742817208,-0.7822047475212699,0.6991067474957144,0.8607305017885563,0.5488836330495503,-0.2151342397874021,-0.6228144958809303,0.23751011724016502,-0.024989323915147965,0.15798511680008054,0.03017208747156186,0.9343165921834131,-0.27721909608354056,-0.6056812665240094,-0.4548469716470549,0.054793491000286965,0.8744611618973634,-0.6800939841247631,-0.8679687522092423,-0.9363457284828303,0.04386034821310214,0.6603185560908449,-0.5955403476402361,-0.7336118416667303,-0.29560033957992626,-0.825089989992182,0.6457176563218647,-0.2631569237455236,-0.28977999554749334,-0.15890917169953656,0.6231520622255109,-0.29596085167348574,0.6466771278176398,0.9172026759751097,-0.2576664712173762,0.6446999000167193,0.48625850952455507,0.7613728117563998,0.46581225878944776,-0.4881457463964911,0.6929514957677063,0.11619658456072934,0.15943070164519502,0.9882436275908262,0.09318240474665207,0.7243429884244141,0.25954489574840367,0.4828472151520351,-0.6570251053798091,0.48401040232484016,0.30729514216412257,0.6499763136448817,0.011179425799476839,0.03711280283866336,0.9524919285016298,0.7602007047333537,-0.33549936505615485,-0.15874590645070485,-0.5988626711754113,-0.6651513501261124,0.475309568844664,0.4849440993097873,0.08678794516278687,0.3086017132374541,0.35322013301627475,0.7262383819495268,-0.12120813243169937,-0.12104983287289861,0.2976463434289425,-0.52197969222045,0.46977227572818636,0.7554235186539107,-0.020176496454532122,0.9145218386659879,0.6861317644388263,-0.5296946175129245,-0.2725039624088794,-0.29483810965511026,0.8963437220111057,-0.704094575909904,0.5959196976729961,-0.9143334621639374,-0.09706123546575429,0.10917932813126918,-0.9293616671426441,0.805944969448166,0.6679957910461394,-0.7709017736591297,-0.7418669244217186,0.9870599307317818,-0.8806281212939191,0.6175590856590341,0.9710906946596509,-0.9209011743876137,-0.6840074970608705,0.7092872702429069,-0.1402164773752157,-0.025385392494067682,0.8621597804419232,0.06518331174960501,-0.6185041707283128,0.6148113913915632,-0.9983433576639529,-0.813230950363786,-0.2206736608126143,0.3937274400551156,-0.38041456687887454,0.6066952445430924,0.1189735395274567,-0.8719581813237007,-0.04870413323222467,-0.8168747254742139,0.8903928517942097,-0.22010668397732935,-0.4266261546085346,0.3161748303698648,-0.8999963180046187,0.6192838049612808,0.8457573745598048,-0.4535135151442715,0.10405913235649411,-0.41452823937768946,-0.025608924401111954,-0.28389056866933515,-0.013055171215897277,-0.43952687862496953,0.9500927248476976,0.5068153897467951,0.11569077431914021,-0.012305408138594043,-0.8811484052582368,-0.7933214861405946,0.9030593675581564,0.29037093670815106,0.9152693233394535,-0.8480945606515793,-0.6117349482136483,-0.7158533752574823,0.16786112969498057,-0.1560289730430775,0.9754267496873525,0.5786055930471858,-0.4794654444314439,0.1474874291409698,0.6597385947867815,-0.86685792279769,0.45968741074252595,0.9082064374200713,-0.41456259827446806,0.2803133049389399,-0.8687027892000896,0.01337693935103057,-0.948744493115256,-0.2249695309127966,-0.573852354002812,-0.06521115907740538,-0.6785224783420802,-0.6474808577681928,-0.8886054383854729,0.27492387996214696,0.515564295417664,0.466517408468907,-0.21592458565086248,0.9322776524211456,-0.7162657341146748,0.20132894328197648,0.3352151558050911,0.7133537956755232,0.3426212704140974,0.40784758089771644,0.8428632265498328,0.0860846833757356,-0.07888191037409142,0.665019918239173,-0.6066220011765677,0.8724312014657387,0.3611179576392518,-0.12214108837684545,0.3396488349191884,0.7029422889471248,0.6038321678378871,0.14659832465568035,-0.7220601756155911,0.32281326037693114,0.6436845261194861,0.3869147777080233,-0.8270707232485759,-0.05232519455174356,0.1259999806993961,0.4999023355605605,-0.419262676274901,-0.5588490479066248,0.21154132838174777,-0.47830309254051273,0.5880465719769967,0.27281742396365605,0.647574749977853,0.8579848446200198,-0.6503324154145607,0.5395759490604031,0.710567716472811,0.501646876589458,-0.2815415755970374,0.13346896060258961,-0.31378648080072535,-0.2943267074412872,-0.42382512311038556,-0.9758259233222901,0.27484636426070086,-0.8373530146928394,0.16371065913520222,-0.8022772721511429,0.49319402943398916,0.5119823134997581,-0.2722692413466734,0.8227994790008384,-0.8827922125123779,0.6525234226287546,0.20126052088126545,0.32560355273109165,-0.6761611552696696,0.5447322456382564,0.24393958058821852,-0.6893273228868995,0.2554669072842348,0.7714953324252738,-0.4546057024879355,-0.5518124058397877,-0.5302626628630498,-0.48625607990193487,-0.7371727117201048,0.8519267463268965,-0.2321230561540777,-0.9022819054770754,0.9904428565465861,-0.5823772049277163,0.1661880038341581,0.8914008042624872,0.5869823468821662,-0.3499668163135443,0.055466048955529645,-0.1104604953960171,0.7041062716904314,0.21811281324414522,0.8866693036351512,-0.8804522993032493,0.6136354495873824,0.16984113972048087,-0.5888886784736698,0.38550287377948367,-0.2246773840380103,0.5064602248572105,0.007085733111509507,-0.8801653757090009,-0.6401398062318,0.9461367504007325,-0.6003511347690429,0.20749950690706842,0.4356739670218339,-0.4847810747228751,0.7363235990654167,-0.5264130257374671,0.5453107536146882,-0.5814028352118841,-0.504813308069068,0.8484641788110654,-0.31634787573255196,0.7756552466232336,0.7615174259139947,0.7518799197904784,0.22532620861584496,-0.4333365670908258,-0.5238034097445827,-0.2055686642056307,-0.5551633750853662,-0.9078852117829583,0.6173522668728473,0.569995776682112,-0.07247916527688303,0.8256570014266098,-0.1408329217151647,-0.6584662387315336,-0.15484363683198743,-0.8114102293959315,-0.24928410929896794,-0.11163810668301899,-0.840509375905627,0.3462074947880571,-0.6369439237977539,-0.06198597286643359,0.952226343655536,-0.9448731585286987,0.1544546336825967,-0.8711636944897312,-0.6991988580217918,0.895644850351786,-0.4643498735950853,-0.44690169257979817,-0.6050355964091154,0.7436502567401546,0.7666541586307509,-0.36372245356747146,0.8040830258677414,-0.833911926058893,-0.8531683152150293,-0.5333587231893469,0.5391219309715178,0.5124532868899809,0.9713499101915395,0.9651143053913465,-0.5965301369335148,0.2835865985604662,-0.01290383536297357,0.9370020797026277,0.8139905771569431,0.2986874668587911,-0.7795207523280199,-0.9981879702112584,-0.7762542299756396,0.9823588941860273,0.6216295876269584,0.37156261886453334,-0.2703379133214703,0.662824633997265,0.40136325581288923,-0.6419605535013588,0.1279523598885015,-0.9535064246147529,0.03871271372956997,-0.7515560446792413,0.6880311896036397,0.3496190810714701,0.8599576944610485,-0.6422086091396073,0.5350993784532896,-0.9863207657141193,-0.15792361492005225,0.3278322022885183,0.6678782681792925,-0.3498646275820323,-0.9670614161826805,-0.5592404070385268,-0.4200848426920736,0.9490479011198596,-0.46408483407587187,0.4097775643365227,-0.47237295083104924,-0.7582493273058288,-0.35276702534124404,-0.9363808592663645,0.5133876556596839,0.8751383261195589,-0.5446213138032241,0.8456515531245519,0.06454538414054367,-0.6797969067219807,-0.6745816320855973,-0.4868655210639272,-0.9849784197799512,-0.9510990430837616,0.5079845571587944,0.3864389689725114,0.37516485321403104,0.8804746937556867,0.4733968513958198,0.9917268860861477,0.0879020183891599,0.2993256186868325,0.600731781225057,-0.15240501915478122,0.8392638964318724,0.35631496857398615,0.6873178165791693,0.6703055904828661,-0.488134813446617,-0.4620772771032624,-0.7298908047791299,0.1675802371598929,-0.5156423593587329,0.7305423361142034,-0.366564361078362,0.9387199760508749,-0.8337555197658502,-0.5023020817447439,-0.9356608886086308,0.17299763690286252,-0.6963091770186645,0.4831523405869096,0.1285791002916581,-0.25949373018049027,0.016731229907759104,-0.4182916788212956,-0.9889592794817843,0.30482133688074176,-0.80114099518491,0.8463356748232131,0.4596114381986929,-0.8003247316059525,0.0686750343699285,-0.06236148462219937,-0.6234629331923356,-0.5634214351421512,-0.5614659979197281,-0.9469160438093795,-0.1520142047565023,-0.17242780461703133,0.031603359329120506,-0.21696643616717615,-0.4949968016729056,-0.7275566441343517,0.6835606503899925,0.39545038073051186,0.39359742265704245,0.8886692158695502,0.2638194053406018,-0.17865178052281383,0.47648695747040004,-0.5106939456283919,-0.951548524808574,0.4902681062545693,0.26442041894905133,0.08924232247674424,-0.13484871719013225,0.25308747144654586,-0.9097437270545616,0.8614040324068022,-0.3810204352985169,-0.7959973374501315,0.8005037193013174,-0.4741207131601477,-0.7689560454576085,0.23060795139661838,-0.016863600766932052,0.5493647544489659,-0.8051227543074084,0.8356320492908003,-0.07505015321518482,0.4335334402511739,-0.6594759114141904]
1bias: [-0.45732184839359835,0.3642340609824195,-0.4430500203508121,-0.7430138347664961,-0.8543093958084094,-0.30416629778382775,0.38442857017282206,-0.24698616185256728,0.13164665279503862,0.9756355683806031,-0.45142297515810936,0.9016175638179997,0.029924967062317398,-0.37687745177699883,0.11371458049043359,0.6185534149255976,-0.16755732063277362,0.5633104655203833,-0.6777050596126897,0.14421698264779415,0.8316946298628618,0.31731936920238835,0.6058744202164366,0.29034503906789055,0.514699685381546,0.48513322929593894,0.3408748312845198,0.6470741569572089,-0.1399546706598347,-0.603712051152052,0.4082261041584594,-0.6491088600008021,-0.8853984079383512,0.0913756535003245,-0.9818860073711788,0.7071959040729827,0.6240647640361756,-0.5330933901561976,-0.7999199147497242,-0.9234035219950565,0.2541053694937385,-0.5218165480041188,-0.3208761112995855,-0.003786640451524992,0.5416342974886947,0.833648554314552,-0.7446430263779464,0.028214675376625253,-0.8208932103814508,-0.7450317036108891,-0.2516645435808311,-0.2471684620505512,-0.8388883544473789,-0.041507293593795236,-0.7671579315975947,-0.5343468544619923,-0.42270080418238276]
1weights: [-0.4653549149887106,-0.3226463007713267,-0.1546810122422324,-0.15338773499333258,0.15784185597681133,-0.3107338476123729,-0.5255315687567357,-0.010894693144968048,0.8596164990763095,-0.0053214009652389205,0.8685271853331291,0.18562051649623745,-0.4111663580022036,0.7847687371536358,-0.5033279554121028,0.6304060592499259,-0.27574645547212073,0.32519487902094,0.3516304640460348,0.7776003286692086,0.6118908744917879,0.5898314209132081,-0.5953289080937227,-0.7826859906065793,0.2811518519775025,0.2618538566157349,0.709139073142699,0.11386831421917143,-0.9789388194340103,-0.8852073605004032,0.9151212964554907,-0.918450557954438,0.8342793456926783,-0.4348546394866246,0.1426732683029499,0.24915402907458173,-0.5248946800494207,0.9691382753751574,-0.052931880184514446,0.3988533093116957,-0.4666290725941753,-0.24506976106489198,-0.9623029233970444,0.3523789865535285,-0.019251645080276436,-0.29087590601400537,0.1069287191018855,-0.7558268500129917,-0.3921587870228478,-0.5284870340661756,0.14916223613354673,-0.06219802968696597,0.7739144089523509,0.6131666930750448,-0.7257732775910393,0.9339314078674061,-0.20907443919184798,0.675737281498886,-0.675256727476232,0.7991611720639051,-0.3464219801633097,-0.6214067584500511,0.7363878785473106,-0.07207630022950728,0.7281409909168746,-0.3078290129548116,0.3371723925815342,-0.05137310809046025,-0.8393336216300895,-0.6538184537342782,-0.11454243532390218,0.14379290765665798,0.3269212971866726,-0.03943693842374674,0.012863377415120558,-0.22564451723509227,0.7477194856143208,0.744538003488127,-0.3080072256012847,-0.1546009293801789,0.8708928046966222,-0.003372214468832846,0.6240482226100097,0.02574815222675486,0.7956475743723663,-0.45284178496478256,-0.056624579733479896,0.322574828753037,0.5482530562674603,-0.8144758522259161,0.20042062600821087,0.5210428982811253,0.6137137615446229,0.7703016158532934,0.7115419529170013,-0.6095745185480292,-0.9137213004692246,-0.25396994075718693,-0.9464329151754771,-0.11292265811339286,-0.9776546415929954,0.007112484828799115,-0.26705565463295655,0.9854307176836683,-0.6374816586312013,0.5590963883882738,0.8737857860915417,0.1036239645372945,-0.8647138659459992,-0.3077605424930643,-0.853944945197932,0.6161606314927313,-0.43701760466763506,0.7435936943098835,0.09460574258671461,0.11571995521037914,0.16140169545124716,0.9476688009425276,-0.4682716269638354,0.9264185242582927,0.9576421339091117,-0.6379364723364214,-0.2796813363523538,-0.37848538652093966,-0.45354915955527053,-0.5967168531319356,-0.29826908790555295,0.12862297286345403,0.8635514166621268,0.1392873093579876,0.3118359385231555,0.8980882943796924,-0.7248647293126551,0.15914333815086024,-0.8192467066339628,0.5652414119708391,0.8659024567449272,0.4411306050371284,-0.6738166442232647,0.5548419186986755,0.6537399396848322,-0.4776929495193427,0.8272158910870404,-0.8439114410678858,0.7847054267510267,-0.6560443697727592,0.5049459512910797,-0.2608432624716235,0.874746279123126,-0.34900437649459604,-0.4618189884737003,-0.010699128457315465,0.03576901644223729,0.3349746051555942,-0.49302437670851185,-0.6978628605471788,-0.15661664179734425,0.7389220331996338,-0.5163158648841242,-0.1861992006969091,0.22119907223197655,0.2637556018289329,0.4806739814426184,0.6102945789221044,-0.2990844504333794,-0.12740720431115582,0.8157963197769782,-0.3089375196656863,-0.08844604409422474,-0.8097054469902116,0.7711627555120153,-0.23533286145800325,-0.2882774182897261,0.19439567633185728,-0.7022690559737441,0.5639920932655447,-0.7018571664759545,-0.14509504598185785,-0.5423454862230555,0.4741396359815577,-0.7337333507477641,0.504286187999659,0.7983063367702095,-0.9992657072757847,-0.47912479089547144,0.2052586287763889,-0.2853080307151752,-0.6408094118298189,-0.3089987346024876,-0.0671147559089853,-0.9029219464820759,-0.12878139170090575,-0.284378891297163,-0.6101875943437998,-0.8959231037788888,-0.5745360964244195,0.5642289339221733,0.818800428682718,-0.054547937202185315,-0.7857428090972376,-0.4300675272053467,0.8629502509399416,0.7582757335124068,-0.023972861677436397,-0.6860189949463207,-0.5770167357440692,-0.6559688858297095,0.5054603409413359,-0.9503049042369625,-0.04309589612346221,0.20815665678022044,0.7164454802495617,-0.28821443304735905,0.612935311925503,0.37693295995556086,0.41660852228442136,0.5465955121177222,-0.20274787455575116,0.9928284877057156,0.8824385194812301,-0.9215963244150944,0.7687860049065769,-0.137885665309184,-0.6741859218928901,0.8371433378514126,0.5880069029852804,-0.01858093318139198,0.39793289935167286,0.4935938844406964,0.7095797093630545,-0.25985629214208017,-0.9995824516766676,-0.16869494660595152,-0.6563114447796501,0.19059727723676345,0.5713225184519533,-0.23445925794068367,0.27601016210656915,0.6696051009784347,0.04629863976398796,-0.9548533625923057,0.7816445716298228,0.9947953828057152,0.3377497203631581,-0.06700254035345776,0.030038431062474613,0.9607233882230659,-0.08388418094847516,0.8157862194076042,0.9105801217740628,-0.07555612797892142,0.5552191865521583,0.762242025042362,-0.6234166363534466,0.8970979832751576,-0.8520939769348705,-0.17103135729342545,0.016705150870401475,0.7475316622185213,-0.6376426717586001,0.8228485097538314,0.23667118662080044,0.8759174708571409,-0.5999324723609247,-0.9704256567302441,0.17051105175746928,-0.9701961892892159,0.10562989110767296,0.6988961864777834,-0.6650489282277956,0.8119687191327121,0.7727650960592611,0.4853758515873545,-0.8630099426271338,0.8689096618622165,-0.15617016153570962,0.014143482146210307,0.7063592157274929,0.7507520198925024,0.9413434899853872,0.27435335457691545,0.16503419055657242,0.9978136512861295,0.9376484204967193,-0.361259399478846,0.7391427730544926,-0.8639845499906893,-0.9011024339963685,0.9658824309075211,0.8883512093829802,0.95278087659156,0.7321417187235177,-0.5375293569916415,0.5111956095229815,-0.3229794773886965,-0.7806338631969756,-0.23389333664369838,-0.32786259986513233,0.5012511906843566,0.839905081514299,0.05483135388008109,0.7811727015029908,0.26085188932557535,-0.6372597566822291,0.8978069153862414,-0.9640603580408671,0.024912481636544248,0.03276808256328123,-0.967729631393895,-0.6227907081943376,-0.14491673365139635,-0.7198019288719775,-0.7149194432990316,0.7878999890182312,0.05328768489041802,-0.7501771795184999,-0.5471137744061916,-0.6854182854369781,-0.15388719236800763,-0.9230207713006664,-0.8868577091449434,0.8017663229012577,0.6431460875031993,-0.2704028963785263,0.05890779651891043,-0.9968930311279807,0.7584791293645534,0.1908106952591082,-0.6664399068070539,0.46995840963147906,-0.20094705134194002,-0.22581372292944768,-0.3127358279696688,0.41657810561279196,0.053164755319963675,0.44369705158214057,0.6852378078868857,-0.37742407066482087,0.6303689647228272,0.15315507201397072,0.6685583285630405,-0.6429515886203516,-0.8186501994131803,-0.5751125048013455,-0.6985425495889961,-0.7048381612353707,-0.5599873952956278,0.655022891677125,0.5347563299202716,0.44677657625113687,-0.3545262743808022,0.9628320893841722,0.4732937029950677,-0.7719672644137994,-0.559702306253814,0.7941441971701579,-0.14409495336773404,-0.019354215365789074,0.16867674114763376,-0.05606029725886996,0.6397127702265244,-0.5200107282979509,-0.7088416682560097,0.18079709451998727,0.5261904596773079,0.2718685433798296,-0.737826005997883,-0.764049508937072,0.17466839526877376,0.03921913388257403,0.156074493302361,0.562292486567439,-0.6803506323405539,-0.37620953047293426,-0.17066951461588942,0.9737346183311086,0.041507546590969335,0.8142043723793815,-0.5289900360264579,0.04291625026468582,0.03584708556929961,0.5606050753904772,0.02059786960421839,0.9653308284955711,-0.11500194586334334,0.8874467729876896,0.12167564607703873,0.4905165497309154,0.0558333432747391,-0.5502078972044382,-0.968067703797,-0.52396377783819,-0.3687092802722902,0.41482265089654957,0.22443058939574634,-0.3624501964161262,0.19832151604225512,-0.8509077660614064,-0.7079933769485511,0.14836083493392538,-0.833871268026166,-0.9466199087564289,-0.7938670395166634,-0.11560352186795142,0.7089753177939822,0.8108302389373412,0.9835286963505132,-0.6843415539568032,-0.8383834024402856,-0.699608629281808,0.3782540360355573,0.3127604782648832,0.6654016103950735,-0.5236008061661264,-0.6560213176005305,0.4672470202958712,0.6218609870464018,-0.37352774107316633,0.7005672701473917,0.9169636205501697,0.6810174693222804,0.5937186188774919,-0.6240778185499445,-0.8771691770824284,-0.7822037415980179,0.7855816938232068,0.9297247907518382,0.5609482898237566,-0.8347511082070336,-0.9095215891102242,-0.38169758903457884,-0.12596338804982832,0.9815070712992793,-0.8152863359724445,-0.6472767048927466,0.12208015781344894,0.9980861131413163,-0.8640182675358328,0.3057502948034203,-0.1491231134483011,0.4303605126689307,-0.3039062954466609,0.7677503655457236,0.13790036919563708,-0.07326199994953919,-0.7756013427037265,-0.6083181420776866,-0.6290479256855273,0.6912603998653282,0.7946932245731306,-0.993814575288535,-0.38654605262440467,-0.06493563495097332,-0.2877560718875911,0.3500381630965139,-0.883605030525701,-0.30466398197901357,-0.5961265968100224,-0.4730337545238761,-0.7606086174175339,-0.07158740655144302,0.4428903731728142,-0.18074521869854143,0.9860379539467363,-0.9866220271520039,-0.668028441078381,0.44273472897923005,-0.4518408795708606,0.3979775967853225,0.5909312633112718,0.8276819061156617,0.7116103460029517,0.4023336091772185,-0.31735736216536337,0.5746135224904967,0.34250203995912676,-0.14642251333985246,-0.64079635277413,0.3609231967226927,-0.055879487933897964,-0.3668253980119278,0.12176739983258855,-0.23625315390194923,-0.030121795686419484,0.06419104279391896,0.6612854850466405,0.21640616301953686,0.21416891144961392,-0.3295509340885603,0.38374142325016125,-0.24245449660531682,-0.6336242268568053,-0.7924641383329301,-0.5777213672040153,0.5904964667535433,0.03307953355557025,-0.22616952296583848,-0.10004425270183215,-0.33341093340177363,-0.6072971972683059,-0.7195800095460474,-0.3693092489126526,0.3434688776886221,-0.017215533113331016,-0.408023338041523,-0.06771733843618266,0.5181455789072722,-0.5023064378722215,-0.7536274248579717,0.774228265183867,0.38764682658921523,-0.8345670766058852,0.5638281821246307,-0.9056208540576987,0.17454999349359746,0.13425241614888317,-0.28144722270119926,-0.20768719098747357,-0.855976363250591,-0.42981195820812235,-0.5160650863146725,-0.35638048184799653,-0.44718842087533717,0.07369926816470151,-0.5017502288696887,0.1781340104124276,-0.4873224006268624,0.13523365838454948,0.4432962274347936,-0.6501654909077037,0.8821419649109996,-0.48447711680182937,0.7892858054605629,0.36305067768369237,-0.6977064576008369,-0.5772665896578553,0.14740510967248754,0.8601249907705912,0.05691387779902102,0.3918307481217185,0.6506447169757559,0.016153468233025325,-0.43589656939418475,-0.4297207419100748,0.25043129779279294,-0.8393845648746963,-0.003946621486964785,0.420921001300933,0.8135714227063886,-0.6081992731465893,-0.2244417557421743,0.7766415259952952,-0.865318049346804,-0.0917155681098869,-0.48768022558932356,0.4646639313578056,-0.7343442792506027,-0.6420591126416311,-0.6809561917593134,0.07963364086800095,0.9193775707895622,-0.29072051884317074,-0.6132143981995817,-0.3454220035436413,-0.04812194088095367,-0.6153362527643769,-0.7990468085261002,0.6839030565080702,0.02423714917678832,-0.12389973572342261,-0.15617062425637074,-0.2798310498543082,0.38326457302381756,0.09938022039304317,0.456428154833453,0.5964618567421147,0.8581854671132227,0.4698048219330462,0.12195357439563459,-0.7812400287576746,-0.10873682923530392,-0.3793177941332948,0.18508159682263337,-0.17223104268389733,0.7034951992346086,0.21080914313764998,-0.6642598166207832,0.6472791730078182,0.2966705625735542,-0.8283697732766595,0.6630143245877025,-0.08382327146702795,0.36567569425350044,0.4330515467035734,0.3242567887856622,0.44381789838059893,-0.7097416504020677,0.23734580424680085,-0.5235615875580697,0.0335539441020305,0.24140081789258394,-0.8630880328344441,0.6812248141398851,0.38677235120418363,0.6888759490076175,-0.17951734845348022,-0.8777810891274158,0.429898578443088,-0.6990658590732319,0.023698946544686184,-0.33773667794158846,-0.600620011643715,-0.018432908657578295,0.9538017306393325,-0.9793523863929909,0.47475192577859393,-0.723075326134369,-0.10548402148251967,0.1645206464890101,-0.7325353020640586,0.8917880545630725,0.956032601870983,-0.6142396672119923,-0.9467728390746275,0.2606187999026204,0.2963209153593478,-0.5259942585588528,0.27820196489575366,0.9325750574343565,-0.4361667848492119,0.8985110471079507,-0.4255354547238728,-0.8549328888064616,-0.20201040751660226,0.9759325998808215,-0.7122828596944741,-0.4438719343810511,-0.42733877620450245,-0.25802898985186173,0.35032605515559934,0.2640795089935213,-0.22080278296808364,-0.4766101477836273,0.7532001791666991,0.963672905534535,-0.8806316106894707,-0.8531294421363265,-0.3978584384642543,0.37109353874064155,-0.8850702964784072,-0.3403521599336241,-0.4577459430423043,-0.10408591961447233,-0.7606684993686705,0.28378267314846695,-0.5794221423451644,-0.05370995172846893,-0.3615630616221037,0.3894160346954356,0.3407986505926679,-0.7756086541176439,0.8309318678913533,-0.5377177536170783,0.9656343393069258,-0.09773179777283492,0.7654414527607074,0.6943632299194435,-0.4057052452787695,0.6640516204957623,-0.33980421394070315,-0.9326275406956461,-0.2554685475976388,-0.7414071829704727,0.16241432160383273,0.4882127381161805,-0.2417019960714033,0.4273492430556005,0.5384088778782605,-0.21249677039870218,-0.4295979997544217,-0.02610932231249463,-0.15826937911890804,0.2067254214741805,-0.20700271808006576,0.14018762775653304,0.30551642832741344,-0.6235096431869969,-0.2711381678048874,0.6772559563764713,-0.4334822935657532,0.7278828616215445,0.0925191035436721,-0.15998653326503298,-0.24787781209483328,0.7807909497978256,-0.3570130764616952,-0.3748634253522576,-0.05199184536286272,-0.18241684295908933,-0.46378519812964325,0.37637723063420325,-0.8871013638770693,0.0774477332101342,0.6144112772179469,0.919842813158591,0.11821022589994246,-0.20383776744244186,0.7673188623829332,-0.9657280929163161,0.2642208099794392,-0.8319849833101236,-0.41385160577788294,0.37697565130372257,-0.9511967957623255,-0.37894772886166006,0.47856439245578763,0.7005624311082876,-0.7411640711545091,0.6737785218730701,0.7378383487971907,0.1693942965494435,0.5824034031770946,-0.9191089983453895,0.7125698779395448,-0.6061813734379315,-0.6696179022791728,0.9775815678053028,-0.45992680862046864,-0.8963770540492639,0.009015514692158666,-0.7036068898798649,-0.31519162391535027,-0.5221362003219991,-0.999432141642999,-0.14242978780214077,-0.902036362896727,-0.19357660284803924,-0.01285657404029239,0.22329722493508464,-0.8630272547222364,0.3793517293223243,0.4218256168882131,-0.3418299869786723,0.5975682873105261,0.2832535166798815,0.27571207879977044,0.35270044400167877,-0.2714516858562599,-0.8703155814375358,0.49879148108207927,-0.556393454059684,-0.32048694920818965,-0.3512776396492041,-0.11108151521550313,0.30409306448103757,0.47440642657444365,-0.44841660315939036,0.5476399653859241,0.07928238678760402,0.30877436874230546,0.7027382390407779,0.6183277211449927,0.5064060642020918,0.7362310848010367,-0.5893735841787207,0.2474402516556633,0.6863232459243298,0.1397020353187537,-0.30101776920709145,0.8824242086426681,-0.33761646644388454,-0.22440937794628013,-0.6479370906497548,-0.8525781576049769,0.5384584310074674,0.6340935043628035,-0.9529438631046903,-0.9893906523103368,-0.8084065735484063,-0.6235320170687784,-0.056780073517305185,-0.7681129702508216,-0.020423833830170546,-0.3098673170069064,-0.5997750084861928,-0.1686512755796159,-0.6526123778310642,-0.4549389487143016,-0.3581883453017414,-0.4457722012367431,-0.09181634631042335,-0.9599947930600037,0.3174584911936227,-0.7956995267972027,-0.9371672605834069,-0.2053339475976197,-0.9895354448148279,-0.0533554967562504,0.9392216101206676,-0.8259967867735187,-0.6009515979824243,0.5668676214759212,-0.16243407138002963,-0.9765431449123854,0.9977710335961005,0.027838266322308014,0.5234085386263865,-0.9510681714135658,-0.8102061998641361,0.81123345488578,-0.5274158675226046,-0.14261425545562334,-0.3938164063479086,-0.858510662848218,-0.1314903038590689,0.33862983788092804,0.8166828051537864,-0.7378630141083142,-0.41500285986711694,0.9151209375913241,-0.23293729007843278,-0.641665642129331,0.05977110067548619,0.4844170936304919,-0.10731247648031772,0.20573421726640473,-0.02297670965746823,-0.8444726214563512,-0.25680976695962565,0.17465436993447359,-0.867998813540926,-0.6967186753610346,-0.9721390392262539,-0.17015340103620624,-0.28852369653485477,0.5610123693086118,-0.12093868961994225,0.03998691628149986,-0.35730283783676575,0.41161662170492486,0.7054185704216038,-0.7526604571324289,-0.21946679469854313,-0.5809599505862031,0.019266799343150787,0.3468739045188074,-0.27212799941656773,-0.7776739949234717,0.9475001164045276,-0.5145570823480206,-0.3544536374158953,0.556931551548902,0.41527958842632784,0.015458274671462213,0.870526673180646,-0.2268988287903706,0.9865411845344367,0.8238269733541235,-0.7913816930930972,-0.4113371113270703,-0.5590438971243705,0.1743852064335687,-0.6903605229264025,-0.8563089364742118,0.825196717272143,-0.6357548738495822,0.911251665136269,-0.06698993583282742,-0.06293354522190797,-0.009683704503142154,-0.8548046174622665,0.7199725286428016,-0.01574756210198114,0.2145570082334436,-0.8446130311669287,-0.2866545739470394,0.5051655127917909,-0.4796184347052952,-0.3758708592798601,0.06263483688483173,-0.45246658705285014,-0.8300563247823529,0.742140288198718,0.08279947782091468,0.5711169655506416,-0.6821388494869309,0.6600616480820829,0.7024999259843869,0.5741221137926673,-0.7258721753727835,0.523554014416723,0.12155754765411664,0.538583503312152,-0.17357019213220903,-0.17895107558753587,-0.8291691412245128,0.4481986735370742,0.8606511641191719,0.9626725123861517,0.876956525618199,0.8527951769833102,-0.5457355905363763,0.7608128271284182,0.8708187710076849,-0.7631845234221613,0.4363427714341115,0.7972556249914708,0.1146730787284056,0.2949085375521605,-0.9586688997805626,0.5387653691457746,-0.6992347575264566,0.6259190601291356,0.35182688144740637,0.5024422724458499,-0.09680428777450145,0.32726937501946995,-0.01597921977440442,-0.22586038226137894,0.5536242181733015,0.5049315097694906,-0.4615101518781688,0.747676874532698,0.6807275056081892,0.8098907210848878,0.37606267604781896,0.8291327812912181,0.5654458379894378,0.7702038067565666,0.2981108176064129,0.5432107349743551,-0.10916204545892771,0.9084598734551501,0.2157120980799847,-0.2807772754361384,0.6306720307904317,0.4176538903241329,0.46593425593330084,0.2714914584794268,0.875835145488433,-0.48581432610494013,-0.43952780865652175,0.9374223824451235,-0.8065755999042081,0.49490181819665313,0.8506741475172188,-0.3485879456695806,0.8849587233191962,-0.004200664047201208,-0.6519158547476338,0.9020323707894806,0.8570601381964187,-0.016785703201788627,0.617023112536158,0.3621143766923558,0.9628551653073267,0.604021112462743,-0.0693241179634323,0.7089563255421167,0.559131007342573,0.17957148593185157,-0.5065206361981329,-0.5724862195569256,0.9818004508920875,0.348805249391154,0.20643580898548874,0.5891737506674397,-0.8935502710539531,-0.35083169529742864,0.18830270264458226,0.21376681058884928,0.35957711872428866,0.6696757694476554,-0.9355613184833902,0.38669704255689497,-0.5914789848180537,0.3186626815240461,0.5112905705366226,-0.39591354501477327,0.5094976704419034,-0.28053445307097236,-0.450679377152696,0.38414226109194916,-0.33285094094993206,-0.21951626505845678,0.28004821990996986,0.45835332856532385,-0.09453338177942205,0.5817710831077814,0.3786148015428412,-0.9644577070650941,0.2800345283016532,-0.6214885212550834,-0.19402360578880207,-0.4325170312131972,0.654114603700753,-0.9853478141016971,-0.054438936196542276,0.4373988147931065,-0.2838268971910767,0.14544164905175094,-0.9557108551328959,-0.4648477607290964,-0.787631824371831,0.6353748964930623,0.440201602908727,-0.14812467828101572,-0.8791315929319199,-0.8378528574735851,0.25627487083684874,0.6922477186217615,0.6113405746389746,-0.41694921052428335,0.22157511331592628,-0.725366473269548,-0.09182833946476032,-0.5906504408930335,-0.6799511585242171,0.19331773672667163,0.6770969415575254,-0.21305436386553023,-0.9261775493962061,0.605520344251147,-0.9014393260314333,0.681911995678961,0.10033808592613269,0.6723513079330938,0.701426291673318,-0.1568548752737502,-0.5209845450031785,0.43853187888854883,-0.3403296792390209,-0.36393256656570494,-0.5783576733852265,-0.8728051643316816,-0.4997205523444781,-0.8610755824887815,-0.4604777274141363,-0.5354892794850563,-0.39211242662730905,-0.46010668598882987,-0.13826111997149315,-0.2720812275658002,-0.4922502909291018,0.22469040525503892,-0.31727885509540177,0.8837452383998323,0.12862327855144318,0.7973460958103444,0.3036254232511697,0.7444470524087046,-0.03742421914011573,-0.7924501255751135,-0.21912469937696089,-0.7973305832129811,-0.5269269985095284,-0.18383196038734506,0.9065302977763676,-0.4868825463856392,-0.38504018444395816,-0.5487579141180117,-0.18101829022082283,0.050347486511939765,-0.11072042545194138,0.28997797343388765,-0.12119752600773537,0.0669960116564714,-0.0034482434903715387,-0.25206091202733716,-0.2565943958469419,0.790002186731551,-0.6546895593620625,-0.5351400900314496,-0.0645058583495286,0.8367254284468131,0.5946857281706419,-0.05280005376521402,0.6241139265357214,-0.12910039561631326,0.3023608920947942,0.460760536401732,0.8234479454073382,-0.23522569450595388,-0.21752420116902438,-0.6376095950375258,-0.620771856350036,-0.6340969899984197,0.2955974723158694,0.21800919662085505,0.7967019052554978,0.38084580547743885,0.49172109755368854,-0.2251191257708096,0.8833508508833978,-0.5463839878756342,-0.41944758253451164,-0.8607277352249803,0.425023787614226,-2.600057187467364E-4,0.3961248098056276,-0.6436646248008502,-0.9734470499893602,-0.4048276901121399,-0.39711720540409057,0.9972546212429163,0.6183883692278171,0.5653222258468902,-0.56705902357881,0.3294038753912387,0.3000435868074369,0.4367499466007132,0.5493061820468024,0.1784608601138955,-0.7497908340745527,0.33800430556394767,0.8974285471815218,-0.31286990461764175,-0.901874257088181,-0.593152660932373,0.737525639505908,-0.16667182071604159,-0.7378622743349874,0.41030046911190765,-0.5572992906153331,0.7913881275852352,-0.447838913045322,0.4299085929952575,-0.8970434562499083,0.3790021735655349,-0.3667572119286848,-0.043478441762598186,-0.5072180331569625,0.17065936744233046,-0.47818448269477765,0.496939899493096,0.5400676649203153,-0.706637948380215,-0.9036180818472312,0.6854689855277987,0.07668628666017363,0.3374631125720451,-0.7828116689630558,0.06602394383914612,0.356148746425349,0.16572403278231573,0.17128863329052835,0.43359155237395397,0.5913277312407197,-0.054246999238889426,0.4901389265110401,0.927419495873131,0.5953176338800046,0.4160085429828131,0.09021186794138614,0.9164676029861285,0.5010769077867534,-0.8914086242593413,0.5221224369556576,0.14025388863351318,-0.5094207987284474,-0.0887889798693724,0.9198485749873588,0.8339245121309586,0.48177529348431647,0.19641498843623917,-0.4153526855058809,-0.17557407434464078,-0.19825178921073205,0.1543718997820276,-0.7724991736873055,0.02410882301013295,-0.9829799019189653,0.9362036606932838,0.7643744135708248,-0.24995134662298457,0.2970491740746335,0.7480641236088035,-0.7908486973511795,0.8618186008149855,0.9545320647853841,-0.8681350533607466,-0.4134652853176961,0.2620558194993823,-0.8637945145624006,-0.673246904902379,-0.7586593869034095,-0.40358863691885705,-0.9695809052940947,0.8261469104222867,-0.0840733418118067,-0.8683623901683604,0.4128301348372021,-0.9716592271884361,-0.4533643428315537,0.8245996739180754,-0.13085266419829322,-0.5313206693461663,0.35755825437195154,-0.42480797832408634,-0.38606905827580107,0.07520699970503353,-0.3312099590173807,0.79344649663899,0.4670332921148077,0.20044434531743827,0.7004942275661037,0.37932872227500414,0.25434224501499125,0.5350605783873086,0.14040972898824466,-0.27112604351215763,-0.33293142064549586,0.7050218292554222,-0.20872896077357295,-0.12796168306509004,0.4438960051956504,-0.1680880757727674,-0.7740641614490089,-0.11500342019122156,-0.36710946012240075,0.8968681991487522,-0.9481563676417788,-0.9523799494061298,-0.5653391658365376,-0.9225189868116128,0.12275735644672947,0.5095928550698821,0.8297104176404879,-0.6830053569601358,-0.7268202795675547,0.9832940892806419,0.37944891607703046,0.7933516963280025,0.5032664147497339,0.6536714154644461,0.5200124402773885,-0.215663449838162,-0.2529702618808898,-0.363875572694049,0.1392399296270339,-0.9058139766568489,0.7806679961921135,0.2471074512868916,-0.7181642377995505,-0.6313012021055944,-0.6304280481315236,-0.39042358358933527,-0.7357258188838076,-0.09768953333865604,-0.018642265338912667,-0.004294509141548719,0.5574517963121612,0.988053829699435,0.8284223405303246,-0.04269395808868448,-0.960312384673184,-0.7360132801163979,0.6066788613469336,0.2731880715918642,0.7402498269989537,0.7945687831357557,-0.5743438197664588,-0.995041820872961,0.773664738351671,0.33767966243169134,0.3668719771093909,-0.12018931518334974,-0.19235717895119708,0.7426353074338159,-0.12556464422732883,-0.6129700988511297,-0.88746536629505,0.124634761876246,-0.8299703596515056,-0.08577700354541884,-0.9921935069255023,0.09841285560148427,0.16611642829851703,-0.011118620394479306,-0.6488938655503615,-0.48792230048743646,0.24886836316285788,0.6970222140946967,0.6080637059981666,-0.15718435915208295,-0.25463909321827405,-0.0020765351966656187,-0.003945272639516384,0.6993483863526662,0.8081301689941605,0.5719113405086598,-0.7872729603387052,0.7217309779928611,0.02122105168016053,0.25057762905887815,0.3401737427900262,0.5772821700015776,0.07542697509309915,-0.48174254374956527,0.0028233598361342427,0.7221413417226945,-0.30687393603586277,-0.42444884258270665,-0.6946978172605147,-0.20573352532245193,-0.8616603599188175,-0.9798726780105298,-0.6134501359695559,-0.7055380152384645,0.5503552852355738,-0.6730036853060606,0.31174214313330917,0.43747428169441527,0.29352846133732924,0.9998983285385832,0.5518905024633864,0.14140697975530592,-0.053845488400493524,-0.4825989146439298,-0.568022577160038,0.3250202456810267,-0.6099405184928919,-0.9882427607207351,0.6274825330485458,0.8936961686870164,0.556527154553365,-0.004476199437904116,0.5865070950016227,-0.7297037501676871,0.751583010754068,-0.6096011804901593,0.7548109766582463,0.4929153918828375,-0.2509306718741713,0.614684301952126,0.03960520108169341,-0.40214482451842537,-0.44286237704688447,0.550237348762173,-0.8911580413543525,-0.3981577728925163,0.8695423235918378,0.836723882001545,0.9528200600707306,0.5557206725475996,0.06643086028801082,-0.8695564572539858,-0.9724969600043953,-0.13744936101140515,0.5543537329653765,-0.2830532451605612,-0.7459747079671493,-0.6637517355868452,-0.6294138371929674,0.18111855476335026,-0.8335606474218242,0.3226058602978139,0.07616114673626884,-0.2846443003250183,0.5798350500554252,0.6127327989781153,0.45177621590565176,-0.9140810011378426,-0.7064588872225004,-0.15033696056130608,-0.6440817777636085,0.2794935727511527,0.5491959025108208,-0.3379241415315388,0.09161096011107772,-0.5835560357826663,0.2310533647058437,0.8547814674074496,-0.8255434222553804,-0.35579555244401906,-0.8740317975802876,0.6438251685098682,0.5110931837772315,-0.5863025585324098,0.4324752361190376,0.14476712881514864,-0.14739812899845983,-0.7373024098755658,0.32830913250497984,0.10589844185538744,0.12495391149355117,0.2919387249203098,0.3463058510092294,-0.7761437901987809,0.2984845140827468,0.03072435332342227,-0.9573301694079579,0.28730460624677034,-0.7068197445035551,0.060232646731227524,-0.3582864119961371,0.8650517262815847,-0.6256211259215994,-0.9003104338369459,-0.7997805753054261,-0.7118258187533137,-0.5474521018166916,-0.9429873310930534,0.02516794487332219,-0.7285737221096684,0.5132667703642013,0.3064942738906715,0.07350860595887387,-0.32258793355423143,0.5109713945585679,-0.10703090843150886,0.4346199753890141,-0.35229722186616486,0.1718345988041381,0.5829384436618674,0.7103211525242692,-0.39171524079852094,-0.11251611843362164,0.9975750605972018,-0.9482209389131782,-0.49757378918026585,-0.31991354262279525,0.9394857421567391,0.9485688998167041,-0.9877454062395254,-0.9193404529477909,-0.5354372625906934,0.49605421971350405,0.5010386656110308,-0.0879176989096968,0.25220720231110527,-0.7880829779116441,-0.058626309526285336,0.14829075823233429,-0.6083379095369494,-0.7714218379950653,0.1901701514247438,-0.6079040693884297,0.829143539485228,-0.7258399813161505,0.6295499238339362,0.981132740477461,0.4099149543667855,0.17412698201448618,-0.5865421869455836,0.05891105432642951,0.7013989007741754,-0.1800466054410914,-0.6570026254726853,0.7535277807953205,-0.4021231987092626,0.06874765840469754,-0.260794084374536,-0.019762825824878538,0.0842787492075805,0.6178381823381776,0.5901838573509983,-0.566277572036259,0.4760186768357584,-0.4590935841666963,-0.279800911847794,0.36722897082805606,-0.04621594440467769,0.8773289384595375,0.7615882733103998,-0.2633109770509052,-0.7233582996417007,0.43396972151541036,-0.6940184366654008,0.5894747244077356,-0.816225544936596,-0.2112588597273457,0.7695795879863894,0.4022648080442235,-0.8153829263567749,-0.6221690190059421,0.2279144727298421,0.09464895985128385,-0.8108872950506731,0.5035702024830968,-0.7708688502194734,0.18142103614549754,-0.25573655341925106,-0.8825048298630478,0.9053841100601114,-0.6746589711151172,-0.4798964667650938,-0.6867650353672874,0.4568799230216891,0.4134741514113829,-0.8723252523481204,-0.3935658455327786,0.23231615287963403,0.20404222608367095,0.35353836481964374,0.2839977636994666,-0.7627499791351398,0.9753241586467483,-0.5401895678132171,-0.627475260869117,-0.7678562111380851,0.4707944643280797,0.32565950655092024,0.10587371999001727,0.4619421135091133,-0.30237110538712897,-0.1043386990960602,0.1643824539286156,0.4820652220460899,-0.9936881008291487,0.4857595370045358,0.4133420209604859,-0.8228879706615115,0.9944359070484983,0.6448026777817282,0.3859031018133645,-0.79152234582258,-0.22661044851373946,0.9818994326803958,-0.6643287798089155,0.7301446830345077,-0.3504298420389824,-0.3613521833517561,-0.6731748204104995,0.9293999691831758,0.5094097367704933,0.9255471699789817,0.534671410655867,0.3791377249357055,0.0821038421918685,0.03571432391879292,0.6971249458953201,-0.05608213867561629,0.8027601269472873,-0.2887005031323877,0.3046424065626987,0.4650072832596739,-0.3899872080359126,-0.7397847401271866,0.4730572303034477,0.533340733344009,0.6859753706348801,0.2477135317567889,-0.72636682106946,-0.7834714972019845,-0.11726539387588208,0.7692884956611985,0.5626540715453128,0.8592575489238743,-0.6215854072889146,-0.9755716069442564,0.619916584488349,-0.2413773029244859,-0.03283100301722697,0.2441757947206864,0.2984940551768409,-0.1503660440877106,0.3112879359289231,0.3614243074852419,-0.5319936025609573,0.3942046669501058,-0.5300669109006102,0.4176210646299172,0.26555457280198835,0.09702178446599574,-0.9321562349349495,-0.6839983154228713,-0.24972520766005246,-0.2700985188956808,0.5786842031875408,-0.8858934431469825,-0.5280405291600982,-0.4330617965827106,-0.6284698715129091,-0.8831547209506867,0.09256798259618049,0.7159563757128957,0.40532245715499715,0.05431954442260478,-0.629565167507022,0.7774789483856837,0.7549415462791436,0.42832712384035676,-0.169698424177245,0.17062920284770966,-0.4861142974448531,-0.47430437256028846,0.7382854056050867,-0.06391539031177174,0.042365062538283205,0.96289885987876,-0.12072925025152936,0.8594068911896011,-0.9840506480200251,-0.29218266113665115,-0.07629628028734459,-0.64622710399957,-0.7212625792571297,0.15145792998720697,0.9356089175849844,-0.3006641596534372,-0.8836563098223793,0.9919009091321604,-0.5337751032837992,0.9571493203331429,-0.7621747416536016,0.44469532187810934,-0.36726588678601035,0.15878862456312914,-0.5150255399082435,0.6083769663016245,0.59913954120171,-0.7814914760772051,0.14244228056143204,0.6907371447556949,-0.0435793552086956,-0.5770218062808945,0.3867447297848712,-0.75907870692952,-0.3583230749220849,0.3243389975247044,-0.27048565908812194,-0.46560704266077324,0.24104732788248762,-0.6044686337428,-0.19516533083725696,-0.17775157187419044,0.788771344297184,0.9025435498173087,-0.707193864801593,0.4617177820310141,0.504834896500933,-0.8935656003936518,0.686077866998337,-0.7930197191619845,0.30622399643651943,0.1286884165175004,0.836121256019134,-0.8135646596357653,-0.6181146233160988,0.5966632225018311,0.4453208103781412,-0.08309722974746059,-0.3609272050296062,-0.4684074894512875,0.9697884949265065,-0.43016907261664383,0.40883543983215054,0.8498108614492386,-0.24086683320173652,-0.34607780452643166,-0.5590174564822812,-0.6814292053532853,-0.42970713308689823,0.7756001230889948,-0.07606310702234276,0.8410240347857709,-0.017503049965514883,0.7760347507179235,-0.1255401972236403,0.8348227217192066,0.6265414131852478,-0.6512084744186655,-0.6636239003123285,-0.7264377934548518,-0.9216873694988805,0.43162093683786296,0.2957650315343816,0.9180206292907878,0.033543143564167544,0.41786125915463135,-0.9763548539571134,-0.9267088817168927,-0.557464583818964,0.5473777312480317,-0.48584726372495846,0.6461850108899541,-0.08029524428813639,-0.2860838950262601,-0.38522224760797186,-0.7885767582964336,-0.49224616502613405,-0.6347989421831712,-0.8364444596975771,-0.9971313277309739,-0.31283512511215683,-0.8259368505901901,0.917261180698717,0.9258179003993354,0.7275605958206159,0.723330956721429,0.16422120488297032,-0.9237477222827728,0.7700141285791287,0.5741785772770911,-0.7545620422532289,-0.08884645174906436,0.2877659811606865,-0.2229283468999741,-0.3997028906687141,0.4346900390519619,-0.5474662283774514,0.13640752940764256,0.40820936437438604,0.5482844610590889,0.537553630054505,0.354399684459749,0.550930703641245,0.058276157584471244,-0.5067785795633848,-0.44329173724650106,0.11385276756749119,0.7430947014834661,0.33957839662566713,-0.3582277888319809,0.08999181446449622,0.3525641563834392,0.6874150027551742,-0.8713968229333233,-0.6876910368374571,0.445161271136554,-0.5943678203845131,0.3954476120033481,-0.18562597906428446,-0.43524756397899655,0.0013276162286719462,-0.7075046553555253,0.3949511130340131,-0.4816348805279904,0.8904015368149079,-0.6263682443079501,0.1551135015644891,0.4226477851108039,0.4103065927559211,-0.09627487970625759,0.023049644575288353,0.3209847432205799,0.16289291890405555,-0.8152383221221593,-0.2672877479760256,-0.6832799552879265,0.5307190360829006,0.0849091622569127,-0.7790612259645688,-0.29608407263266323,0.4188005297415476,-0.7527604074852086,-0.08766722508965041,0.8455599708337893,0.9821409908260075,-0.8123554431271058,-0.28967546836471003,-0.06655413868681825,-0.48337146583135415,0.055929607880551346,-0.98260731638752,-0.6636324836563736,0.7010709500706369,-0.7796133946923982,-0.8587258996687925,-0.327221874204372,0.9203812789948673,-0.5492706539565999,0.07355461283750264,-0.8784199004361739,-0.6417008127064183,-0.011740124425284382,-0.03638365322883286,0.9542908612813195,0.13163275649181672,0.08252986416017083,-0.4090757907480802,0.009563054105624191,0.49342668693258895,0.1057848240962298,-0.21409296208629147,-0.5743828999837866,0.49378896116069493,-0.22812501134616014,0.30790471340537606,0.5736580004113381,0.9109373324543557,0.750298925973528,0.5910524567651068,0.8041389326342532,0.7513549204432128,0.9556340417931026,-0.004932409151947592,0.7759187163488435,-0.8332280991297918,-0.13427011233826192,0.3798966310150438,-0.16332673174525936,-0.7529809482364358,-0.08300058555055312,0.5552111353351024,-0.3717633533560172,0.8216260813743792,-0.9921696886107096,-0.5959580387946766,-0.30151272638020976,0.13936744613505114,0.9941218469669504,0.8801539997936871,0.25037180168262396,0.09378418329060545,0.014743707589557786,-0.538708468707882,-0.13860404307932517,-0.4759592543798217,-0.5373040700972418,-0.48065881913679487,-0.6368639938662746,0.04430202390502247,0.6504375914005571,-0.204049649240722,-0.806909135468244,-0.15885445567444378,-0.7121915071416274,0.4397166845315106,0.972300200214482,-0.07264974096027021,0.2047350324351731,0.39114270586258426,-0.9523026353346113,-0.548266706855185,0.4403617822121002,-0.7058727592087557,-0.17863206281318744,0.8385320492763537,0.07220610694276886,0.5678438131249921,0.41507210606696443,0.7661593978900862,-0.4573709977999094,0.7904345575537013,-0.33543852134243113,-0.7060137200195034,0.06291468922307608,-0.8739745706875874,-0.36525398839005785,0.807134224426558,-0.4464557530864257,-0.8308522973624839,-0.6601667793188746,0.8730898257050494,0.20352241309071606,0.2857282472289713,-0.2065953605483859,0.5902792219912998,0.6431691558641235,0.2973887598207816,0.04165954716471232,0.5575707774778311,0.47406088091152965,0.18587376510966358,0.8384451355121822,0.20500057866543786,-0.971900531536463,0.38700357129130003,0.40500566234304536,0.8998451251737323,-0.5743140530038551,-0.80137236061452,5.853543515959014E-4,0.9784922641752107,0.8866732436312568,0.8446312638265474,0.8757236637630827,-0.346609919924471,-0.5602158455043864,0.7479338468018708,0.5882844524860127,0.6056822299966531,-0.9048363187374544,-0.7384566869443978,0.12344393890579597,0.9979653824341299,0.368333512125794,0.37438746322149297,0.8682225240387118,-0.3720672870313939,0.9649788337005603,0.8441165623620994,0.3202998210929686,0.9924963006730665,0.6170641774842329,-0.6488082434471014,0.602152570931729,0.14330833788299313,-0.8930632633850388,0.741400595152746,-0.5941130526550249,0.3884298607630843,-0.4103241513570395,-0.469209661960144,-0.6895631146201631,0.13122399343718705,-0.12407567916905204,0.43164486545604763,-0.5080451418226293,0.43637758027797036,-0.03451980984219083,0.7646549016875572,0.8325806451548217,-0.7257147319534307,0.2852784273625306,-0.5811556306501522,-0.6060415169481603,-0.18114362023207375,0.7521066259720424,0.5619842883473607,-0.744925096310195,0.660133494407916,0.004125235266188021,-0.4961304884982505,0.3096928352864139,-0.5129260378792919,0.6552451327006052,0.39614233031157164,-0.22313812020030754,0.9645812440041523,-0.8968828815463745,0.9839414338146266,-0.10131391646448606,-0.481359677880844,-0.9947328918934484,-0.23977661896968416,0.5827346545816929,0.46953995087298805,0.7737530953030045,0.839614758072788,0.5921841934372241,0.6768084982742166,-0.9910616637138938,0.955175161525659,0.29498389714992523,0.8864845284173712,0.2986709963725265,-0.8759684522926445,0.9540381107782121,-0.2755934698419664,-0.5596855846020317,-0.26707894689799994,0.0736043079133426,-0.778286861151283,-0.7258011066059411,-0.5233646265607574,-0.5871927932090566,0.20492373927042573,-0.37681493893970175,-0.40258210797152083,-0.06462694167571437,0.7127694020082977,0.5224816841090096,0.8685151730147582,0.18539110432300632,0.775773213210575,0.17581452320877733,0.015015697888323132,-0.6378871885012332,0.13090616581140413,0.8884951286375602,-0.21087796163635475,0.6687119454541632,-0.25752644542466663,0.6048920519035075,0.2919313528207901,0.6117152184596768,-0.6382850072416963,-0.38273949520970074,-0.6210467673217539,0.42629022994745713,-0.21857113601425215,-0.4851615601861654,-0.8742125484938632,-0.6224346490546593,-0.071739687993301,0.506571567065756,-0.48076577265112963,-0.8295633433546521,-0.5158796341366025,-0.1222182247374719,0.34506081253297616,-0.2719917392350404,-0.6604689019904009,0.5305470810510016,-0.9122910800945898,0.09302184987103401,0.8555211558777482,0.30951459348700494,0.8261570139201682,0.9235597830202624,0.6470222885220072,0.12932051366069386,-0.23452819539706327,0.33248719797237714,0.399547582994245,-0.20325522976251742,-0.8739167937786172,0.4603783184336765,-0.9077412417231501,0.8601806426700493,0.8625282285811242,-0.6830010851491006,-0.07564121025216464,-0.17904671585709142,0.30837227318596017,-0.9438075021754062,0.2280740164300712,0.6054740550295115,-0.22435276743726384,0.9975280195428335,-0.29968224024113366,0.3241703127960409,0.988166406536019,-0.31855983607217553,0.39645633976718475,-0.9674163598566954,0.164866363808579,0.8349585374161259,-0.8965743505642081,0.46198342973845397,0.941927796577285,-0.8037535763257864,0.9457748823002403,0.5012940625008033,-0.9434997120111948,-0.1384634739890469,0.3770426783758263,-0.4109107668136025,-0.6153586729788263,-0.4051709872069087,0.07019798150917933,0.11385797711620449,0.5889491340102166,0.8071762415484891,-0.35529274890014984,0.4227018309515762,-0.11025045973774983,-0.30224766160413963,0.654116574385559,-0.8969254168869685,0.43289959442919046,0.4195093801524117,-0.19313348987309786,0.8291297657175132,-0.8194137235963406,-0.5024800781208636,-0.9956152501824671,0.2536936381590347,0.39457980592608677,0.9912619966123233,0.4543302165419798,-0.8211649415546896,0.5801674591048638,0.18735423297393772,-0.1468096346247778,0.5524568718147225,0.7765701863632875,0.12519161486674935,0.43126114316131736,0.7152854623311475,0.15972402580467882,-0.805666945468746,-0.48563196184256774,0.7620899354022448,-0.9341145742301329,-0.48712862694607395,-0.8194862874639026,0.8829137690021032,-0.2504014896094371,-0.33435807385985217,-0.42403311358411844,0.11455675195206383,-0.542860772479248,-0.19138184271377434,-0.4958658903977562,0.05949575111096572,0.726631216346284,-0.1478946632743754,0.01188570414692891,0.8188892101190335,0.2186044167077632,-0.7249603246657497,0.8718337055253804,0.6382595548364889,-0.16415245688179292,-0.09409677741279787,-0.9046116821040029,-0.4210954426363578,0.408981367976075,0.35146772028762396,0.9102488884381563,-0.09496090497476106,0.8042603902744954,0.662784021625356,-0.002689339424736703,-0.18387702564595454,-0.04731339013574232,0.2985368444947121,-0.7942005196542754,0.6557840131617505,0.004598412435928179,-0.520912669907051,-0.8240254249334584,0.7931977007858042,-0.4185251887588213,-0.37977062566861,0.05395804613503574,-0.17371151188945944,0.9267744220816552,0.693889007043073,0.3722116373150728,0.3331706565109487,-0.34979409743019385,0.08369840770152859,-0.7122569362747249,-0.7063989954139618,0.7149047877143955,0.7865804466070627,0.8005344685428222,0.3298654364349687,-0.6654295965192694,0.6571816059130065,0.8182483358009103,0.6519793405052614,0.5276935731454409,0.8001950867915282,-0.5466109560855583,0.7447307571837989,0.21858526072841933,0.18631856922132872,-0.9799793266084773,-0.02054949408630158,-0.020006736238231015,-0.8992055141242266,-0.4197925607606696,0.28544639791217286,0.7796727464723763,0.1291836987138344,-0.4059010381032091,0.9695406113854415,0.020602102016289425,0.043226424150841325,-0.7255626334895842,0.7352184665053583,0.7791345272411234,-0.8296522638420814,0.04152692294285898,-0.984064169410001,0.3233792073140205,0.6135677048082577,-0.49920604319006445,0.212778479296182,-0.9341657567172765,0.03427980998044822,-0.6198482859070205,0.48123724147516467,0.49168381926837124,-0.3814362012046706,-0.6000688969477921,0.8042921589605816,0.80090024672376,-0.6815970743179418,-0.7624785006374657,-0.7314274372396463,-0.5697051231353778,0.49237826076481284,0.33184906432783756,-0.813998538243488,0.6112613465021783,-0.33388454098959697,0.952693909043901,-0.8586239281221479,-0.7901064464468381,-0.709035894360714,-0.7505190300166125,0.509401607227596,0.6798284154899565,0.10009050241128414,-0.18023173152847094,0.736650709961328,-0.5055697520327227,-0.05563009099472804,0.6342842153087134,0.9983716853317894,-0.7198665290253674,0.836166561854885,0.10595394636636835,0.7170237047225347,0.40581155980922445,-0.6627073132530044,0.3758023935449313,0.8688695477524062,-0.23676033493905346,-0.6018587093567409,0.9769871510470496,-0.9930911623529515,0.25998614168034306,-0.7118093699407981,0.003975765589340652,-0.5071104145626857,0.5047341984929692,-0.6462190622675623,-0.03729086390543124,0.5580873867045404,-0.8412716388946693,0.9972677363477638,0.5889218486932144,-0.4980046770210371,0.8196166556848263,-0.5076415362259954,-0.9043821095618645,0.5900209455102363,0.7590399690773288,0.03364318864008431,-0.4529715742344649,-0.9742601592179119,0.35289535560567553,0.45278008682124904,-0.644793949068484,0.7502077179993889,-0.37671942651671064,0.4320175687175054,0.25673927938102414,-0.2397131950020499,-0.046295679384827704,0.8013778383719847,-0.4491028131066592,0.13989565346418686,0.744224047119987,0.9691488310975378,0.866844550371477,-0.9374565378569517,0.5407531151683742,-0.2625031776900075,0.2763935672097364,-0.34953563625836703,0.002854958787745998,-0.8095497726137519,0.2725147239713235,0.765119466165942,0.966922350201417,-0.7501458406525532,0.06824742536229955,0.5557883082333095,0.8167161729696095,-0.7429770259818314,0.6836852733698531,-0.09257694120710735,0.390817000808783,-0.6468189823631618,-0.598531867374803,0.8058942465280012,0.7366211850423778,0.18343559958432665,-0.2118877584026857,-0.9217926168688122,-0.8369095328660556,0.1877780029202747,0.6549785315907883,0.96722495256978,0.24954291867253064,-0.46343647527502063,0.12131610029686901,0.5648799861804683,0.7353512429621405,-0.4490836714851558,0.6797317822851134,0.25482190702045804,0.5454916731749497,0.16579999122378242,-0.34605451348524574,-0.9951131551817207,-0.400534237312995,0.25156483923587514,-0.8976977438452998,-0.39826057630499334,-0.49380463690222953,0.03495202739043446,-0.8543822256734106,-0.26551538833989685,0.7650685013782552,-0.04064041821531417,-0.5041917815132271,-0.7889972967985641,-0.3266067374036803,-0.27386664386993553,0.33071677143205025,0.5302126984821511,0.7830931221395778,0.612156381615901,-0.942341396689125,0.5354224633788218,0.45455727602798035,0.685966815199315,0.04797243112443961,0.938378372066536,0.8231363564315355,-0.10653862252019675,0.9068970939007532,-0.8694216732594042,-0.6761481271748679,-0.21559110359803113,-0.492142370179006,-0.11213308770922659,0.8124675025777932,0.5414556977722245,-0.3326449545852881,-0.6737162811750914,-0.7238539922765668,0.2565088689159374,0.08061514682932747,0.7815891281527241,0.14449601789103128,0.24508474646761602,0.43602670498715645,0.1618448301882136,0.2918894011989748,-0.40258495119902094,-0.5122733208262025,-0.2381201538251465,0.9645092700729803,-0.1796141185020279,-0.21048164100820554,-0.6724890492351407,-0.9293345865931992,-0.5190595734407759,0.23686708984073968,-0.6548417189290754,0.5404938024934551,-0.9744533906342034,-0.04529530867414655,-0.022166671092036516,-0.208766770798966,-0.7279995914870301,0.9825454096908255,0.12116406703177729,-0.2731483723401431,-0.7887951069932182,-0.2226414390771152,0.10103161458412169,-0.8441282187558001,0.714045432514012,0.7970771889811747,-0.28791914210889047,-0.9711751114191385,0.16597181147775264,0.12156693656348239,-0.008297143791541117,-0.5231619159174989,-0.21386940809552546,-0.7683529769692747,0.6868601867431448,0.27544080466711596,0.9378210993651876,-0.1672543847054584,-0.32983710346684814,-0.0724814074464255,0.5269438268384736,-0.4466720516624938,-0.37394207459322093,0.408789720332015,0.5754595698345393,0.8970648813811057,-0.04505377896026341,-0.3372792822832664,-0.4822420527556499,-0.5609628560687834,0.03249592999995898,0.39744866467370454,0.40205629769483564,0.5022741099774657,-0.2866273037200562,-0.7739855744579478,-0.02703406253546259,0.7098517895433885,0.28306155574559533,0.7818628380700283,0.4570626452675888,-0.372489129609445,-0.061592249332403703,0.7351067321329141,0.28150371105948757,0.53126749248531,0.31695710573212077,-0.14050225300804886,0.9264359203520793,0.3105880491840374,0.5971294519779593,0.3698917243184574,0.5009391139814721,0.4622112129150473,-0.7442877605232969,-0.9824257908479219,0.28207526537407146,0.19943609833304632,0.696114065715207,0.7608900136652035,-0.12684734517195162,0.23562199553231267,0.6502713315084179,0.22119890559031985,-0.8526942333826304,-0.4533516602259764,0.5090537125171728,-0.4107429937874758,0.4036539388078002,-0.3465888755418658,0.5504687909182275,-0.8352969554599654,0.6191538622495709,0.19638288458850361,-0.5880828425849194,0.29140488002551845,0.12196011770210391,0.47861523285549223,0.09220428738959163,0.09400138154301407,-0.14965780427915965,-0.823193704632198,-0.7290322783535461,-0.8739481252353782,0.04623541350706151,-0.8152816079759821,0.7976309095577145,0.8077842649647817,0.22870051952658788,-0.4667219893540464,-0.17105027763206837,-0.6384896110430311,-0.5492282022112984,0.104803471506139,-0.7163316050736506,0.8453554133145609,-0.43612499235419433,-0.08918076183869039,-0.9652431501790995,-0.15897291316251372,0.4972013763614127,0.3838049265818364,0.574153995254169,0.36892724415519473,-0.5948750818607058,0.14294739342105256,-0.23810639582539173,-0.31601266999140476,0.9439556314371096,-0.08409175644945721,-0.2890560935988338,-0.2518126598241097,-0.08997742042350287,0.40512711078985175,0.45487802836642666,-0.6192040712075519,0.004284448372944727,-0.64932417339568,-0.14072332084231776,0.3549472016608064,-0.4156306509780183,0.09050475439361749,0.992060015737751,-0.9607521750743975,0.923146758910036,-0.9697476966728871,-0.39728728276174263,-0.4243128161492491,-0.1505143619347391,-0.3913836871384191,0.18067768688433805,-0.9598001786984562,0.3432863389786316,-0.4193866245610849,0.6229606382129764,-0.45019103785390113,-0.1937339064600081,0.7398815053829995,0.5452827790295558,0.8603571641260586,-0.9691957199621994,-0.43749172286197524,-0.5400955007496302,-0.3585912469040575,-0.9545447823530591,-0.321303453424822,0.13902844267455206,0.31998649552222025,-0.8302570636608555,0.5649059527810676,-0.452856755410169,0.2758955866729129,-0.1647961173611776,-0.6020620344945691,0.7152282610923484,0.01336831139773409,0.8215812154657727,0.07076318358624079,0.21835549744910243,-0.7153177436857936,-0.9970926703527905,0.4676900306718039,-0.17689645630258477,0.17980096415204905,0.5431912696944274,-0.6510995287367358,-0.12019773972115488,-0.14048357648189325,0.5386068426054709,-0.03899145118578895,0.29389133752183905,-0.22703099769072632,-0.13849359310362708,0.6418741928961758,-0.9557205013195667,0.80133937749629,0.44897306697633765,0.5795330380178396,0.37146997414719785,-0.013511591805058343,-0.4527243171776365,0.20935522193321177,-0.5781664843743048,0.8944099226061015,0.5232261211571132,0.6317599386723529,-0.3760297758515243,0.9934409147950627,-0.09127917906647642,0.6719901970651316,-0.2374482977576471,0.8197508899979897,-0.14700414864837752,-0.0032099898618467293,-0.03300863871119897,-0.8422898433694042,-0.8663690627972218,-0.7788330901491718,-0.3532592775623067,-0.019684051952415293,0.02924382132808434,-0.29363883892707743,-0.2180346867521985,0.47493202950087365,-0.8404231246681391,0.008514870782032169,0.9178049411416396,-0.8778232663536318,0.523272997168531,-0.7220195873873319,0.7123774971815253,0.5008718202140243,-0.9383954439131446,-0.028243954412112693,0.9531378239940083,-0.7404569966952874,-0.9178105631297409,0.38073200046772326,-0.41684330086502364,-0.47495923572001875,0.6086735305346245,0.16443536329144992,0.4683381496816492,-0.08857140012137044,0.44306140688145357,0.325217750190945,0.38854600615101753,0.615776404430814,-0.9894192275875864,0.6593035013045636,-0.9499358349183995,0.15777484608923986,0.9026689828819279,-0.06548783663499025,-0.20623191113015227,-0.2842868505615517,0.4418730419300767,-0.2250575691266401,0.11283783734033936,0.5228451292217786,-0.43684245005018063,-0.2778387368345785,0.09579667955003113,-0.7727832703777588,-0.41084712237454335,0.338645750554178,-0.5248881884953729,0.1937018262371546,-0.42609355086386436,-0.7831785890855514,0.0885471111716083,0.8354523135726828,0.5432532091757019,-0.13163365910172953,0.24991157056072755,0.5815793783863588,-0.8100735610922674,-0.35771994831643483,0.7777983436975575,0.06845911614791,-0.14689523458169695,0.05654400018353134,-0.9114482680255107,0.7339647390665496,0.9670977400212615,-0.7729720978108248,-0.6088413870027638,0.03684020549345868,-0.9325769348403243,-0.5613745695411583,0.25370723729545963,0.6051989295032991,-0.08543842767055443,-0.6725701484836375,-0.37161187311413024,-0.23169021021613445,0.5794065654536444,-0.37091095997582957,-0.2198418134642739,0.6934111793175728,-0.07542267538874814,-0.4047799233798808,-0.2313379706219476,0.013821644072590678,-0.9066076572839838,0.007787214734092718,-0.7172932035867887,-0.9484013137926492,0.30015807221222546,0.13674199934714304,0.6856132727107027,0.05765534058168642,0.5471838467608825,0.2394184199397309,0.12261963355072925,-0.8193355298197422,0.7007970753248685,-0.14707858058121825,0.68116947550584,-0.6323950890624941,0.7862538936132588,0.5089418003579445,-0.029572637437528027,0.8122256562125405,-0.6734024892406636,-0.8341746524600382,0.5677135876187334,-0.8626402101190573,-0.41558870312771723,-0.1442535540323222,-0.620912501935035,0.08900482468352977,-0.3388820938784398,-0.3084204870403293,0.4247664245690508,-0.31538647077336424,0.06667794222956824,-0.5106119044695816,-0.9165250748293365,0.15061677836208442,0.9758163016153019,0.4362801300097394,0.1441180758015128,-0.560721114570327,0.10954382910102711,0.4697061461892551,-0.4887369316053971,-0.3674365602000349,-0.7615863411090076,-0.6668946979912789,0.08358496050616715,-0.8792338855152706,0.7882195001176315,-0.36586779407611925,-0.9384943586807786,-0.9137510254111059,0.27946442455931697,0.6555248967812484,0.2862742780089831,0.5276884782591043,0.9411978319286076,-0.5984425196850562,-0.6537690402159171,-0.17217144530917872,0.14748775957687887,0.9394215573563944,0.05431861790422987,0.6978067559678942,-0.5775621165231111,-0.3903016408889588,0.09036140486425137,0.2237016801064211,0.8629308983837358,0.5469354890568257,0.3535802592361619,0.6960253070081901,-0.8885164350381394,-0.838485371118936,0.885270629351651,0.9204645310737871,0.857302033087503,0.5048451351993091,0.09851931537821712,0.7882528944708509,-0.7481711151239339,0.2282528790553473,-0.5087089805026384,-0.9728680140597168,0.5957763438932728,0.7502967551473849,-0.978831350108879,0.258939936378227,-0.8121565526982533,-0.46107173947531543,0.8844837822117624,-0.24255683404809147,-0.678981652454814,0.41669494243096983,-0.43047261406086235,0.6301048724257481,-0.9294306540937327,-0.8043014221416238,-0.257015905025332,0.5400622894925511,0.7385321162753411,-0.7074331864483661,0.7806858525732543,-0.4603372115092943,-0.10733343313971622,0.6474244827391349,-0.4317657004000195,-0.8955125397788948,-0.036147403863618255,0.08621236712431424,-0.42600518135933796,-0.9631322501102355,-0.6069256755202759,0.5981290835076143,0.13641696615939236,-0.44951974057640554,0.5518902179633807,-0.3710464795432087,-0.5904091109461598,0.07946587649145176,0.9909343766854588,0.14721571374547415,-0.5245992364938226,0.9088279772667336,0.9287411804751691,-0.3502058704974049,0.7575908098704804,-0.6971142112471487,-0.8296333071385691,0.6634789283358482,-0.9374884561511063,-0.7987483934101895,0.04627617990601829,0.2543037824107308,-0.441602428788475,-0.6182647603251883,-0.46486824375736524,0.6325977593191809,-0.5615587947129934,0.5072717170433856,0.5798199209743387,-0.2594623422932736,0.47351985527060747,-0.6960104991425144,0.014259360148755507,0.5703079618054261,-0.06739345395684126,-0.9541549797126985,0.48923413887582035,0.8848050734156245,0.809948647713159,0.2531107810389879,0.31870020510256447,0.9991495842955103,0.6952708084145458,0.7795835205390875,0.263715856160069,0.33009909266722093,0.3338521885715391,-0.20654481447536965,0.9293497466700014,-0.4682181481703198,-0.26825902445568817,-0.4506302086578555,-0.32937524843242505,0.20999982699533737,-0.8515472475821402,0.3042653743974628,-0.31324356861178204,0.4436778429870347,0.13395171599492306,-0.7528202486958426,0.6243136903350026,-0.35913630143669817,-0.85633294092142,-0.10672323722919552,0.5528270318425601,0.6180118068389946,-0.7952494259559681,0.03492613694841262,0.9256353643408102,0.21511179426574056,-0.3912664472651013,0.04775134411924831,-0.38515805158434,0.24555110914269185,0.9577882318285096,-0.8828651052053478,0.40135822586139147,0.1284287235726722,0.21800811765344452,0.7807501853383245,-0.09790819703837461,-0.8376343610241306,-0.324823596667303,-0.9247326221122374,0.9156027813332619,0.40324737356649765,0.33524169970481177,0.5304577357961493,0.7992757665029531,0.2081672164422399,0.7576775228544321,-0.72849986324275,0.8531538443256306,0.5343987258131033,0.081651551941061,0.5703706828584616,0.6301880602159837,-0.5119088379033605,-0.5030140440383961,0.3297754433455442,0.7189658092254725,0.4986721438083288,-0.8869009183485856,0.18816325935399414,-0.5276396808976558,-0.0792669693450807,-0.9688340833163334,0.20193488923104463,0.9357685976855228,-0.9905062629951293,-0.44831334208280427,-0.6089580112186783,-0.21095207934240934,0.9552523567135298,-0.8608931003336071,0.8267482281084741,0.3661267048464534,0.3350217057573932,0.017085686532993583,0.3954021462531636,0.9327966819263795,-0.15964324222955284,0.08245987312066583,0.8896505638116758,-0.8548804182785583,0.30696932508088515,0.2029088626580562,-0.34140160056136004,0.10054870820054784,0.32797786974336507,-0.09722658915180649,0.6909997707193527,0.4168839384343621,0.04460372289738879,-0.05656119624322575,0.7106423694354571,0.8073837312601266,-0.805547256601135,-0.6308570617962392,-0.36933300549085035,-0.7839402314030086,0.046349881947861604,-0.783974578150707,0.5436393225127807,0.7353827425738628,-0.5379779870242851,-0.7283153350211831,-0.9743331180697605,-0.7506675898586721,0.9987524388124727,0.024465027392652106,0.8167764793370331,-0.972073821965185,-0.2965413408688933,-0.743852307009601,-0.19361886232968373,0.34506518818590015,-0.9525262792117841,-0.39132672950624214,-0.3653239682101195,-0.4002607837196126,-0.6873616354314047,-0.10502396472704034,0.9859639570412237,-0.6086648687950966,-0.3368596212864323,0.925964390233941,0.1569244450198175,-0.4670035379264741,0.12386541858699895,0.19013336410485193,-0.40055134008638427,0.08268506388231,0.7348511302920984,0.8492497569749169,0.7965913583540316,0.12979897912579585,-0.7372343691549748,-0.7969969854714227,0.9316612780028588,-0.02348040551878028,0.024158225324506732,-0.9725326411379653,0.2655499160316921,0.6913356607170005,0.6115593612146915,-0.993324401339448,0.6549774753029356,0.41514569340237095,0.61233480467428,0.8535557091329531,-0.7755883523297444,-0.4059582912230357,0.7715265283496546,0.6559370703738898,0.84699422152041,0.4267077123893124,0.47374137532405447,0.48528395955808024,0.7948880125479914,-0.2669331494659264,-0.09452289382712475,-0.6297309854953375,0.687034349347672,0.10376674169226785,0.8081026941793734,0.3642508770570452,0.6923910570620679,-0.0966346369583797,0.3430384195667646,-0.37482535908492975,0.8392965529682113,-0.898600617034218,0.264509132343101,0.17836567581160145,0.2366861786139116,0.18872096682021633,0.33157276337139985,-0.6528579361511111,-0.9695363391418417,0.2821907059019002,0.6899534101858396,0.7131221251228479,-0.0015912848757191345,-0.07098150498544764,0.8155371179099544,0.9075581233952068,0.8295810995269153,0.0927469485119492,0.535216462011223,0.5369798343040006,0.33925757694718883,-0.6639247348076835,-0.37290212580067994,-0.8891154171844418,0.2739015569741099,0.3114238685929993,0.5509141700076201,0.003513715878802115,-0.3963218976788918,0.3283447009334781,-0.029187166196612546,-0.021988590538193797,0.39732755907261685,0.9875833419559918,0.9065179663259033,-0.7458036249411804,-0.7801534664372707,0.6548041319599542,0.5851934113881199,-0.21911237543238493,0.022805536351578004,0.8926907806407673,-0.6348387633100911,0.45147139673063563,-0.5322310045037169,-0.12166003929620794,-0.5360413060117202,-0.758622484115357,0.07058256377889238,0.3035661902123905,0.647044718094341,0.8801871100668803,0.9502575148016283,0.28894240718594966,-0.48020510400744376,0.6860259494597107,0.646039474761217,-0.5618994994091431,-0.3857472803113833,0.6699460506456336,-0.9210579491990063,0.31702211113297496,-0.9265681510442174,-0.4989058855222266,-0.9386278078531485,0.36375071966547456,-0.5902066853020786,0.9750253331951222,-0.8299071086735692,0.517161443953597,0.5508494840997136,0.00657291253362291,-0.7498862088118139,0.6991256186518102,0.18367413876487637,0.5888136178795151,0.6797957121152496,0.6926129734153028,-0.7285731444181189,0.026265244971993118,0.4464272423875886,-0.0710251423074364,0.5388275535106957,0.09017139736854629,0.06456196706006168,-0.7691427071070205,0.7098457236208415,-0.06462194944886779,-0.36301891385431584,-0.34710615819445545,0.3296961699493046,-0.682045239462987,0.6882255790731344,0.2205330901633753,-0.8854381434950527,-0.6301327002039112,-0.7736030483488225,-0.41194294823265487,-0.05370734553393275,-0.23191291676851855,0.4785910029470737,-0.8684837562272429,0.8656559960671413,-0.8767431549590687,0.3918471187400294,-0.35370802387689304,-0.28345481547637075,0.16904809151206623,0.31369663702329076,0.6482087590620758,0.4548771837169199,-0.649584542708874,-0.768682474856416,0.905806582626071,-0.44025813414108983,0.9109072266654281,-0.6044958817716277,0.6671054526517286,-0.5293088186265011,-0.3563567257100426,-0.9478227634866014,0.7978823807915065,-0.4761139107186374,0.097525763497742,0.3688274697561338,-0.8723082643260063,-0.528853866951633,-0.7802994018119036,0.9690381711467295,0.3288461777814764,0.3397756172958921,0.16724055501874036,-0.5566863954690471,0.6482442174097309,0.12736797790384413,0.48765194492951647,-0.7779847984394876,-0.342367972037926,-0.3753822190080962,0.527341539020461,-0.7237126062290589,0.5960912328672816,0.520498639704335,-0.37240370014137225,-0.026536900273181674,0.8492473575180974,-0.13200679510715774,0.14765598396993185,0.8742731763155798,0.6428970475244493,-0.025111345879284874,0.5713193400049086,-0.36838557217956613,-0.8755459954924241,0.8329809617483328,0.5585512967950386,-0.7289941862717491,0.663818708604262,-0.6896425474803729,0.7539753734733297,-0.2124312094702221,0.4259782600492448,-0.49474303598432057,0.19866965310486817,0.23974347976267407,-0.9491529754003039,-0.10366654456355251,0.15831621687410546,0.1423820020725024,-0.37843858901540073,-0.7770212824697524,-0.4422938020820324,-0.202305619767152,0.010644890747823599,0.3906864642068062,-0.8489438379073182,-0.4368680990767082,0.1641636925158958,0.12026885505909535,0.4846050605371519,0.7603705902533056,-0.2984553380880888,-0.4539347956900113,-0.6280724441036012,0.3582529815710316,-0.4199028756669978,0.948449214795531,0.1310581691722259,-0.8963188398142012,-0.7104304991783972,-0.17261488594854013,-0.7814389745157089,0.17833782617226168,-0.7478418918179204,-0.6115402546149467,0.4019001599483927,-0.608423440327865,-0.5348650218684472,0.1974466747346284,-0.8774961920382871,-0.5671800774027009,0.8777972745547551,0.545411604136756,0.4805779567633566,-0.9729420329050553,0.07090954326211185,-0.9690045884181557,0.3116878312303828,-0.4288423869932374,-0.3435692799347896,0.3993752748912658,0.252141230627428,-0.41563728611311457,-0.363456996190735,0.4108705474015446,-0.7453390106256286,0.4356396871599786,-0.6825739478387209,-0.22517712282593028,-0.8572141452050546,-0.019860474859489496,-0.9002374686040506,-0.18177895843812153,0.4818932451314706,0.20985538282519967,-0.4257367870626292,-0.5947314402788675,-0.703309904421682,0.7414252384683397,-0.6997693100277771,-0.4778986654084394,0.9794706896060772,-0.30124262901897336,-0.7963135421156193,-0.09115051726464118,-0.8896054726617908,-0.8717643558124424,0.047376609326298835,0.5770928128615294,-0.14951064427419336,-0.2731616573233797,0.6442601580056675,-0.7872301949542926,-0.9299617085587759,-0.6314164258084876,0.5088939067392253,-0.049069577815478604,0.33072299914862446,-0.3177079841009858,-0.6899227345746577,-0.8400664229429915,-0.22016112292364864,0.899876463456371,-0.8777928092798,-0.33505375174480956,0.6150520385003655,-0.0021806361196683444,-0.8229481057895185,-0.6188175396526008,-0.9743921269923725,0.9215211305796716,-0.33833182313877486,-0.6698566503822176,-0.5935611444700608,0.07589298731610561,-0.6994662358097856,-0.02217148120170287,-0.37682661414377083,-0.12449482573090598,0.2298144326375,-0.038288234607881444,0.6886422369850944,-0.33370791642066466,-0.4304712132437727,0.06385649239195623,-0.5105743255933903,-0.6521616378053028,0.47743755389553955,-0.5452004784910978,-0.8878972396624922,0.2037201754422513,0.8345318758617091,-0.4096842173974049,0.8888940716266069,-0.08640402590570173,-0.8834679887094561,0.604350811004843,-0.028160181996274458,-0.8866814558712581,-0.5874091835158113,0.9907681685163694,-0.5033896879142454,-0.675581389994873,-0.1262497542921699,-0.9481755745516498,-0.7885026259094934,0.5918877527268365,-0.22007026433787513,0.3289405977332498,0.8240901090533241,-0.250732424553622,0.3773635502816646,-0.9583957594827346,0.2575894795405036,0.8726292958133586,-0.8908938111068412,-0.24040330823235045,0.6585962657404625,0.19010633530286047,-0.10557093643158111,-0.6300853311133923,-0.12074127946209479,0.4812207000933053,-0.2913659248659983,-0.345145571318487,0.9255202155326598,0.8303219460828788,-0.12698712426031067,0.4090535241977358,-0.2311402903993649,0.49103585858632237,-0.8146152624396437,-0.30288664661250864,-0.9743791305821077,0.5736977312673599,-0.8772593887983942,-0.4102451036574861,-0.9613195783103017,0.2853234910291562,0.6500791809399813,0.5152868525930354,0.9493359873363918,-0.4682495909312121,-0.5212641661213351,-0.775505860892822,-0.670886261917992,0.8341560345670984,0.15912558091078388,0.2908832771486236,-0.9491013765344827,0.7172440251017318,-0.8049829879864283,-0.9454520570614784,0.7235913595873569,-0.006038425718764007,0.10251862339696771,-0.393480279453845,0.5410148765435361,-0.2983069500826685,0.542774879345683,0.40362175778986753,-0.8344065795686586,0.8374513113396218,0.1899028201294959,-0.8087204977768907,-0.5208921540674403,-0.5053327527767257,-0.4095099147137351,-0.6791430721381613,0.57304544284426,0.521755074011049,-0.6978709754123089,-0.3690694266128747,0.7622984184085393,0.40271080685207616,-0.2807031749194355,0.5960305333522904,-0.6545845578628449,-0.29742288399019645,0.0815997799229844,0.7838096877046561,-0.6634348187421584,-0.8743116666019635,0.07107139375362714,-0.970240071498611,-0.5411759110962815,-0.9978147114446339,-0.25007334418878413,-0.07280799047618958,-0.6846471462744701,0.41250051939317434,-0.720248844449328,0.8415244793078804,0.8444797099491084,-0.4609546909252069,-0.416192257133317,0.33175521526752183,-0.08333769612347353,-0.65984665618421,-0.602655140646905,0.5983175779872978,0.24575122829949447,-0.9730865933531523,0.9964964620410419,0.3753504814716053,-0.33606562421974817,0.5351386842667007,-0.995545391337908,-0.45325929260874287,0.2491909580038283,-0.5488007093669747,-0.9548267137937669,0.6891229432817514,0.796040236217076,0.7071596953164121,-0.8549882318559276,-0.26864744204721935,0.6848206670060422,0.8304120222399682,0.6845335878966072,-0.03120744156171118,0.33169054032298106,0.5695973570936581,0.3532498415724854,0.7820855515220859,-0.9090078765554044,0.07050161462692639,-0.41309644686386604,0.5839092696580419,0.7335762594812174,-0.014224265341957754,0.347041646803109,0.7535420743032026,-0.560863939801785,0.4199086879830183,-0.15080278858690943,-0.3821063462381513,-0.3824468420470284,0.19095972295816144,-0.5459010039735868,0.8989832351918527,0.8137107283312643,-0.4668658441782414,-0.5929734633707222,-0.5283231538510591,0.4521831042825373,0.06936513063761152,0.14363556240138453,0.7618224964284415,0.242663452716948,0.650642624923278,-0.9077478103790495,0.6637509736702347,0.6939439208469393,0.48890781275529127,-0.8669568362189399,0.46743670974452556,0.37371741847422824,-0.0970894237991331,0.8424639020327875,0.24404047061338896,0.3034209426843444,-0.04849542254917649,-0.5599978118087996,-0.40189316958918986,-0.8082040458927517,-0.7535667079556663,0.3181736237385202,-0.53777118797636,0.08779242110488461,-0.6832613115565405,0.9503395873788187,0.5339012744987077,-0.527102729859958,-0.9604984472866773,-0.8110839644942291,0.7998850411840539,-0.18507857832242025,0.7681241796545737,0.5719460244538737,0.6423142066646719,0.16973151680396614,0.765561933222632,-0.03231327421113539,-0.9616833470246904,0.5443666948236996,0.17351696076735368,-0.4549347407858664,0.19947072539154664,-0.424447219399142,0.9119722448333227,0.27856004845589033,-0.5824936941418435,0.12062479608121723,-0.1784901162410295,-0.02073173385264626,-0.5742874706028418,-0.5963373895287072,-0.48803477756524516,-0.8103774079476767,0.810799410998621,-0.7260836037933092,-0.3606176917766941,-0.812575978688636,0.5183756298130444,-0.34859655148644864,-0.642367506330336,-0.18444011139143868,0.5653522048836992,0.27382895387110184,-0.029041521854959562,0.8869803322547174,-0.9354270383133523,0.154778731269138,0.39174179697696476,-0.48979107968455105,-0.6127596403765991,0.5811283185869518,0.6115627066514184,0.8388662746494655,-0.2832054230030432,-0.18181238639890118,0.2861994098985856,-0.5306108909482594,-0.004152381286321338,0.7703442092108359,-0.5097085474022331,0.9943296246998752,-0.48586260643158696,0.5410815225289713,0.714970948540119,0.06432397455854488,-0.5707232958220037,-0.5841048209790198,-0.7381573360156133,0.7200209851091028,0.731977644009062,-0.40530948067853423,-0.6707276047765376,0.7259661313435353,0.9991476181163685,0.9907040378384002,-0.7079782460096424,0.1716379191618338,-0.3571018966341033,-0.5069880743061599,-0.057155797703149824,-0.2994617279540257,-0.41177278260818895,0.07589226313676578,-0.205262983388534,-0.6135594924171603,0.07168250946647259,0.0533745752340995,-0.06487911951658742,-0.5033979228115659,-0.1331340908097136,0.43457857844076453,-0.6217032997064127,-0.8350477761252513,-0.8728098363894241,-0.15810964009963668,-0.0319436109913267,0.34396845900547923,0.5110129660384313,0.9856260762543378,-0.24117985578262324,0.3121574384868566,0.993922753051993,0.6991062389984379,0.9087841992655312,0.4847607961531355,-0.22551394431051008,-0.70785256427384,-0.10142380599659506,0.30850832993117705,-0.8339039299902213,-0.45883103837277606,-0.1871756277371952,0.6169439858441237,-0.0836101081770384,-0.608605958969421,0.3270602733134669,0.9810544652496809,0.0070291901897130415,0.13181470142551843,0.39748441658461875,0.3106319685904795,0.6604686564641844,0.9513603478809505,0.9026236112392623,-0.7549936174637149,-0.9833367359852976,0.02049676357867214,-0.9085682838746854,0.7174859113486081,-0.2585054868877279,0.7587822101688875,-0.22753341690053408,-0.5139534577743303,-0.3099768161006098,0.16934989315870475,-0.6786486771311409,0.393515987370461,0.6715051051079297,-0.43785932719481857,-0.21119115502748076,0.6536995908000931,-0.6505663599821978,0.6725969038322022,-0.3408659461118966,-0.44440143397315146,0.35870168952571135,0.31629519337118106,-0.860951318477845,-0.36392480068184674,0.833302872602776,-0.36116786635919285,-0.7505399448125578,0.5920220042263169,-0.2881787071394313,0.9659785685799089,-0.5522758568651371,0.9862948094690605,-0.5757139346403277,-0.44381760339853127,0.025590844267046498,-0.23833437553498427,0.8627949709269285,-0.14114185691115755,-0.8919115335678873,-0.429083958705317,0.8996414347133788,-0.7883836886158564,-0.27881884799495915,0.6020780529309158,-0.8594956775562357,0.6346239954434965,0.10111222006609033,-0.7893338004089345,-0.9134090554300571,-0.2676698010179839,0.9502831817538027,-0.7330943751397869,0.428449664927254,0.9963824922387763,-0.940275285434752,0.8837981711956813,-0.19450158181021848,0.32333273527175144,0.012843115968942165,0.11275377084409621,-0.960858469373838,0.6468766841154898,-0.16389286696041583,0.5623807611197251,0.5836777368130239,0.2686020914379692,0.9850382322510929,-0.6439768078449222,-0.26197177943071215,-0.9442236656584102,-0.6701500337845585,-0.7481637022042833,-0.6882682212334774,-0.8624579596756197,0.34970770824625697,0.7198957039297915,0.04977228145417656,-0.3139253058420639,0.8347873129178627,0.30403718287068715,-0.9472538986748897,-0.007831406413518538,-0.5727509014095922,0.6918282349476221,-0.520312086710468,-0.8750962121368255,-0.3376798920703492,-0.4257245175860811,9.056435357535086E-5,0.1778824212072958,-0.4367426961410532,0.5975750909348092,0.7945676664043997,0.06408146817902827,0.29904150889743253,0.9812807299079045,-0.27769938727814925,-0.07762870019211299,0.9312302207526149,-0.18794888577610136,0.9158015911192914,-0.4242976524026896,0.8564761614871574,0.6185482419514696,-0.09364974892701627,-0.5795844980872169,0.19379515738286424,0.927348082025788,-0.20267076296195397,0.7192374290438286,-0.9292532616278923,0.753444428780113,-0.2991291701361203,-0.3942444637940261,-0.4697320622499135,0.1982169612430822,-0.47830960566092795,-0.7126115836007489,0.6099789795175332,0.17414411246430195,-0.8136172869063423,0.5309312814220413,0.038357908458546364,0.4921799889698031,-0.8534659807350398,0.5502096373029681,0.9472593296995606,0.06496991186965206,0.5634132388287327,0.9653822472336293,-0.9821694815583153,-0.7833754167480564,0.6946691489410568,0.25247540735057483,0.5569560579957835,-0.28570819261854585,-0.47688736809207466,-0.3378110477333598,-0.8560592705548826,-0.41292698689095286,0.5003803642356546,0.9999404175204325,-0.30778214912294555,0.5473506696882258,-0.4750012419431171,0.09577380047337414,0.03844936017467049,-0.6828619802756666,-0.40334469722341515,0.5656042226402136,-0.4985389532400484,-0.4345461339390464,0.2314811270763879,0.5661613236827123,-0.33099302626178084,-0.20972091742399956,0.8333799318312993,-0.30064008304946177,0.7416590417134383,0.2618555285291324,-0.6719765144571075,0.2845155918464275,0.12391314994468527,0.48979061501522847,0.6875845175874231,0.7951864518883618,-0.15375423566390922,-0.4153662222179335,0.8441694773802386,-0.9038298877857955,0.6524779143963735,-0.6447049699988108,0.6847688556673581,-0.6388023966883247,0.605445929933546,0.016877591504671052,0.8008633422387303,0.1484352426202693,-0.3252260699086347,0.9792013839119174,0.27790318989428164,0.7378598577795912,0.21684464256479719,0.34449559607507574,-0.5787939643671198,0.024025313746023125,-0.4273839872411749,0.46344281985679214,-0.011353125376506013,-0.3936817984636036,0.9640085633486706,-0.8180401273353788,-0.7631583909427122,0.26024060393491255,0.8871659476980915,-0.7431958381793482,-0.11364575840311963,-0.44424359767508403,-0.7190283542672133,-0.1737038821056054,0.9727855338928302,0.4170999715995847,0.8917795162652642,0.49869122714697345,0.47442899662051685,-0.8157371719052569,0.4603972239826628,-0.4903659899518822,-0.40649149189008593,0.8897357703601874,0.6249372429923972,0.25088892864114754,0.6168398394312606,0.2965829180609305,-0.23677017187770955,0.6206293445129503,-0.6069131813666437,0.16036419942168845,-0.6089299501747709,-0.7460854890113651,-0.36239032025678486,0.026002273778086282,-0.8123517119335708,-0.03492914932513491,-0.4877665012697825,-0.31485670452563963,0.23709324659013142,0.834456006683516,-0.7739091402821456,-0.20348588873836082,-0.3448666339345057,0.6359838946900935,-0.23497875102297017,0.11123110767769906,0.41246092334470674,0.47803062254510853,-0.7191606332037026,-0.7530301944299587,0.8714621805578628,-0.4364559451348995,-0.8418896968147018,-0.9806433952613731,-0.4600460060212388,-0.4255665275783671,0.32489974678294775,0.4211773213323444,-0.3795582186180406,0.3151124015375564,-0.014706018920102482,0.8872156619291551,0.9692096716958634,0.0701961165563525,-0.37468613496823866,0.982306325594154,-0.25180560723731227,-0.7842942486871676,0.8801738127082215,0.4690049303740971,0.4282193907157281,-0.2825988284048919,0.649665925978929,0.4577746467231081,-0.4041928540394306,-0.640786346957323,0.7097772892990903,0.09217527180886442,0.3015830878182697,0.6148801203849297,-0.007524159109203232,0.5251578982422442,-0.8618415545308773,-0.4193248481168166,0.831386021941922,-0.5736691572529129,-0.277642530422918,0.4863920929953576,0.40425390541377415,0.71920539773298,-0.4132664924732192,-0.04007259825691034,0.6191966543007648,-0.6592539520462741,0.8778948830620739,0.7149225447108347,-0.9439709592921752,-0.055587274318706026,0.7142418257764924,-0.07306078283699313,-0.4278010876166991,0.8438800653383236,0.5732915323262888,0.8995915193552508,0.6721633362328714,-0.574582714479551,0.18415330800394258,-0.4608587077900903,0.005129424393280679,-0.9978660120018372,0.8408557214533787,-0.8524454732454319,-0.33573510535002815,-0.41474965638568584,-0.5341659517484072,-0.9989337778690359,-0.7402961837706412,-0.8879960541749026,-0.8965904020201017,-0.11051599050717997,-0.10098779135508384,-0.7032420619953423,0.12448927215364192,-0.0033893933060036296,-0.32368438204805683,-0.5386713976401654,0.8992358812015693,-0.12079956463734343,-0.7672982129859631,0.45250346942886965,-0.6419325188372538,0.9042314917901646,-0.1726398082690872,-0.9308254912294436,0.6764830044741981,-0.3149200022840335,0.4453321853140806,-0.7015362177138047,0.924596720870396,0.10857128918718972,0.18528168649917132,0.09967167770221641,-0.562041228881174,-0.629866059084631,0.7070365607472806,0.4768322792158428,0.6863705354601899,0.9765558879086556,-0.6067089790612497,-0.8548882528065689,0.3322972566641733,0.7534088909632874,0.2096764148451622,0.2232405044360113,-0.7940723753281318,0.5750798372867196,0.3752764188762323,0.07362146993632579,-0.5652036328443755,0.7379153490736527,-0.9035911328603592,-0.33628863302182554,0.1263333506132529,0.6892565551294412,0.8941770564706755,-0.3632763254411624,0.16659628387537695,0.025397100225412084,0.32204010848377496,-0.3433436818658213,0.09357535006433348,-0.7771199910460647,0.24751950804717726,-0.46790119326612967,0.41915358205709063,0.038253878955077925,0.5769776305304828,-0.8747711355110572,0.47888608161244606,0.5446104479906722,0.003606253141493543,-0.8831412949435222,-0.3749476691759013,-0.6310700896829562,-0.09240670111370375,-0.6746526879983914,-0.3411954814407012,0.07894889941177508,-0.8512374131801119,-0.5333540569891098,-0.5862034038640374,-0.4229193764345849,-0.8341896418132249,0.9946984519556765,-0.8892103767763049,-0.016269882684632364,0.5325902385032009,-0.024129384514018026,0.9302663188502944,0.6548303800035,0.9207263323025352,-0.17196427500909817,-0.917801962901871,-0.7593465191622097,0.2791627771877154,-0.805602471368039,